net 
{ 
}
node Cyp2c50 
{
  states = ( "No Change" "Low" "High" );
}
node Gsta3 
{
  states = ( "No Change" "Low" "High" );
}
node Serpina3m 
{
  states = ( "No Change" "Low" "High" );
}
node St3gal5 
{
  states = ( "No Change" "Low" "High" );
}
node Thrsp 
{
  states = ( "No Change" "Low" "High" );
}
node Slc30a7 
{
  states = ( "No Change" "Low" "High" );
}
node Mt2 
{
  states = ( "No Change" "Low" "High" );
}
node Slc39a3 
{
  states = ( "No Change" "Low" "High" );
}
node Slc39a7 
{
  states = ( "No Change" "Low" "High" );
}
node Slc39a14 
{
  states = ( "No Change" "Low" "High" );
}
node Slc39a2 
{
  states = ( "No Change" "Low" "High" );
}
node Lamp1 
{
  states = ( "No Change" "Low" "High" );
}
node Mt1 
{
  states = ( "No Change" "Low" "High" );
}
node Mt4 
{
  states = ( "No Change" "Low" "High" );
}
node Slc30a1 
{
  states = ( "No Change" "Low" "High" );
}
node Slc39a1 
{
  states = ( "No Change" "Low" "High" );
}
node Slc39a5 
{
  states = ( "No Change" "Low" "High" );
}
node Slc39a6 
{
  states = ( "No Change" "Low" "High" );
}
node Slc39a10 
{
  states = ( "No Change" "Low" "High" );
}
node Mcoln1 
{
  states = ( "No Change" "Low" "High" );
}
node Zkscan3 
{
  states = ( "No Change" "Low" "High" );
}
node Mtf1 
{
  states = ( "No Change" "Low" "High" );
}
node Mt3 
{
  states = ( "No Change" "Low" "High" );
}
node Slc30a4 
{
  states = ( "No Change" "Low" "High" );
}
node Slc30a5 
{
  states = ( "No Change" "Low" "High" );
}
node Slc39a9 
{
  states = ( "No Change" "Low" "High" );
}
node Slc39a13 
{
  states = ( "No Change" "Low" "High" );
}
node Acaa1a 
{
  states = ( "No Change" "Low" "High" );
}
node Cpamd8 
{
  states = ( "No Change" "Low" "High" );
}
node Slc27a5 
{
  states = ( "No Change" "Low" "High" );
}
node Uba52 
{
  states = ( "No Change" "Low" "High" );
}
node Sepp1 
{
  states = ( "No Change" "Low" "High" );
}
node Cyp2c68 
{
  states = ( "No Change" "Low" "High" );
}
node Gm6428 
{
  states = ( "No Change" "Low" "High" );
}
node Aass 
{
  states = ( "No Change" "Low" "High" );
}
node Gnmt 
{
  states = ( "No Change" "Low" "High" );
}
node Hnf4a 
{
  states = ( "No Change" "Low" "High" );
}
node Tat 
{
  states = ( "No Change" "Low" "High" );
}
node Atp5b 
{
  states = ( "No Change" "Low" "High" );
}
node Serpina3k 
{
  states = ( "No Change" "Low" "High" );
}
node Cyp2c67 
{
  states = ( "No Change" "Low" "High" );
}
node X2810007J24Rik 
{
  states = ( "No Change" "Low" "High" );
}
node Gm8566 
{
  states = ( "No Change" "Low" "High" );
}
node ND2 
{
  states = ( "No Change" "Low" "High" );
}
node Mat1a 
{
  states = ( "No Change" "Low" "High" );
}
node X1190003J15Rik 
{
  states = ( "No Change" "Low" "High" );
}
node Ass1 
{
  states = ( "No Change" "Low" "High" );
}
node Gm6222 
{
  states = ( "No Change" "Low" "High" );
}
node Aadac 
{
  states = ( "No Change" "Low" "High" );
}
node Mup3 
{
  states = ( "No Change" "Low" "High" );
}
node Gm5265 
{
  states = ( "No Change" "Low" "High" );
}
node Gstm1 
{
  states = ( "No Change" "Low" "High" );
}
node Cyp3a16 
{
  states = ( "No Change" "Low" "High" );
}
node Chchd10 
{
  states = ( "No Change" "Low" "High" );
}
node X2810002N01Rik 
{
  states = ( "No Change" "Low" "High" );
}
node Cyp2e1 
{
  states = ( "No Change" "Low" "High" );
}
node F10 
{
  states = ( "No Change" "Low" "High" );
}
node Gm15393 
{
  states = ( "No Change" "Low" "High" );
}
node Fgb 
{
  states = ( "No Change" "Low" "High" );
}
node Got1 
{
  states = ( "No Change" "Low" "High" );
}
node Alas1 
{
  states = ( "No Change" "Low" "High" );
}
node Elk1 
{
  states = ( "No Change" "Low" "High" );
}
node Gsta2 
{
  states = ( "No Change" "Low" "High" );
}
node Cyp3a11 
{
  states = ( "No Change" "Low" "High" );
}
potential ( Cyp2c50 | Cyp2c68 ) 
{
  data = ((0.77083333 0.02083333 0.20833333)(0.3333333 0.3333333 0.3333333)(0.08333333 0.08333333 0.83333333)) ;
}
potential ( Gsta3 | Slc30a7 Slc27a5 Uba52 Aass Tat ) 
{
  data = ((((((0.9994517544 0.0002741228 0.0002741228)(0.3333333 0.3333333 0.3333333)(0.3333333 0.3333333 0.3333333))((0.3333333 0.3333333 0.3333333)(0.3333333 0.3333333 0.3333333)(0.3333333 0.3333333 0.3333333))((0.3333333 0.3333333 0.3333333)(0.3333333 0.3333333 0.3333333)(0.3333333 0.3333333 0.3333333)))(((0.3333333 0.3333333 0.3333333)(0.3333333 0.3333333 0.3333333)(0.3333333 0.3333333 0.3333333))((0.3333333 0.3333333 0.3333333)(0.3333333 0.3333333 0.3333333)(0.3333333 0.3333333 0.3333333))((0.3333333 0.3333333 0.3333333)(0.3333333 0.3333333 0.3333333)(0.3333333 0.3333333 0.3333333)))(((0.3333333 0.3333333 0.3333333)(0.3333333 0.3333333 0.3333333)(0.3333333 0.3333333 0.3333333))((0.3333333 0.3333333 0.3333333)(0.3333333 0.3333333 0.3333333)(0.3333333 0.3333333 0.3333333))((0.3333333 0.3333333 0.3333333)(0.3333333 0.3333333 0.3333333)(0.3333333 0.3333333 0.3333333))))((((0.3333333 0.3333333 0.3333333)(0.3333333 0.3333333 0.3333333)(0.3333333 0.3333333 0.3333333))((0.3333333 0.3333333 0.3333333)(0.3333333 0.3333333 0.3333333)(0.3333333 0.3333333 0.3333333))((0.3333333 0.3333333 0.3333333)(0.3333333 0.3333333 0.3333333)(0.3333333 0.3333333 0.3333333)))(((0.3333333 0.3333333 0.3333333)(0.3333333 0.3333333 0.3333333)(0.3333333 0.3333333 0.3333333))((0.3333333 0.3333333 0.3333333)(0.3333333 0.3333333 0.3333333)(0.3333333 0.3333333 0.3333333))((0.3333333 0.3333333 0.3333333)(0.3333333 0.3333333 0.3333333)(0.3333333 0.3333333 0.3333333)))(((0.3333333 0.3333333 0.3333333)(0.3333333 0.3333333 0.3333333)(0.3333333 0.3333333 0.3333333))((0.3333333 0.3333333 0.3333333)(0.3333333 0.3333333 0.3333333)(0.3333333 0.3333333 0.3333333))((0.3333333 0.3333333 0.3333333)(0.3333333 0.3333333 0.3333333)(0.3333333 0.3333333 0.3333333))))((((0.3333333 0.3333333 0.3333333)(0.3333333 0.3333333 0.3333333)(0.3333333 0.3333333 0.3333333))((0.3333333 0.3333333 0.3333333)(0.3333333 0.3333333 0.3333333)(0.3333333 0.3333333 0.3333333))((0.3333333 0.3333333 0.3333333)(0.3333333 0.3333333 0.3333333)(0.3333333 0.3333333 0.3333333)))(((0.3333333 0.3333333 0.3333333)(0.3333333 0.3333333 0.3333333)(0.3333333 0.3333333 0.3333333))((0.3333333 0.3333333 0.3333333)(0.3333333 0.3333333 0.3333333)(0.3333333 0.3333333 0.3333333))((0.3333333 0.3333333 0.3333333)(0.3333333 0.3333333 0.3333333)(0.3333333 0.3333333 0.3333333)))(((0.3333333 0.3333333 0.3333333)(0.3333333 0.3333333 0.3333333)(0.3333333 0.3333333 0.3333333))((0.3333333 0.3333333 0.3333333)(0.3333333 0.3333333 0.3333333)(0.3333333 0.3333333 0.3333333))((0.3333333 0.3333333 0.3333333)(0.3333333 0.3333333 0.3333333)(0.3333333 0.3333333 0.3333333)))))(((((0.3333333 0.3333333 0.3333333)(0.3333333 0.3333333 0.3333333)(0.3333333 0.3333333 0.3333333))((0.3333333 0.3333333 0.3333333)(0.3333333 0.3333333 0.3333333)(0.3333333 0.3333333 0.3333333))((0.3333333 0.3333333 0.3333333)(0.3333333 0.3333333 0.3333333)(0.3333333 0.3333333 0.3333333)))(((0.3333333 0.3333333 0.3333333)(0.3333333 0.3333333 0.3333333)(0.3333333 0.3333333 0.3333333))((0.3333333 0.3333333 0.3333333)(0.3333333 0.3333333 0.3333333)(0.3333333 0.3333333 0.3333333))((0.3333333 0.3333333 0.3333333)(0.3333333 0.3333333 0.3333333)(0.3333333 0.3333333 0.3333333)))(((0.3333333 0.3333333 0.3333333)(0.3333333 0.3333333 0.3333333)(0.3333333 0.3333333 0.3333333))((0.3333333 0.3333333 0.3333333)(0.3333333 0.3333333 0.3333333)(0.3333333 0.3333333 0.3333333))((0.3333333 0.3333333 0.3333333)(0.3333333 0.3333333 0.3333333)(0.3333333 0.3333333 0.3333333))))((((0.3333333 0.3333333 0.3333333)(0.3333333 0.3333333 0.3333333)(0.3333333 0.3333333 0.3333333))((0.3333333 0.3333333 0.3333333)(0.3333333 0.3333333 0.3333333)(0.3333333 0.3333333 0.3333333))((0.3333333 0.3333333 0.3333333)(0.3333333 0.3333333 0.3333333)(0.3333333 0.3333333 0.3333333)))(((0.3333333 0.3333333 0.3333333)(0.3333333 0.3333333 0.3333333)(0.3333333 0.3333333 0.3333333))((0.3333333 0.3333333 0.3333333)(0.3333333 0.3333333 0.3333333)(0.3333333 0.3333333 0.3333333))((0.3333333 0.3333333 0.3333333)(0.3333333 0.3333333 0.3333333)(0.3333333 0.3333333 0.3333333)))(((0.3333333 0.3333333 0.3333333)(0.3333333 0.3333333 0.3333333)(0.3333333 0.3333333 0.3333333))((0.3333333 0.3333333 0.3333333)(0.3333333 0.3333333 0.3333333)(0.3333333 0.3333333 0.3333333))((0.3333333 0.3333333 0.3333333)(0.3333333 0.3333333 0.3333333)(0.3333333 0.3333333 0.3333333))))((((0.3333333 0.3333333 0.3333333)(0.3333333 0.3333333 0.3333333)(0.3333333 0.3333333 0.3333333))((0.3333333 0.3333333 0.3333333)(0.3333333 0.3333333 0.3333333)(0.3333333 0.3333333 0.3333333))((0.3333333 0.3333333 0.3333333)(0.3333333 0.3333333 0.3333333)(0.3333333 0.3333333 0.3333333)))(((0.3333333 0.3333333 0.3333333)(0.3333333 0.3333333 0.3333333)(0.3333333 0.3333333 0.3333333))((0.3333333 0.3333333 0.3333333)(0.3333333 0.3333333 0.3333333)(0.3333333 0.3333333 0.3333333))((0.3333333 0.3333333 0.3333333)(0.3333333 0.3333333 0.3333333)(0.3333333 0.3333333 0.3333333)))(((0.3333333 0.3333333 0.3333333)(0.3333333 0.3333333 0.3333333)(0.3333333 0.3333333 0.3333333))((0.3333333 0.3333333 0.3333333)(0.3333333 0.3333333 0.3333333)(0.3333333 0.3333333 0.3333333))((0.3333333 0.3333333 0.3333333)(0.3333333 0.3333333 0.3333333)(0.3333333 0.3333333 0.3333333)))))(((((0.3333333 0.3333333 0.3333333)(0.3333333 0.3333333 0.3333333)(0.3333333 0.3333333 0.3333333))((0.3333333 0.3333333 0.3333333)(0.3333333 0.3333333 0.3333333)(0.3333333 0.3333333 0.3333333))((0.3333333 0.3333333 0.3333333)(0.3333333 0.3333333 0.3333333)(0.3333333 0.3333333 0.3333333)))(((0.3333333 0.3333333 0.3333333)(0.3333333 0.3333333 0.3333333)(0.3333333 0.3333333 0.3333333))((0.3333333 0.3333333 0.3333333)(0.3333333 0.3333333 0.3333333)(0.3333333 0.3333333 0.3333333))((0.3333333 0.3333333 0.3333333)(0.3333333 0.3333333 0.3333333)(0.3333333 0.3333333 0.3333333)))(((0.3333333 0.3333333 0.3333333)(0.3333333 0.3333333 0.3333333)(0.3333333 0.3333333 0.3333333))((0.3333333 0.3333333 0.3333333)(0.3333333 0.3333333 0.3333333)(0.3333333 0.3333333 0.3333333))((0.3333333 0.3333333 0.3333333)(0.3333333 0.3333333 0.3333333)(0.3333333 0.3333333 0.3333333))))((((0.3333333 0.3333333 0.3333333)(0.3333333 0.3333333 0.3333333)(0.3333333 0.3333333 0.3333333))((0.3333333 0.3333333 0.3333333)(0.3333333 0.3333333 0.3333333)(0.3333333 0.3333333 0.3333333))((0.3333333 0.3333333 0.3333333)(0.3333333 0.3333333 0.3333333)(0.3333333 0.3333333 0.3333333)))(((0.3333333 0.3333333 0.3333333)(0.3333333 0.3333333 0.3333333)(0.3333333 0.3333333 0.3333333))((0.3333333 0.3333333 0.3333333)(0.3333333 0.3333333 0.3333333)(0.3333333 0.3333333 0.3333333))((0.3333333 0.3333333 0.3333333)(0.3333333 0.3333333 0.3333333)(0.3333333 0.3333333 0.3333333)))(((0.3333333 0.3333333 0.3333333)(0.3333333 0.3333333 0.3333333)(0.3333333 0.3333333 0.3333333))((0.3333333 0.3333333 0.3333333)(0.3333333 0.3333333 0.3333333)(0.3333333 0.3333333 0.3333333))((0.3333333 0.3333333 0.3333333)(0.3333333 0.3333333 0.3333333)(0.3333333 0.3333333 0.3333333))))((((0.3333333 0.3333333 0.3333333)(0.3333333 0.3333333 0.3333333)(0.3333333 0.3333333 0.3333333))((0.3333333 0.3333333 0.3333333)(0.3333333 0.3333333 0.3333333)(0.3333333 0.3333333 0.3333333))((0.3333333 0.3333333 0.3333333)(0.3333333 0.3333333 0.3333333)(0.3333333 0.3333333 0.3333333)))(((0.3333333 0.3333333 0.3333333)(0.3333333 0.3333333 0.3333333)(0.3333333 0.3333333 0.3333333))((0.3333333 0.3333333 0.3333333)(0.3333333 0.3333333 0.3333333)(0.3333333 0.3333333 0.3333333))((0.3333333 0.3333333 0.3333333)(0.3333333 0.3333333 0.3333333)(0.3333333 0.3333333 0.3333333)))(((0.3333333 0.3333333 0.3333333)(0.3333333 0.3333333 0.3333333)(0.3333333 0.3333333 0.3333333))((0.3333333 0.3333333 0.3333333)(0.3333333 0.3333333 0.3333333)(0.3333333 0.3333333 0.3333333))((0.3333333 0.3333333 0.3333333)(0.3333333 0.3333333 0.3333333)(0.00136612 0.00136612 0.99726776)))))) ;
}
potential ( Serpina3m | Slc30a7 Cpamd8 Slc27a5 Sepp1 ) 
{
  data = (((((0.9983579639 0.0008210181 0.0008210181)(0.3333333 0.3333333 0.3333333)(0.3333333 0.3333333 0.3333333))((0.3333333 0.3333333 0.3333333)(0.3333333 0.3333333 0.3333333)(0.3333333 0.3333333 0.3333333))((0.3333333 0.3333333 0.3333333)(0.3333333 0.3333333 0.3333333)(0.3333333 0.3333333 0.3333333)))(((0.3333333 0.3333333 0.3333333)(0.3333333 0.3333333 0.3333333)(0.3333333 0.3333333 0.3333333))((0.3333333 0.3333333 0.3333333)(0.3333333 0.3333333 0.3333333)(0.3333333 0.3333333 0.3333333))((0.3333333 0.3333333 0.3333333)(0.3333333 0.3333333 0.3333333)(0.3333333 0.3333333 0.3333333)))(((0.3333333 0.3333333 0.3333333)(0.3333333 0.3333333 0.3333333)(0.3333333 0.3333333 0.3333333))((0.3333333 0.3333333 0.3333333)(0.3333333 0.3333333 0.3333333)(0.3333333 0.3333333 0.3333333))((0.3333333 0.3333333 0.3333333)(0.3333333 0.3333333 0.3333333)(0.3333333 0.3333333 0.3333333))))((((0.3333333 0.3333333 0.3333333)(0.3333333 0.3333333 0.3333333)(0.3333333 0.3333333 0.3333333))((0.3333333 0.3333333 0.3333333)(0.3333333 0.3333333 0.3333333)(0.3333333 0.3333333 0.3333333))((0.3333333 0.3333333 0.3333333)(0.3333333 0.3333333 0.3333333)(0.3333333 0.3333333 0.3333333)))(((0.3333333 0.3333333 0.3333333)(0.3333333 0.3333333 0.3333333)(0.3333333 0.3333333 0.3333333))((0.3333333 0.3333333 0.3333333)(0.3333333 0.3333333 0.3333333)(0.3333333 0.3333333 0.3333333))((0.3333333 0.3333333 0.3333333)(0.3333333 0.3333333 0.3333333)(0.3333333 0.3333333 0.3333333)))(((0.3333333 0.3333333 0.3333333)(0.3333333 0.3333333 0.3333333)(0.3333333 0.3333333 0.3333333))((0.3333333 0.3333333 0.3333333)(0.3333333 0.3333333 0.3333333)(0.3333333 0.3333333 0.3333333))((0.3333333 0.3333333 0.3333333)(0.3333333 0.3333333 0.3333333)(0.3333333 0.3333333 0.3333333))))((((0.3333333 0.3333333 0.3333333)(0.3333333 0.3333333 0.3333333)(0.3333333 0.3333333 0.3333333))((0.3333333 0.3333333 0.3333333)(0.3333333 0.3333333 0.3333333)(0.3333333 0.3333333 0.3333333))((0.3333333 0.3333333 0.3333333)(0.3333333 0.3333333 0.3333333)(0.3333333 0.3333333 0.3333333)))(((0.3333333 0.3333333 0.3333333)(0.3333333 0.3333333 0.3333333)(0.3333333 0.3333333 0.3333333))((0.3333333 0.3333333 0.3333333)(0.3333333 0.3333333 0.3333333)(0.3333333 0.3333333 0.3333333))((0.3333333 0.3333333 0.3333333)(0.3333333 0.3333333 0.3333333)(0.3333333 0.3333333 0.3333333)))(((0.3333333 0.3333333 0.3333333)(0.3333333 0.3333333 0.3333333)(0.3333333 0.3333333 0.3333333))((0.3333333 0.3333333 0.3333333)(0.3333333 0.3333333 0.3333333)(0.3333333 0.3333333 0.3333333))((0.3333333 0.3333333 0.3333333)(0.3333333 0.3333333 0.3333333)(0.004065041 0.004065041 0.991869919))))) ;
}
potential ( St3gal5 | Acaa1a Cpamd8 Aass Hnf4a ) 
{
  data = (((((0.9983579639 0.0008210181 0.0008210181)(0.3333333 0.3333333 0.3333333)(0.3333333 0.3333333 0.3333333))((0.3333333 0.3333333 0.3333333)(0.3333333 0.3333333 0.3333333)(0.3333333 0.3333333 0.3333333))((0.3333333 0.3333333 0.3333333)(0.3333333 0.3333333 0.3333333)(0.3333333 0.3333333 0.3333333)))(((0.3333333 0.3333333 0.3333333)(0.3333333 0.3333333 0.3333333)(0.3333333 0.3333333 0.3333333))((0.3333333 0.3333333 0.3333333)(0.3333333 0.3333333 0.3333333)(0.3333333 0.3333333 0.3333333))((0.3333333 0.3333333 0.3333333)(0.3333333 0.3333333 0.3333333)(0.3333333 0.3333333 0.3333333)))(((0.3333333 0.3333333 0.3333333)(0.3333333 0.3333333 0.3333333)(0.3333333 0.3333333 0.3333333))((0.3333333 0.3333333 0.3333333)(0.3333333 0.3333333 0.3333333)(0.3333333 0.3333333 0.3333333))((0.3333333 0.3333333 0.3333333)(0.3333333 0.3333333 0.3333333)(0.3333333 0.3333333 0.3333333))))((((0.3333333 0.3333333 0.3333333)(0.3333333 0.3333333 0.3333333)(0.3333333 0.3333333 0.3333333))((0.3333333 0.3333333 0.3333333)(0.3333333 0.3333333 0.3333333)(0.3333333 0.3333333 0.3333333))((0.3333333 0.3333333 0.3333333)(0.3333333 0.3333333 0.3333333)(0.3333333 0.3333333 0.3333333)))(((0.3333333 0.3333333 0.3333333)(0.3333333 0.3333333 0.3333333)(0.3333333 0.3333333 0.3333333))((0.3333333 0.3333333 0.3333333)(0.3333333 0.3333333 0.3333333)(0.3333333 0.3333333 0.3333333))((0.3333333 0.3333333 0.3333333)(0.3333333 0.3333333 0.3333333)(0.3333333 0.3333333 0.3333333)))(((0.3333333 0.3333333 0.3333333)(0.3333333 0.3333333 0.3333333)(0.3333333 0.3333333 0.3333333))((0.3333333 0.3333333 0.3333333)(0.3333333 0.3333333 0.3333333)(0.3333333 0.3333333 0.3333333))((0.3333333 0.3333333 0.3333333)(0.3333333 0.3333333 0.3333333)(0.3333333 0.3333333 0.3333333))))((((0.3333333 0.3333333 0.3333333)(0.3333333 0.3333333 0.3333333)(0.3333333 0.3333333 0.3333333))((0.3333333 0.3333333 0.3333333)(0.3333333 0.3333333 0.3333333)(0.3333333 0.3333333 0.3333333))((0.3333333 0.3333333 0.3333333)(0.3333333 0.3333333 0.3333333)(0.3333333 0.3333333 0.3333333)))(((0.3333333 0.3333333 0.3333333)(0.3333333 0.3333333 0.3333333)(0.3333333 0.3333333 0.3333333))((0.3333333 0.3333333 0.3333333)(0.3333333 0.3333333 0.3333333)(0.3333333 0.3333333 0.3333333))((0.3333333 0.3333333 0.3333333)(0.3333333 0.3333333 0.3333333)(0.3333333 0.3333333 0.3333333)))(((0.3333333 0.3333333 0.3333333)(0.3333333 0.3333333 0.3333333)(0.3333333 0.3333333 0.3333333))((0.3333333 0.3333333 0.3333333)(0.3333333 0.3333333 0.3333333)(0.3333333 0.3333333 0.3333333))((0.3333333 0.3333333 0.3333333)(0.3333333 0.3333333 0.3333333)(0.004065041 0.004065041 0.991869919))))) ;
}
potential ( Thrsp | Acaa1a Gm6428 Aass Gnmt ) 
{
  data = (((((0.9983579639 0.0008210181 0.0008210181)(0.3333333 0.3333333 0.3333333)(0.3333333 0.3333333 0.3333333))((0.3333333 0.3333333 0.3333333)(0.3333333 0.3333333 0.3333333)(0.3333333 0.3333333 0.3333333))((0.3333333 0.3333333 0.3333333)(0.3333333 0.3333333 0.3333333)(0.3333333 0.3333333 0.3333333)))(((0.3333333 0.3333333 0.3333333)(0.3333333 0.3333333 0.3333333)(0.3333333 0.3333333 0.3333333))((0.3333333 0.3333333 0.3333333)(0.3333333 0.3333333 0.3333333)(0.3333333 0.3333333 0.3333333))((0.3333333 0.3333333 0.3333333)(0.3333333 0.3333333 0.3333333)(0.3333333 0.3333333 0.3333333)))(((0.3333333 0.3333333 0.3333333)(0.3333333 0.3333333 0.3333333)(0.3333333 0.3333333 0.3333333))((0.3333333 0.3333333 0.3333333)(0.3333333 0.3333333 0.3333333)(0.3333333 0.3333333 0.3333333))((0.3333333 0.3333333 0.3333333)(0.3333333 0.3333333 0.3333333)(0.3333333 0.3333333 0.3333333))))((((0.3333333 0.3333333 0.3333333)(0.3333333 0.3333333 0.3333333)(0.3333333 0.3333333 0.3333333))((0.3333333 0.3333333 0.3333333)(0.3333333 0.3333333 0.3333333)(0.3333333 0.3333333 0.3333333))((0.3333333 0.3333333 0.3333333)(0.3333333 0.3333333 0.3333333)(0.3333333 0.3333333 0.3333333)))(((0.3333333 0.3333333 0.3333333)(0.3333333 0.3333333 0.3333333)(0.3333333 0.3333333 0.3333333))((0.3333333 0.3333333 0.3333333)(0.3333333 0.3333333 0.3333333)(0.3333333 0.3333333 0.3333333))((0.3333333 0.3333333 0.3333333)(0.3333333 0.3333333 0.3333333)(0.3333333 0.3333333 0.3333333)))(((0.3333333 0.3333333 0.3333333)(0.3333333 0.3333333 0.3333333)(0.3333333 0.3333333 0.3333333))((0.3333333 0.3333333 0.3333333)(0.3333333 0.3333333 0.3333333)(0.3333333 0.3333333 0.3333333))((0.3333333 0.3333333 0.3333333)(0.3333333 0.3333333 0.3333333)(0.3333333 0.3333333 0.3333333))))((((0.3333333 0.3333333 0.3333333)(0.3333333 0.3333333 0.3333333)(0.3333333 0.3333333 0.3333333))((0.3333333 0.3333333 0.3333333)(0.3333333 0.3333333 0.3333333)(0.3333333 0.3333333 0.3333333))((0.3333333 0.3333333 0.3333333)(0.3333333 0.3333333 0.3333333)(0.3333333 0.3333333 0.3333333)))(((0.3333333 0.3333333 0.3333333)(0.3333333 0.3333333 0.3333333)(0.3333333 0.3333333 0.3333333))((0.3333333 0.3333333 0.3333333)(0.3333333 0.3333333 0.3333333)(0.3333333 0.3333333 0.3333333))((0.3333333 0.3333333 0.3333333)(0.3333333 0.3333333 0.3333333)(0.3333333 0.3333333 0.3333333)))(((0.3333333 0.3333333 0.3333333)(0.3333333 0.3333333 0.3333333)(0.3333333 0.3333333 0.3333333))((0.3333333 0.3333333 0.3333333)(0.3333333 0.3333333 0.3333333)(0.3333333 0.3333333 0.3333333))((0.3333333 0.3333333 0.3333333)(0.3333333 0.3333333 0.3333333)(0.004065041 0.004065041 0.991869919))))) ;
}
potential ( Slc30a7 | Slc39a14 Uba52 Aass Cyp2c67 ) 
{
  data = (((((0.9983579639 0.0008210181 0.0008210181)(0.3333333 0.3333333 0.3333333)(0.3333333 0.3333333 0.3333333))((0.3333333 0.3333333 0.3333333)(0.3333333 0.3333333 0.3333333)(0.3333333 0.3333333 0.3333333))((0.3333333 0.3333333 0.3333333)(0.3333333 0.3333333 0.3333333)(0.3333333 0.3333333 0.3333333)))(((0.3333333 0.3333333 0.3333333)(0.3333333 0.3333333 0.3333333)(0.3333333 0.3333333 0.3333333))((0.3333333 0.3333333 0.3333333)(0.3333333 0.3333333 0.3333333)(0.3333333 0.3333333 0.3333333))((0.3333333 0.3333333 0.3333333)(0.3333333 0.3333333 0.3333333)(0.3333333 0.3333333 0.3333333)))(((0.3333333 0.3333333 0.3333333)(0.3333333 0.3333333 0.3333333)(0.3333333 0.3333333 0.3333333))((0.3333333 0.3333333 0.3333333)(0.3333333 0.3333333 0.3333333)(0.3333333 0.3333333 0.3333333))((0.3333333 0.3333333 0.3333333)(0.3333333 0.3333333 0.3333333)(0.3333333 0.3333333 0.3333333))))((((0.3333333 0.3333333 0.3333333)(0.3333333 0.3333333 0.3333333)(0.3333333 0.3333333 0.3333333))((0.3333333 0.3333333 0.3333333)(0.3333333 0.3333333 0.3333333)(0.3333333 0.3333333 0.3333333))((0.3333333 0.3333333 0.3333333)(0.3333333 0.3333333 0.3333333)(0.3333333 0.3333333 0.3333333)))(((0.3333333 0.3333333 0.3333333)(0.3333333 0.3333333 0.3333333)(0.3333333 0.3333333 0.3333333))((0.3333333 0.3333333 0.3333333)(0.3333333 0.3333333 0.3333333)(0.3333333 0.3333333 0.3333333))((0.3333333 0.3333333 0.3333333)(0.3333333 0.3333333 0.3333333)(0.3333333 0.3333333 0.3333333)))(((0.3333333 0.3333333 0.3333333)(0.3333333 0.3333333 0.3333333)(0.3333333 0.3333333 0.3333333))((0.3333333 0.3333333 0.3333333)(0.3333333 0.3333333 0.3333333)(0.3333333 0.3333333 0.3333333))((0.3333333 0.3333333 0.3333333)(0.3333333 0.3333333 0.3333333)(0.3333333 0.3333333 0.3333333))))((((0.3333333 0.3333333 0.3333333)(0.3333333 0.3333333 0.3333333)(0.3333333 0.3333333 0.3333333))((0.3333333 0.3333333 0.3333333)(0.3333333 0.3333333 0.3333333)(0.3333333 0.3333333 0.3333333))((0.3333333 0.3333333 0.3333333)(0.3333333 0.3333333 0.3333333)(0.3333333 0.3333333 0.3333333)))(((0.3333333 0.3333333 0.3333333)(0.3333333 0.3333333 0.3333333)(0.3333333 0.3333333 0.3333333))((0.3333333 0.3333333 0.3333333)(0.3333333 0.3333333 0.3333333)(0.3333333 0.3333333 0.3333333))((0.3333333 0.3333333 0.3333333)(0.3333333 0.3333333 0.3333333)(0.3333333 0.3333333 0.3333333)))(((0.3333333 0.3333333 0.3333333)(0.3333333 0.3333333 0.3333333)(0.3333333 0.3333333 0.3333333))((0.3333333 0.3333333 0.3333333)(0.3333333 0.3333333 0.3333333)(0.3333333 0.3333333 0.3333333))((0.3333333 0.3333333 0.3333333)(0.3333333 0.3333333 0.3333333)(0.004065041 0.004065041 0.991869919))))) ;
}
potential ( Mt2 | Slc39a14 ) 
{
  data = ((0.95833333 0.02083333 0.02083333)(0.3333333 0.3333333 0.3333333)(0.08333333 0.08333333 0.83333333)) ;
}
potential ( Slc39a3 ) 
{
  data = ( 0.76190476 0.04761905 0.19047619 );
}
potential ( Slc39a7 | Serpina3m Slc27a5 Hnf4a Atp5b ) 
{
  data = (((((0.9983579639 0.0008210181 0.0008210181)(0.3333333 0.3333333 0.3333333)(0.3333333 0.3333333 0.3333333))((0.3333333 0.3333333 0.3333333)(0.3333333 0.3333333 0.3333333)(0.3333333 0.3333333 0.3333333))((0.3333333 0.3333333 0.3333333)(0.3333333 0.3333333 0.3333333)(0.3333333 0.3333333 0.3333333)))(((0.3333333 0.3333333 0.3333333)(0.3333333 0.3333333 0.3333333)(0.3333333 0.3333333 0.3333333))((0.3333333 0.3333333 0.3333333)(0.3333333 0.3333333 0.3333333)(0.3333333 0.3333333 0.3333333))((0.3333333 0.3333333 0.3333333)(0.3333333 0.3333333 0.3333333)(0.3333333 0.3333333 0.3333333)))(((0.3333333 0.3333333 0.3333333)(0.3333333 0.3333333 0.3333333)(0.3333333 0.3333333 0.3333333))((0.3333333 0.3333333 0.3333333)(0.3333333 0.3333333 0.3333333)(0.3333333 0.3333333 0.3333333))((0.3333333 0.3333333 0.3333333)(0.3333333 0.3333333 0.3333333)(0.3333333 0.3333333 0.3333333))))((((0.3333333 0.3333333 0.3333333)(0.3333333 0.3333333 0.3333333)(0.3333333 0.3333333 0.3333333))((0.3333333 0.3333333 0.3333333)(0.3333333 0.3333333 0.3333333)(0.3333333 0.3333333 0.3333333))((0.3333333 0.3333333 0.3333333)(0.3333333 0.3333333 0.3333333)(0.3333333 0.3333333 0.3333333)))(((0.3333333 0.3333333 0.3333333)(0.3333333 0.3333333 0.3333333)(0.3333333 0.3333333 0.3333333))((0.3333333 0.3333333 0.3333333)(0.3333333 0.3333333 0.3333333)(0.3333333 0.3333333 0.3333333))((0.3333333 0.3333333 0.3333333)(0.3333333 0.3333333 0.3333333)(0.3333333 0.3333333 0.3333333)))(((0.3333333 0.3333333 0.3333333)(0.3333333 0.3333333 0.3333333)(0.3333333 0.3333333 0.3333333))((0.3333333 0.3333333 0.3333333)(0.3333333 0.3333333 0.3333333)(0.3333333 0.3333333 0.3333333))((0.3333333 0.3333333 0.3333333)(0.3333333 0.3333333 0.3333333)(0.3333333 0.3333333 0.3333333))))((((0.3333333 0.3333333 0.3333333)(0.3333333 0.3333333 0.3333333)(0.3333333 0.3333333 0.3333333))((0.3333333 0.3333333 0.3333333)(0.3333333 0.3333333 0.3333333)(0.3333333 0.3333333 0.3333333))((0.3333333 0.3333333 0.3333333)(0.3333333 0.3333333 0.3333333)(0.3333333 0.3333333 0.3333333)))(((0.3333333 0.3333333 0.3333333)(0.3333333 0.3333333 0.3333333)(0.3333333 0.3333333 0.3333333))((0.3333333 0.3333333 0.3333333)(0.3333333 0.3333333 0.3333333)(0.3333333 0.3333333 0.3333333))((0.3333333 0.3333333 0.3333333)(0.3333333 0.3333333 0.3333333)(0.3333333 0.3333333 0.3333333)))(((0.3333333 0.3333333 0.3333333)(0.3333333 0.3333333 0.3333333)(0.3333333 0.3333333 0.3333333))((0.3333333 0.3333333 0.3333333)(0.3333333 0.3333333 0.3333333)(0.3333333 0.3333333 0.3333333))((0.3333333 0.3333333 0.3333333)(0.3333333 0.3333333 0.3333333)(0.004065041 0.004065041 0.991869919))))) ;
}
potential ( Slc39a14 ) 
{
  data = ( 0.76190476 0.04761905 0.19047619 );
}
potential ( Slc39a2 | Cyp2c50 Slc39a5 Fgb ) 
{
  data = ((((0.006060606 0.987878788 0.006060606)(0.97619048 0.01190476 0.01190476)(0.3333333 0.3333333 0.3333333))((0.3333333 0.3333333 0.3333333)(0.3333333 0.3333333 0.3333333)(0.97619048 0.01190476 0.01190476))((0.3333333 0.3333333 0.3333333)(0.3333333 0.3333333 0.3333333)(0.3333333 0.3333333 0.3333333)))(((0.3333333 0.3333333 0.3333333)(0.3333333 0.3333333 0.3333333)(0.3333333 0.3333333 0.3333333))((0.3333333 0.3333333 0.3333333)(0.3333333 0.3333333 0.3333333)(0.3333333 0.3333333 0.3333333))((0.3333333 0.3333333 0.3333333)(0.3333333 0.3333333 0.3333333)(0.3333333 0.3333333 0.3333333)))(((0.97619048 0.01190476 0.01190476)(0.3333333 0.3333333 0.3333333)(0.3333333 0.3333333 0.3333333))((0.3333333 0.3333333 0.3333333)(0.3333333 0.3333333 0.3333333)(0.3333333 0.3333333 0.3333333))((0.01190476 0.01190476 0.97619048)(0.3333333 0.3333333 0.3333333)(0.3333333 0.3333333 0.3333333)))) ;
}
potential ( Lamp1 | Gsta3 Slc39a7 Mat1a Gm6222 ) 
{
  data = (((((0.997948718 0.001025641 0.001025641)(0.004065041 0.991869919 0.004065041)(0.3333333 0.3333333 0.3333333))((0.3333333 0.3333333 0.3333333)(0.3333333 0.3333333 0.3333333)(0.3333333 0.3333333 0.3333333))((0.3333333 0.3333333 0.3333333)(0.3333333 0.3333333 0.3333333)(0.3333333 0.3333333 0.3333333)))(((0.3333333 0.3333333 0.3333333)(0.3333333 0.3333333 0.3333333)(0.3333333 0.3333333 0.3333333))((0.3333333 0.3333333 0.3333333)(0.3333333 0.3333333 0.3333333)(0.3333333 0.3333333 0.3333333))((0.3333333 0.3333333 0.3333333)(0.3333333 0.3333333 0.3333333)(0.3333333 0.3333333 0.3333333)))(((0.3333333 0.3333333 0.3333333)(0.3333333 0.3333333 0.3333333)(0.3333333 0.3333333 0.3333333))((0.3333333 0.3333333 0.3333333)(0.3333333 0.3333333 0.3333333)(0.3333333 0.3333333 0.3333333))((0.3333333 0.3333333 0.3333333)(0.3333333 0.3333333 0.3333333)(0.3333333 0.3333333 0.3333333))))((((0.3333333 0.3333333 0.3333333)(0.3333333 0.3333333 0.3333333)(0.3333333 0.3333333 0.3333333))((0.3333333 0.3333333 0.3333333)(0.3333333 0.3333333 0.3333333)(0.3333333 0.3333333 0.3333333))((0.3333333 0.3333333 0.3333333)(0.3333333 0.3333333 0.3333333)(0.3333333 0.3333333 0.3333333)))(((0.3333333 0.3333333 0.3333333)(0.3333333 0.3333333 0.3333333)(0.3333333 0.3333333 0.3333333))((0.3333333 0.3333333 0.3333333)(0.3333333 0.3333333 0.3333333)(0.3333333 0.3333333 0.3333333))((0.3333333 0.3333333 0.3333333)(0.3333333 0.3333333 0.3333333)(0.3333333 0.3333333 0.3333333)))(((0.3333333 0.3333333 0.3333333)(0.3333333 0.3333333 0.3333333)(0.3333333 0.3333333 0.3333333))((0.3333333 0.3333333 0.3333333)(0.3333333 0.3333333 0.3333333)(0.3333333 0.3333333 0.3333333))((0.3333333 0.3333333 0.3333333)(0.3333333 0.3333333 0.3333333)(0.3333333 0.3333333 0.3333333))))((((0.3333333 0.3333333 0.3333333)(0.3333333 0.3333333 0.3333333)(0.3333333 0.3333333 0.3333333))((0.3333333 0.3333333 0.3333333)(0.3333333 0.3333333 0.3333333)(0.3333333 0.3333333 0.3333333))((0.3333333 0.3333333 0.3333333)(0.3333333 0.3333333 0.3333333)(0.3333333 0.3333333 0.3333333)))(((0.3333333 0.3333333 0.3333333)(0.3333333 0.3333333 0.3333333)(0.3333333 0.3333333 0.3333333))((0.3333333 0.3333333 0.3333333)(0.3333333 0.3333333 0.3333333)(0.3333333 0.3333333 0.3333333))((0.3333333 0.3333333 0.3333333)(0.3333333 0.3333333 0.3333333)(0.3333333 0.3333333 0.3333333)))(((0.3333333 0.3333333 0.3333333)(0.3333333 0.3333333 0.3333333)(0.3333333 0.3333333 0.3333333))((0.3333333 0.3333333 0.3333333)(0.3333333 0.3333333 0.3333333)(0.3333333 0.3333333 0.3333333))((0.3333333 0.3333333 0.3333333)(0.3333333 0.3333333 0.3333333)(0.004065041 0.004065041 0.991869919))))) ;
}
potential ( Mt1 | Gm6428 Aass X2810007J24Rik Gm8566 Gstm1 ) 
{
  data = ((((((0.9993148338 0.0003425831 0.0003425831)(0.3333333 0.3333333 0.3333333)(0.00136612 0.99726776 0.00136612))((0.3333333 0.3333333 0.3333333)(0.3333333 0.3333333 0.3333333)(0.3333333 0.3333333 0.3333333))((0.3333333 0.3333333 0.3333333)(0.3333333 0.3333333 0.3333333)(0.3333333 0.3333333 0.3333333)))(((0.3333333 0.3333333 0.3333333)(0.3333333 0.3333333 0.3333333)(0.3333333 0.3333333 0.3333333))((0.3333333 0.3333333 0.3333333)(0.3333333 0.3333333 0.3333333)(0.3333333 0.3333333 0.3333333))((0.3333333 0.3333333 0.3333333)(0.3333333 0.3333333 0.3333333)(0.3333333 0.3333333 0.3333333)))(((0.3333333 0.3333333 0.3333333)(0.3333333 0.3333333 0.3333333)(0.3333333 0.3333333 0.3333333))((0.3333333 0.3333333 0.3333333)(0.3333333 0.3333333 0.3333333)(0.3333333 0.3333333 0.3333333))((0.3333333 0.3333333 0.3333333)(0.3333333 0.3333333 0.3333333)(0.3333333 0.3333333 0.3333333))))((((0.3333333 0.3333333 0.3333333)(0.3333333 0.3333333 0.3333333)(0.3333333 0.3333333 0.3333333))((0.3333333 0.3333333 0.3333333)(0.3333333 0.3333333 0.3333333)(0.3333333 0.3333333 0.3333333))((0.3333333 0.3333333 0.3333333)(0.3333333 0.3333333 0.3333333)(0.3333333 0.3333333 0.3333333)))(((0.3333333 0.3333333 0.3333333)(0.3333333 0.3333333 0.3333333)(0.3333333 0.3333333 0.3333333))((0.3333333 0.3333333 0.3333333)(0.3333333 0.3333333 0.3333333)(0.3333333 0.3333333 0.3333333))((0.3333333 0.3333333 0.3333333)(0.3333333 0.3333333 0.3333333)(0.3333333 0.3333333 0.3333333)))(((0.3333333 0.3333333 0.3333333)(0.3333333 0.3333333 0.3333333)(0.3333333 0.3333333 0.3333333))((0.3333333 0.3333333 0.3333333)(0.3333333 0.3333333 0.3333333)(0.3333333 0.3333333 0.3333333))((0.3333333 0.3333333 0.3333333)(0.3333333 0.3333333 0.3333333)(0.3333333 0.3333333 0.3333333))))((((0.3333333 0.3333333 0.3333333)(0.3333333 0.3333333 0.3333333)(0.3333333 0.3333333 0.3333333))((0.3333333 0.3333333 0.3333333)(0.3333333 0.3333333 0.3333333)(0.3333333 0.3333333 0.3333333))((0.3333333 0.3333333 0.3333333)(0.3333333 0.3333333 0.3333333)(0.3333333 0.3333333 0.3333333)))(((0.3333333 0.3333333 0.3333333)(0.3333333 0.3333333 0.3333333)(0.3333333 0.3333333 0.3333333))((0.3333333 0.3333333 0.3333333)(0.3333333 0.3333333 0.3333333)(0.3333333 0.3333333 0.3333333))((0.3333333 0.3333333 0.3333333)(0.3333333 0.3333333 0.3333333)(0.3333333 0.3333333 0.3333333)))(((0.3333333 0.3333333 0.3333333)(0.3333333 0.3333333 0.3333333)(0.3333333 0.3333333 0.3333333))((0.3333333 0.3333333 0.3333333)(0.3333333 0.3333333 0.3333333)(0.3333333 0.3333333 0.3333333))((0.3333333 0.3333333 0.3333333)(0.3333333 0.3333333 0.3333333)(0.3333333 0.3333333 0.3333333)))))(((((0.3333333 0.3333333 0.3333333)(0.3333333 0.3333333 0.3333333)(0.3333333 0.3333333 0.3333333))((0.3333333 0.3333333 0.3333333)(0.3333333 0.3333333 0.3333333)(0.3333333 0.3333333 0.3333333))((0.3333333 0.3333333 0.3333333)(0.3333333 0.3333333 0.3333333)(0.3333333 0.3333333 0.3333333)))(((0.3333333 0.3333333 0.3333333)(0.3333333 0.3333333 0.3333333)(0.3333333 0.3333333 0.3333333))((0.3333333 0.3333333 0.3333333)(0.3333333 0.3333333 0.3333333)(0.3333333 0.3333333 0.3333333))((0.3333333 0.3333333 0.3333333)(0.3333333 0.3333333 0.3333333)(0.3333333 0.3333333 0.3333333)))(((0.3333333 0.3333333 0.3333333)(0.3333333 0.3333333 0.3333333)(0.3333333 0.3333333 0.3333333))((0.3333333 0.3333333 0.3333333)(0.3333333 0.3333333 0.3333333)(0.3333333 0.3333333 0.3333333))((0.3333333 0.3333333 0.3333333)(0.3333333 0.3333333 0.3333333)(0.3333333 0.3333333 0.3333333))))((((0.3333333 0.3333333 0.3333333)(0.3333333 0.3333333 0.3333333)(0.3333333 0.3333333 0.3333333))((0.3333333 0.3333333 0.3333333)(0.3333333 0.3333333 0.3333333)(0.3333333 0.3333333 0.3333333))((0.3333333 0.3333333 0.3333333)(0.3333333 0.3333333 0.3333333)(0.3333333 0.3333333 0.3333333)))(((0.3333333 0.3333333 0.3333333)(0.3333333 0.3333333 0.3333333)(0.3333333 0.3333333 0.3333333))((0.3333333 0.3333333 0.3333333)(0.3333333 0.3333333 0.3333333)(0.3333333 0.3333333 0.3333333))((0.3333333 0.3333333 0.3333333)(0.3333333 0.3333333 0.3333333)(0.3333333 0.3333333 0.3333333)))(((0.3333333 0.3333333 0.3333333)(0.3333333 0.3333333 0.3333333)(0.3333333 0.3333333 0.3333333))((0.3333333 0.3333333 0.3333333)(0.3333333 0.3333333 0.3333333)(0.3333333 0.3333333 0.3333333))((0.3333333 0.3333333 0.3333333)(0.3333333 0.3333333 0.3333333)(0.3333333 0.3333333 0.3333333))))((((0.3333333 0.3333333 0.3333333)(0.3333333 0.3333333 0.3333333)(0.3333333 0.3333333 0.3333333))((0.3333333 0.3333333 0.3333333)(0.3333333 0.3333333 0.3333333)(0.3333333 0.3333333 0.3333333))((0.3333333 0.3333333 0.3333333)(0.3333333 0.3333333 0.3333333)(0.3333333 0.3333333 0.3333333)))(((0.3333333 0.3333333 0.3333333)(0.3333333 0.3333333 0.3333333)(0.3333333 0.3333333 0.3333333))((0.3333333 0.3333333 0.3333333)(0.3333333 0.3333333 0.3333333)(0.3333333 0.3333333 0.3333333))((0.3333333 0.3333333 0.3333333)(0.3333333 0.3333333 0.3333333)(0.3333333 0.3333333 0.3333333)))(((0.3333333 0.3333333 0.3333333)(0.3333333 0.3333333 0.3333333)(0.3333333 0.3333333 0.3333333))((0.3333333 0.3333333 0.3333333)(0.3333333 0.3333333 0.3333333)(0.3333333 0.3333333 0.3333333))((0.3333333 0.3333333 0.3333333)(0.3333333 0.3333333 0.3333333)(0.3333333 0.3333333 0.3333333)))))(((((0.3333333 0.3333333 0.3333333)(0.3333333 0.3333333 0.3333333)(0.3333333 0.3333333 0.3333333))((0.3333333 0.3333333 0.3333333)(0.3333333 0.3333333 0.3333333)(0.3333333 0.3333333 0.3333333))((0.3333333 0.3333333 0.3333333)(0.3333333 0.3333333 0.3333333)(0.3333333 0.3333333 0.3333333)))(((0.3333333 0.3333333 0.3333333)(0.3333333 0.3333333 0.3333333)(0.3333333 0.3333333 0.3333333))((0.3333333 0.3333333 0.3333333)(0.3333333 0.3333333 0.3333333)(0.3333333 0.3333333 0.3333333))((0.3333333 0.3333333 0.3333333)(0.3333333 0.3333333 0.3333333)(0.3333333 0.3333333 0.3333333)))(((0.3333333 0.3333333 0.3333333)(0.3333333 0.3333333 0.3333333)(0.3333333 0.3333333 0.3333333))((0.3333333 0.3333333 0.3333333)(0.3333333 0.3333333 0.3333333)(0.3333333 0.3333333 0.3333333))((0.3333333 0.3333333 0.3333333)(0.3333333 0.3333333 0.3333333)(0.3333333 0.3333333 0.3333333))))((((0.3333333 0.3333333 0.3333333)(0.3333333 0.3333333 0.3333333)(0.3333333 0.3333333 0.3333333))((0.3333333 0.3333333 0.3333333)(0.3333333 0.3333333 0.3333333)(0.3333333 0.3333333 0.3333333))((0.3333333 0.3333333 0.3333333)(0.3333333 0.3333333 0.3333333)(0.3333333 0.3333333 0.3333333)))(((0.3333333 0.3333333 0.3333333)(0.3333333 0.3333333 0.3333333)(0.3333333 0.3333333 0.3333333))((0.3333333 0.3333333 0.3333333)(0.3333333 0.3333333 0.3333333)(0.3333333 0.3333333 0.3333333))((0.3333333 0.3333333 0.3333333)(0.3333333 0.3333333 0.3333333)(0.3333333 0.3333333 0.3333333)))(((0.3333333 0.3333333 0.3333333)(0.3333333 0.3333333 0.3333333)(0.3333333 0.3333333 0.3333333))((0.3333333 0.3333333 0.3333333)(0.3333333 0.3333333 0.3333333)(0.3333333 0.3333333 0.3333333))((0.3333333 0.3333333 0.3333333)(0.3333333 0.3333333 0.3333333)(0.3333333 0.3333333 0.3333333))))((((0.3333333 0.3333333 0.3333333)(0.3333333 0.3333333 0.3333333)(0.3333333 0.3333333 0.3333333))((0.3333333 0.3333333 0.3333333)(0.3333333 0.3333333 0.3333333)(0.3333333 0.3333333 0.3333333))((0.3333333 0.3333333 0.3333333)(0.3333333 0.3333333 0.3333333)(0.3333333 0.3333333 0.3333333)))(((0.3333333 0.3333333 0.3333333)(0.3333333 0.3333333 0.3333333)(0.3333333 0.3333333 0.3333333))((0.3333333 0.3333333 0.3333333)(0.3333333 0.3333333 0.3333333)(0.3333333 0.3333333 0.3333333))((0.3333333 0.3333333 0.3333333)(0.3333333 0.3333333 0.3333333)(0.3333333 0.3333333 0.3333333)))(((0.3333333 0.3333333 0.3333333)(0.3333333 0.3333333 0.3333333)(0.3333333 0.3333333 0.3333333))((0.3333333 0.3333333 0.3333333)(0.3333333 0.3333333 0.3333333)(0.3333333 0.3333333 0.3333333))((0.3333333 0.3333333 0.3333333)(0.00136612 0.00136612 0.99726776)(0.3333333 0.3333333 0.3333333)))))) ;
}
potential ( Mt4 | Mt1 Cpamd8 Sepp1 Cyp3a16 ) 
{
  data = (((((0.748717949 0.001025641 0.250256410)(0.3333333 0.3333333 0.3333333)(0.3333333 0.3333333 0.3333333))((0.3333333 0.3333333 0.3333333)(0.3333333 0.3333333 0.3333333)(0.3333333 0.3333333 0.3333333))((0.3333333 0.3333333 0.3333333)(0.3333333 0.3333333 0.3333333)(0.3333333 0.3333333 0.3333333)))(((0.3333333 0.3333333 0.3333333)(0.3333333 0.3333333 0.3333333)(0.3333333 0.3333333 0.3333333))((0.3333333 0.3333333 0.3333333)(0.3333333 0.3333333 0.3333333)(0.3333333 0.3333333 0.3333333))((0.3333333 0.3333333 0.3333333)(0.3333333 0.3333333 0.3333333)(0.3333333 0.3333333 0.3333333)))(((0.3333333 0.3333333 0.3333333)(0.3333333 0.3333333 0.3333333)(0.3333333 0.3333333 0.3333333))((0.3333333 0.3333333 0.3333333)(0.3333333 0.3333333 0.3333333)(0.3333333 0.3333333 0.3333333))((0.3333333 0.3333333 0.3333333)(0.3333333 0.3333333 0.3333333)(0.3333333 0.3333333 0.3333333))))((((0.004065041 0.991869919 0.004065041)(0.3333333 0.3333333 0.3333333)(0.3333333 0.3333333 0.3333333))((0.3333333 0.3333333 0.3333333)(0.3333333 0.3333333 0.3333333)(0.3333333 0.3333333 0.3333333))((0.3333333 0.3333333 0.3333333)(0.3333333 0.3333333 0.3333333)(0.3333333 0.3333333 0.3333333)))(((0.3333333 0.3333333 0.3333333)(0.3333333 0.3333333 0.3333333)(0.3333333 0.3333333 0.3333333))((0.3333333 0.3333333 0.3333333)(0.3333333 0.3333333 0.3333333)(0.3333333 0.3333333 0.3333333))((0.3333333 0.3333333 0.3333333)(0.3333333 0.3333333 0.3333333)(0.3333333 0.3333333 0.3333333)))(((0.3333333 0.3333333 0.3333333)(0.3333333 0.3333333 0.3333333)(0.3333333 0.3333333 0.3333333))((0.3333333 0.3333333 0.3333333)(0.3333333 0.3333333 0.3333333)(0.3333333 0.3333333 0.3333333))((0.3333333 0.3333333 0.3333333)(0.3333333 0.3333333 0.3333333)(0.3333333 0.3333333 0.3333333))))((((0.3333333 0.3333333 0.3333333)(0.3333333 0.3333333 0.3333333)(0.3333333 0.3333333 0.3333333))((0.3333333 0.3333333 0.3333333)(0.3333333 0.3333333 0.3333333)(0.3333333 0.3333333 0.3333333))((0.3333333 0.3333333 0.3333333)(0.3333333 0.3333333 0.3333333)(0.3333333 0.3333333 0.3333333)))(((0.3333333 0.3333333 0.3333333)(0.3333333 0.3333333 0.3333333)(0.3333333 0.3333333 0.3333333))((0.3333333 0.3333333 0.3333333)(0.3333333 0.3333333 0.3333333)(0.3333333 0.3333333 0.3333333))((0.3333333 0.3333333 0.3333333)(0.3333333 0.3333333 0.3333333)(0.3333333 0.3333333 0.3333333)))(((0.3333333 0.3333333 0.3333333)(0.3333333 0.3333333 0.3333333)(0.3333333 0.3333333 0.3333333))((0.3333333 0.3333333 0.3333333)(0.3333333 0.3333333 0.3333333)(0.3333333 0.3333333 0.3333333))((0.3333333 0.3333333 0.3333333)(0.3333333 0.3333333 0.3333333)(0.991869919 0.004065041 0.004065041))))) ;
}
potential ( Slc30a1 | Mcoln1 Atp5b Gm8566 ND2 Gstm1 ) 
{
  data = ((((((0.999086758 0.000456621 0.000456621)(0.3333333 0.3333333 0.3333333)(0.00136612 0.99726776 0.00136612))((0.3333333 0.3333333 0.3333333)(0.3333333 0.3333333 0.3333333)(0.3333333 0.3333333 0.3333333))((0.3333333 0.3333333 0.3333333)(0.3333333 0.3333333 0.3333333)(0.3333333 0.3333333 0.3333333)))(((0.3333333 0.3333333 0.3333333)(0.3333333 0.3333333 0.3333333)(0.3333333 0.3333333 0.3333333))((0.3333333 0.3333333 0.3333333)(0.3333333 0.3333333 0.3333333)(0.3333333 0.3333333 0.3333333))((0.3333333 0.3333333 0.3333333)(0.3333333 0.3333333 0.3333333)(0.3333333 0.3333333 0.3333333)))(((0.3333333 0.3333333 0.3333333)(0.3333333 0.3333333 0.3333333)(0.3333333 0.3333333 0.3333333))((0.3333333 0.3333333 0.3333333)(0.3333333 0.3333333 0.3333333)(0.3333333 0.3333333 0.3333333))((0.3333333 0.3333333 0.3333333)(0.3333333 0.3333333 0.3333333)(0.3333333 0.3333333 0.3333333))))((((0.3333333 0.3333333 0.3333333)(0.3333333 0.3333333 0.3333333)(0.3333333 0.3333333 0.3333333))((0.3333333 0.3333333 0.3333333)(0.3333333 0.3333333 0.3333333)(0.3333333 0.3333333 0.3333333))((0.3333333 0.3333333 0.3333333)(0.3333333 0.3333333 0.3333333)(0.3333333 0.3333333 0.3333333)))(((0.3333333 0.3333333 0.3333333)(0.3333333 0.3333333 0.3333333)(0.3333333 0.3333333 0.3333333))((0.3333333 0.3333333 0.3333333)(0.3333333 0.3333333 0.3333333)(0.3333333 0.3333333 0.3333333))((0.3333333 0.3333333 0.3333333)(0.3333333 0.3333333 0.3333333)(0.3333333 0.3333333 0.3333333)))(((0.3333333 0.3333333 0.3333333)(0.3333333 0.3333333 0.3333333)(0.3333333 0.3333333 0.3333333))((0.3333333 0.3333333 0.3333333)(0.3333333 0.3333333 0.3333333)(0.3333333 0.3333333 0.3333333))((0.3333333 0.3333333 0.3333333)(0.3333333 0.3333333 0.3333333)(0.3333333 0.3333333 0.3333333))))((((0.3333333 0.3333333 0.3333333)(0.3333333 0.3333333 0.3333333)(0.3333333 0.3333333 0.3333333))((0.3333333 0.3333333 0.3333333)(0.3333333 0.3333333 0.3333333)(0.3333333 0.3333333 0.3333333))((0.3333333 0.3333333 0.3333333)(0.3333333 0.3333333 0.3333333)(0.3333333 0.3333333 0.3333333)))(((0.3333333 0.3333333 0.3333333)(0.3333333 0.3333333 0.3333333)(0.3333333 0.3333333 0.3333333))((0.3333333 0.3333333 0.3333333)(0.3333333 0.3333333 0.3333333)(0.3333333 0.3333333 0.3333333))((0.3333333 0.3333333 0.3333333)(0.3333333 0.3333333 0.3333333)(0.3333333 0.3333333 0.3333333)))(((0.3333333 0.3333333 0.3333333)(0.3333333 0.3333333 0.3333333)(0.3333333 0.3333333 0.3333333))((0.3333333 0.3333333 0.3333333)(0.3333333 0.3333333 0.3333333)(0.3333333 0.3333333 0.3333333))((0.3333333 0.3333333 0.3333333)(0.3333333 0.3333333 0.3333333)(0.3333333 0.3333333 0.3333333)))))(((((0.00136612 0.00136612 0.99726776)(0.3333333 0.3333333 0.3333333)(0.3333333 0.3333333 0.3333333))((0.3333333 0.3333333 0.3333333)(0.3333333 0.3333333 0.3333333)(0.3333333 0.3333333 0.3333333))((0.3333333 0.3333333 0.3333333)(0.3333333 0.3333333 0.3333333)(0.3333333 0.3333333 0.3333333)))(((0.3333333 0.3333333 0.3333333)(0.3333333 0.3333333 0.3333333)(0.3333333 0.3333333 0.3333333))((0.3333333 0.3333333 0.3333333)(0.3333333 0.3333333 0.3333333)(0.3333333 0.3333333 0.3333333))((0.3333333 0.3333333 0.3333333)(0.3333333 0.3333333 0.3333333)(0.3333333 0.3333333 0.3333333)))(((0.3333333 0.3333333 0.3333333)(0.3333333 0.3333333 0.3333333)(0.3333333 0.3333333 0.3333333))((0.3333333 0.3333333 0.3333333)(0.3333333 0.3333333 0.3333333)(0.3333333 0.3333333 0.3333333))((0.3333333 0.3333333 0.3333333)(0.3333333 0.3333333 0.3333333)(0.3333333 0.3333333 0.3333333))))((((0.3333333 0.3333333 0.3333333)(0.3333333 0.3333333 0.3333333)(0.3333333 0.3333333 0.3333333))((0.3333333 0.3333333 0.3333333)(0.3333333 0.3333333 0.3333333)(0.3333333 0.3333333 0.3333333))((0.3333333 0.3333333 0.3333333)(0.3333333 0.3333333 0.3333333)(0.3333333 0.3333333 0.3333333)))(((0.3333333 0.3333333 0.3333333)(0.3333333 0.3333333 0.3333333)(0.3333333 0.3333333 0.3333333))((0.3333333 0.3333333 0.3333333)(0.3333333 0.3333333 0.3333333)(0.3333333 0.3333333 0.3333333))((0.3333333 0.3333333 0.3333333)(0.3333333 0.3333333 0.3333333)(0.3333333 0.3333333 0.3333333)))(((0.3333333 0.3333333 0.3333333)(0.3333333 0.3333333 0.3333333)(0.3333333 0.3333333 0.3333333))((0.3333333 0.3333333 0.3333333)(0.3333333 0.3333333 0.3333333)(0.3333333 0.3333333 0.3333333))((0.3333333 0.3333333 0.3333333)(0.3333333 0.3333333 0.3333333)(0.3333333 0.3333333 0.3333333))))((((0.3333333 0.3333333 0.3333333)(0.3333333 0.3333333 0.3333333)(0.3333333 0.3333333 0.3333333))((0.3333333 0.3333333 0.3333333)(0.3333333 0.3333333 0.3333333)(0.3333333 0.3333333 0.3333333))((0.3333333 0.3333333 0.3333333)(0.3333333 0.3333333 0.3333333)(0.3333333 0.3333333 0.3333333)))(((0.3333333 0.3333333 0.3333333)(0.3333333 0.3333333 0.3333333)(0.3333333 0.3333333 0.3333333))((0.3333333 0.3333333 0.3333333)(0.3333333 0.3333333 0.3333333)(0.3333333 0.3333333 0.3333333))((0.3333333 0.3333333 0.3333333)(0.3333333 0.3333333 0.3333333)(0.3333333 0.3333333 0.3333333)))(((0.3333333 0.3333333 0.3333333)(0.3333333 0.3333333 0.3333333)(0.3333333 0.3333333 0.3333333))((0.3333333 0.3333333 0.3333333)(0.3333333 0.3333333 0.3333333)(0.3333333 0.3333333 0.3333333))((0.3333333 0.3333333 0.3333333)(0.3333333 0.3333333 0.3333333)(0.3333333 0.3333333 0.3333333)))))(((((0.3333333 0.3333333 0.3333333)(0.3333333 0.3333333 0.3333333)(0.3333333 0.3333333 0.3333333))((0.3333333 0.3333333 0.3333333)(0.3333333 0.3333333 0.3333333)(0.3333333 0.3333333 0.3333333))((0.3333333 0.3333333 0.3333333)(0.3333333 0.3333333 0.3333333)(0.3333333 0.3333333 0.3333333)))(((0.3333333 0.3333333 0.3333333)(0.3333333 0.3333333 0.3333333)(0.3333333 0.3333333 0.3333333))((0.3333333 0.3333333 0.3333333)(0.3333333 0.3333333 0.3333333)(0.3333333 0.3333333 0.3333333))((0.3333333 0.3333333 0.3333333)(0.3333333 0.3333333 0.3333333)(0.3333333 0.3333333 0.3333333)))(((0.3333333 0.3333333 0.3333333)(0.3333333 0.3333333 0.3333333)(0.3333333 0.3333333 0.3333333))((0.3333333 0.3333333 0.3333333)(0.3333333 0.3333333 0.3333333)(0.3333333 0.3333333 0.3333333))((0.3333333 0.3333333 0.3333333)(0.3333333 0.3333333 0.3333333)(0.3333333 0.3333333 0.3333333))))((((0.3333333 0.3333333 0.3333333)(0.3333333 0.3333333 0.3333333)(0.3333333 0.3333333 0.3333333))((0.3333333 0.3333333 0.3333333)(0.3333333 0.3333333 0.3333333)(0.3333333 0.3333333 0.3333333))((0.3333333 0.3333333 0.3333333)(0.3333333 0.3333333 0.3333333)(0.3333333 0.3333333 0.3333333)))(((0.3333333 0.3333333 0.3333333)(0.3333333 0.3333333 0.3333333)(0.3333333 0.3333333 0.3333333))((0.3333333 0.3333333 0.3333333)(0.3333333 0.3333333 0.3333333)(0.3333333 0.3333333 0.3333333))((0.3333333 0.3333333 0.3333333)(0.3333333 0.3333333 0.3333333)(0.3333333 0.3333333 0.3333333)))(((0.3333333 0.3333333 0.3333333)(0.3333333 0.3333333 0.3333333)(0.3333333 0.3333333 0.3333333))((0.3333333 0.3333333 0.3333333)(0.3333333 0.3333333 0.3333333)(0.3333333 0.3333333 0.3333333))((0.3333333 0.3333333 0.3333333)(0.3333333 0.3333333 0.3333333)(0.3333333 0.3333333 0.3333333))))((((0.3333333 0.3333333 0.3333333)(0.3333333 0.3333333 0.3333333)(0.3333333 0.3333333 0.3333333))((0.3333333 0.3333333 0.3333333)(0.3333333 0.3333333 0.3333333)(0.3333333 0.3333333 0.3333333))((0.3333333 0.3333333 0.3333333)(0.3333333 0.3333333 0.3333333)(0.3333333 0.3333333 0.3333333)))(((0.3333333 0.3333333 0.3333333)(0.3333333 0.3333333 0.3333333)(0.3333333 0.3333333 0.3333333))((0.3333333 0.3333333 0.3333333)(0.3333333 0.3333333 0.3333333)(0.3333333 0.3333333 0.3333333))((0.3333333 0.3333333 0.3333333)(0.3333333 0.3333333 0.3333333)(0.3333333 0.3333333 0.3333333)))(((0.3333333 0.3333333 0.3333333)(0.3333333 0.3333333 0.3333333)(0.3333333 0.3333333 0.3333333))((0.3333333 0.3333333 0.3333333)(0.3333333 0.3333333 0.3333333)(0.3333333 0.3333333 0.3333333))((0.3333333 0.3333333 0.3333333)(0.00136612 0.99726776 0.00136612)(0.3333333 0.3333333 0.3333333)))))) ;
}
potential ( Slc39a1 | Atp5b X2810002N01Rik F10 Gm15393 ) 
{
  data = (((((0.997948718 0.001025641 0.001025641)(0.3333333 0.3333333 0.3333333)(0.3333333 0.3333333 0.3333333))((0.3333333 0.3333333 0.3333333)(0.3333333 0.3333333 0.3333333)(0.3333333 0.3333333 0.3333333))((0.3333333 0.3333333 0.3333333)(0.3333333 0.3333333 0.3333333)(0.3333333 0.3333333 0.3333333)))(((0.3333333 0.3333333 0.3333333)(0.3333333 0.3333333 0.3333333)(0.3333333 0.3333333 0.3333333))((0.3333333 0.3333333 0.3333333)(0.004065041 0.991869919 0.004065041)(0.3333333 0.3333333 0.3333333))((0.3333333 0.3333333 0.3333333)(0.3333333 0.3333333 0.3333333)(0.3333333 0.3333333 0.3333333)))(((0.3333333 0.3333333 0.3333333)(0.3333333 0.3333333 0.3333333)(0.3333333 0.3333333 0.3333333))((0.3333333 0.3333333 0.3333333)(0.3333333 0.3333333 0.3333333)(0.3333333 0.3333333 0.3333333))((0.3333333 0.3333333 0.3333333)(0.3333333 0.3333333 0.3333333)(0.3333333 0.3333333 0.3333333))))((((0.3333333 0.3333333 0.3333333)(0.3333333 0.3333333 0.3333333)(0.3333333 0.3333333 0.3333333))((0.3333333 0.3333333 0.3333333)(0.3333333 0.3333333 0.3333333)(0.3333333 0.3333333 0.3333333))((0.3333333 0.3333333 0.3333333)(0.3333333 0.3333333 0.3333333)(0.3333333 0.3333333 0.3333333)))(((0.3333333 0.3333333 0.3333333)(0.3333333 0.3333333 0.3333333)(0.3333333 0.3333333 0.3333333))((0.3333333 0.3333333 0.3333333)(0.3333333 0.3333333 0.3333333)(0.3333333 0.3333333 0.3333333))((0.3333333 0.3333333 0.3333333)(0.3333333 0.3333333 0.3333333)(0.3333333 0.3333333 0.3333333)))(((0.3333333 0.3333333 0.3333333)(0.3333333 0.3333333 0.3333333)(0.3333333 0.3333333 0.3333333))((0.3333333 0.3333333 0.3333333)(0.3333333 0.3333333 0.3333333)(0.3333333 0.3333333 0.3333333))((0.3333333 0.3333333 0.3333333)(0.3333333 0.3333333 0.3333333)(0.3333333 0.3333333 0.3333333))))((((0.3333333 0.3333333 0.3333333)(0.3333333 0.3333333 0.3333333)(0.3333333 0.3333333 0.3333333))((0.3333333 0.3333333 0.3333333)(0.3333333 0.3333333 0.3333333)(0.3333333 0.3333333 0.3333333))((0.3333333 0.3333333 0.3333333)(0.3333333 0.3333333 0.3333333)(0.3333333 0.3333333 0.3333333)))(((0.3333333 0.3333333 0.3333333)(0.3333333 0.3333333 0.3333333)(0.3333333 0.3333333 0.3333333))((0.3333333 0.3333333 0.3333333)(0.3333333 0.3333333 0.3333333)(0.3333333 0.3333333 0.3333333))((0.3333333 0.3333333 0.3333333)(0.3333333 0.3333333 0.3333333)(0.3333333 0.3333333 0.3333333)))(((0.3333333 0.3333333 0.3333333)(0.3333333 0.3333333 0.3333333)(0.3333333 0.3333333 0.3333333))((0.3333333 0.3333333 0.3333333)(0.3333333 0.3333333 0.3333333)(0.3333333 0.3333333 0.3333333))((0.3333333 0.3333333 0.3333333)(0.3333333 0.3333333 0.3333333)(0.004065041 0.004065041 0.991869919))))) ;
}
potential ( Slc39a5 | Slc30a7 Aass Gnmt Mat1a ) 
{
  data = (((((0.7988505747 0.0008210181 0.2003284072)(0.3333333 0.3333333 0.3333333)(0.3333333 0.3333333 0.3333333))((0.3333333 0.3333333 0.3333333)(0.3333333 0.3333333 0.3333333)(0.3333333 0.3333333 0.3333333))((0.3333333 0.3333333 0.3333333)(0.3333333 0.3333333 0.3333333)(0.3333333 0.3333333 0.3333333)))(((0.3333333 0.3333333 0.3333333)(0.3333333 0.3333333 0.3333333)(0.3333333 0.3333333 0.3333333))((0.3333333 0.3333333 0.3333333)(0.3333333 0.3333333 0.3333333)(0.3333333 0.3333333 0.3333333))((0.3333333 0.3333333 0.3333333)(0.3333333 0.3333333 0.3333333)(0.3333333 0.3333333 0.3333333)))(((0.3333333 0.3333333 0.3333333)(0.3333333 0.3333333 0.3333333)(0.3333333 0.3333333 0.3333333))((0.3333333 0.3333333 0.3333333)(0.3333333 0.3333333 0.3333333)(0.3333333 0.3333333 0.3333333))((0.3333333 0.3333333 0.3333333)(0.3333333 0.3333333 0.3333333)(0.3333333 0.3333333 0.3333333))))((((0.3333333 0.3333333 0.3333333)(0.3333333 0.3333333 0.3333333)(0.3333333 0.3333333 0.3333333))((0.3333333 0.3333333 0.3333333)(0.3333333 0.3333333 0.3333333)(0.3333333 0.3333333 0.3333333))((0.3333333 0.3333333 0.3333333)(0.3333333 0.3333333 0.3333333)(0.3333333 0.3333333 0.3333333)))(((0.3333333 0.3333333 0.3333333)(0.3333333 0.3333333 0.3333333)(0.3333333 0.3333333 0.3333333))((0.3333333 0.3333333 0.3333333)(0.3333333 0.3333333 0.3333333)(0.3333333 0.3333333 0.3333333))((0.3333333 0.3333333 0.3333333)(0.3333333 0.3333333 0.3333333)(0.3333333 0.3333333 0.3333333)))(((0.3333333 0.3333333 0.3333333)(0.3333333 0.3333333 0.3333333)(0.3333333 0.3333333 0.3333333))((0.3333333 0.3333333 0.3333333)(0.3333333 0.3333333 0.3333333)(0.3333333 0.3333333 0.3333333))((0.3333333 0.3333333 0.3333333)(0.3333333 0.3333333 0.3333333)(0.3333333 0.3333333 0.3333333))))((((0.3333333 0.3333333 0.3333333)(0.3333333 0.3333333 0.3333333)(0.3333333 0.3333333 0.3333333))((0.3333333 0.3333333 0.3333333)(0.3333333 0.3333333 0.3333333)(0.3333333 0.3333333 0.3333333))((0.3333333 0.3333333 0.3333333)(0.3333333 0.3333333 0.3333333)(0.3333333 0.3333333 0.3333333)))(((0.3333333 0.3333333 0.3333333)(0.3333333 0.3333333 0.3333333)(0.3333333 0.3333333 0.3333333))((0.3333333 0.3333333 0.3333333)(0.3333333 0.3333333 0.3333333)(0.3333333 0.3333333 0.3333333))((0.3333333 0.3333333 0.3333333)(0.3333333 0.3333333 0.3333333)(0.3333333 0.3333333 0.3333333)))(((0.3333333 0.3333333 0.3333333)(0.3333333 0.3333333 0.3333333)(0.3333333 0.3333333 0.3333333))((0.3333333 0.3333333 0.3333333)(0.3333333 0.3333333 0.3333333)(0.3333333 0.3333333 0.3333333))((0.3333333 0.3333333 0.3333333)(0.3333333 0.3333333 0.3333333)(0.004065041 0.991869919 0.004065041))))) ;
}
potential ( Slc39a6 | Mt2 Mt3 X1190003J15Rik Gm5265 ) 
{
  data = (((((0.997948718 0.001025641 0.001025641)(0.3333333 0.3333333 0.3333333)(0.3333333 0.3333333 0.3333333))((0.3333333 0.3333333 0.3333333)(0.3333333 0.3333333 0.3333333)(0.3333333 0.3333333 0.3333333))((0.3333333 0.3333333 0.3333333)(0.3333333 0.3333333 0.3333333)(0.3333333 0.3333333 0.3333333)))(((0.3333333 0.3333333 0.3333333)(0.3333333 0.3333333 0.3333333)(0.3333333 0.3333333 0.3333333))((0.3333333 0.3333333 0.3333333)(0.3333333 0.3333333 0.3333333)(0.3333333 0.3333333 0.3333333))((0.3333333 0.3333333 0.3333333)(0.3333333 0.3333333 0.3333333)(0.3333333 0.3333333 0.3333333)))(((0.004065041 0.991869919 0.004065041)(0.3333333 0.3333333 0.3333333)(0.3333333 0.3333333 0.3333333))((0.3333333 0.3333333 0.3333333)(0.3333333 0.3333333 0.3333333)(0.3333333 0.3333333 0.3333333))((0.3333333 0.3333333 0.3333333)(0.3333333 0.3333333 0.3333333)(0.3333333 0.3333333 0.3333333))))((((0.3333333 0.3333333 0.3333333)(0.3333333 0.3333333 0.3333333)(0.3333333 0.3333333 0.3333333))((0.3333333 0.3333333 0.3333333)(0.3333333 0.3333333 0.3333333)(0.3333333 0.3333333 0.3333333))((0.3333333 0.3333333 0.3333333)(0.3333333 0.3333333 0.3333333)(0.3333333 0.3333333 0.3333333)))(((0.3333333 0.3333333 0.3333333)(0.3333333 0.3333333 0.3333333)(0.3333333 0.3333333 0.3333333))((0.3333333 0.3333333 0.3333333)(0.3333333 0.3333333 0.3333333)(0.3333333 0.3333333 0.3333333))((0.3333333 0.3333333 0.3333333)(0.3333333 0.3333333 0.3333333)(0.3333333 0.3333333 0.3333333)))(((0.3333333 0.3333333 0.3333333)(0.3333333 0.3333333 0.3333333)(0.3333333 0.3333333 0.3333333))((0.3333333 0.3333333 0.3333333)(0.3333333 0.3333333 0.3333333)(0.3333333 0.3333333 0.3333333))((0.3333333 0.3333333 0.3333333)(0.3333333 0.3333333 0.3333333)(0.3333333 0.3333333 0.3333333))))((((0.3333333 0.3333333 0.3333333)(0.3333333 0.3333333 0.3333333)(0.3333333 0.3333333 0.3333333))((0.3333333 0.3333333 0.3333333)(0.3333333 0.3333333 0.3333333)(0.3333333 0.3333333 0.3333333))((0.3333333 0.3333333 0.3333333)(0.3333333 0.3333333 0.3333333)(0.3333333 0.3333333 0.3333333)))(((0.3333333 0.3333333 0.3333333)(0.3333333 0.3333333 0.3333333)(0.3333333 0.3333333 0.3333333))((0.3333333 0.3333333 0.3333333)(0.3333333 0.3333333 0.3333333)(0.3333333 0.3333333 0.3333333))((0.3333333 0.3333333 0.3333333)(0.3333333 0.3333333 0.3333333)(0.3333333 0.3333333 0.3333333)))(((0.3333333 0.3333333 0.3333333)(0.3333333 0.3333333 0.3333333)(0.3333333 0.3333333 0.3333333))((0.3333333 0.3333333 0.3333333)(0.3333333 0.3333333 0.3333333)(0.3333333 0.3333333 0.3333333))((0.3333333 0.3333333 0.3333333)(0.3333333 0.3333333 0.3333333)(0.004065041 0.004065041 0.991869919))))) ;
}
potential ( Slc39a10 | Slc30a4 Aass Ass1 Alas1 Elk1 ) 
{
  data = ((((((0.9993148338 0.0003425831 0.0003425831)(0.3333333 0.3333333 0.3333333)(0.3333333 0.3333333 0.3333333))((0.3333333 0.3333333 0.3333333)(0.3333333 0.3333333 0.3333333)(0.3333333 0.3333333 0.3333333))((0.3333333 0.3333333 0.3333333)(0.3333333 0.3333333 0.3333333)(0.3333333 0.3333333 0.3333333)))(((0.3333333 0.3333333 0.3333333)(0.3333333 0.3333333 0.3333333)(0.3333333 0.3333333 0.3333333))((0.3333333 0.3333333 0.3333333)(0.3333333 0.3333333 0.3333333)(0.3333333 0.3333333 0.3333333))((0.3333333 0.3333333 0.3333333)(0.3333333 0.3333333 0.3333333)(0.3333333 0.3333333 0.3333333)))(((0.3333333 0.3333333 0.3333333)(0.3333333 0.3333333 0.3333333)(0.3333333 0.3333333 0.3333333))((0.3333333 0.3333333 0.3333333)(0.3333333 0.3333333 0.3333333)(0.3333333 0.3333333 0.3333333))((0.3333333 0.3333333 0.3333333)(0.3333333 0.3333333 0.3333333)(0.3333333 0.3333333 0.3333333))))((((0.3333333 0.3333333 0.3333333)(0.3333333 0.3333333 0.3333333)(0.3333333 0.3333333 0.3333333))((0.3333333 0.3333333 0.3333333)(0.3333333 0.3333333 0.3333333)(0.3333333 0.3333333 0.3333333))((0.3333333 0.3333333 0.3333333)(0.3333333 0.3333333 0.3333333)(0.3333333 0.3333333 0.3333333)))(((0.3333333 0.3333333 0.3333333)(0.3333333 0.3333333 0.3333333)(0.3333333 0.3333333 0.3333333))((0.3333333 0.3333333 0.3333333)(0.3333333 0.3333333 0.3333333)(0.3333333 0.3333333 0.3333333))((0.3333333 0.3333333 0.3333333)(0.3333333 0.3333333 0.3333333)(0.3333333 0.3333333 0.3333333)))(((0.3333333 0.3333333 0.3333333)(0.3333333 0.3333333 0.3333333)(0.3333333 0.3333333 0.3333333))((0.3333333 0.3333333 0.3333333)(0.3333333 0.3333333 0.3333333)(0.3333333 0.3333333 0.3333333))((0.3333333 0.3333333 0.3333333)(0.3333333 0.3333333 0.3333333)(0.3333333 0.3333333 0.3333333))))((((0.3333333 0.3333333 0.3333333)(0.3333333 0.3333333 0.3333333)(0.3333333 0.3333333 0.3333333))((0.3333333 0.3333333 0.3333333)(0.3333333 0.3333333 0.3333333)(0.3333333 0.3333333 0.3333333))((0.3333333 0.3333333 0.3333333)(0.3333333 0.3333333 0.3333333)(0.3333333 0.3333333 0.3333333)))(((0.3333333 0.3333333 0.3333333)(0.3333333 0.3333333 0.3333333)(0.3333333 0.3333333 0.3333333))((0.3333333 0.3333333 0.3333333)(0.3333333 0.3333333 0.3333333)(0.3333333 0.3333333 0.3333333))((0.3333333 0.3333333 0.3333333)(0.3333333 0.3333333 0.3333333)(0.3333333 0.3333333 0.3333333)))(((0.3333333 0.3333333 0.3333333)(0.3333333 0.3333333 0.3333333)(0.3333333 0.3333333 0.3333333))((0.3333333 0.3333333 0.3333333)(0.3333333 0.3333333 0.3333333)(0.3333333 0.3333333 0.3333333))((0.3333333 0.3333333 0.3333333)(0.3333333 0.3333333 0.3333333)(0.3333333 0.3333333 0.3333333)))))(((((0.00136612 0.99726776 0.00136612)(0.3333333 0.3333333 0.3333333)(0.3333333 0.3333333 0.3333333))((0.3333333 0.3333333 0.3333333)(0.3333333 0.3333333 0.3333333)(0.3333333 0.3333333 0.3333333))((0.3333333 0.3333333 0.3333333)(0.3333333 0.3333333 0.3333333)(0.3333333 0.3333333 0.3333333)))(((0.3333333 0.3333333 0.3333333)(0.3333333 0.3333333 0.3333333)(0.3333333 0.3333333 0.3333333))((0.3333333 0.3333333 0.3333333)(0.3333333 0.3333333 0.3333333)(0.3333333 0.3333333 0.3333333))((0.3333333 0.3333333 0.3333333)(0.3333333 0.3333333 0.3333333)(0.3333333 0.3333333 0.3333333)))(((0.3333333 0.3333333 0.3333333)(0.3333333 0.3333333 0.3333333)(0.3333333 0.3333333 0.3333333))((0.3333333 0.3333333 0.3333333)(0.3333333 0.3333333 0.3333333)(0.3333333 0.3333333 0.3333333))((0.3333333 0.3333333 0.3333333)(0.3333333 0.3333333 0.3333333)(0.3333333 0.3333333 0.3333333))))((((0.3333333 0.3333333 0.3333333)(0.3333333 0.3333333 0.3333333)(0.3333333 0.3333333 0.3333333))((0.3333333 0.3333333 0.3333333)(0.3333333 0.3333333 0.3333333)(0.3333333 0.3333333 0.3333333))((0.3333333 0.3333333 0.3333333)(0.3333333 0.3333333 0.3333333)(0.3333333 0.3333333 0.3333333)))(((0.3333333 0.3333333 0.3333333)(0.3333333 0.3333333 0.3333333)(0.3333333 0.3333333 0.3333333))((0.3333333 0.3333333 0.3333333)(0.3333333 0.3333333 0.3333333)(0.3333333 0.3333333 0.3333333))((0.3333333 0.3333333 0.3333333)(0.3333333 0.3333333 0.3333333)(0.3333333 0.3333333 0.3333333)))(((0.3333333 0.3333333 0.3333333)(0.3333333 0.3333333 0.3333333)(0.3333333 0.3333333 0.3333333))((0.3333333 0.3333333 0.3333333)(0.3333333 0.3333333 0.3333333)(0.3333333 0.3333333 0.3333333))((0.3333333 0.3333333 0.3333333)(0.3333333 0.3333333 0.3333333)(0.3333333 0.3333333 0.3333333))))((((0.3333333 0.3333333 0.3333333)(0.3333333 0.3333333 0.3333333)(0.3333333 0.3333333 0.3333333))((0.3333333 0.3333333 0.3333333)(0.3333333 0.3333333 0.3333333)(0.3333333 0.3333333 0.3333333))((0.3333333 0.3333333 0.3333333)(0.3333333 0.3333333 0.3333333)(0.3333333 0.3333333 0.3333333)))(((0.3333333 0.3333333 0.3333333)(0.3333333 0.3333333 0.3333333)(0.3333333 0.3333333 0.3333333))((0.3333333 0.3333333 0.3333333)(0.3333333 0.3333333 0.3333333)(0.3333333 0.3333333 0.3333333))((0.3333333 0.3333333 0.3333333)(0.3333333 0.3333333 0.3333333)(0.3333333 0.3333333 0.3333333)))(((0.3333333 0.3333333 0.3333333)(0.3333333 0.3333333 0.3333333)(0.3333333 0.3333333 0.3333333))((0.3333333 0.3333333 0.3333333)(0.3333333 0.3333333 0.3333333)(0.3333333 0.3333333 0.3333333))((0.3333333 0.3333333 0.3333333)(0.3333333 0.3333333 0.3333333)(0.3333333 0.3333333 0.3333333)))))(((((0.3333333 0.3333333 0.3333333)(0.3333333 0.3333333 0.3333333)(0.3333333 0.3333333 0.3333333))((0.3333333 0.3333333 0.3333333)(0.3333333 0.3333333 0.3333333)(0.3333333 0.3333333 0.3333333))((0.3333333 0.3333333 0.3333333)(0.3333333 0.3333333 0.3333333)(0.3333333 0.3333333 0.3333333)))(((0.3333333 0.3333333 0.3333333)(0.3333333 0.3333333 0.3333333)(0.3333333 0.3333333 0.3333333))((0.3333333 0.3333333 0.3333333)(0.3333333 0.3333333 0.3333333)(0.3333333 0.3333333 0.3333333))((0.3333333 0.3333333 0.3333333)(0.3333333 0.3333333 0.3333333)(0.3333333 0.3333333 0.3333333)))(((0.3333333 0.3333333 0.3333333)(0.3333333 0.3333333 0.3333333)(0.3333333 0.3333333 0.3333333))((0.3333333 0.3333333 0.3333333)(0.3333333 0.3333333 0.3333333)(0.3333333 0.3333333 0.3333333))((0.3333333 0.3333333 0.3333333)(0.3333333 0.3333333 0.3333333)(0.3333333 0.3333333 0.3333333))))((((0.3333333 0.3333333 0.3333333)(0.3333333 0.3333333 0.3333333)(0.3333333 0.3333333 0.3333333))((0.3333333 0.3333333 0.3333333)(0.3333333 0.3333333 0.3333333)(0.3333333 0.3333333 0.3333333))((0.3333333 0.3333333 0.3333333)(0.3333333 0.3333333 0.3333333)(0.3333333 0.3333333 0.3333333)))(((0.3333333 0.3333333 0.3333333)(0.3333333 0.3333333 0.3333333)(0.3333333 0.3333333 0.3333333))((0.3333333 0.3333333 0.3333333)(0.3333333 0.3333333 0.3333333)(0.3333333 0.3333333 0.3333333))((0.3333333 0.3333333 0.3333333)(0.3333333 0.3333333 0.3333333)(0.3333333 0.3333333 0.3333333)))(((0.3333333 0.3333333 0.3333333)(0.3333333 0.3333333 0.3333333)(0.3333333 0.3333333 0.3333333))((0.3333333 0.3333333 0.3333333)(0.3333333 0.3333333 0.3333333)(0.3333333 0.3333333 0.3333333))((0.3333333 0.3333333 0.3333333)(0.3333333 0.3333333 0.3333333)(0.3333333 0.3333333 0.3333333))))((((0.3333333 0.3333333 0.3333333)(0.3333333 0.3333333 0.3333333)(0.3333333 0.3333333 0.3333333))((0.3333333 0.3333333 0.3333333)(0.3333333 0.3333333 0.3333333)(0.3333333 0.3333333 0.3333333))((0.3333333 0.3333333 0.3333333)(0.3333333 0.3333333 0.3333333)(0.3333333 0.3333333 0.3333333)))(((0.3333333 0.3333333 0.3333333)(0.3333333 0.3333333 0.3333333)(0.3333333 0.3333333 0.3333333))((0.3333333 0.3333333 0.3333333)(0.3333333 0.3333333 0.3333333)(0.3333333 0.3333333 0.3333333))((0.3333333 0.3333333 0.3333333)(0.3333333 0.3333333 0.3333333)(0.3333333 0.3333333 0.3333333)))(((0.3333333 0.3333333 0.3333333)(0.3333333 0.3333333 0.3333333)(0.3333333 0.3333333 0.3333333))((0.3333333 0.3333333 0.3333333)(0.3333333 0.3333333 0.3333333)(0.3333333 0.3333333 0.3333333))((0.3333333 0.3333333 0.3333333)(0.3333333 0.3333333 0.3333333)(0.00136612 0.00136612 0.99726776)))))) ;
}
potential ( Mcoln1 | Aadac Mup3 Gm5265 Gsta2 ) 
{
  data = (((((0.997948718 0.001025641 0.001025641)(0.3333333 0.3333333 0.3333333)(0.3333333 0.3333333 0.3333333))((0.3333333 0.3333333 0.3333333)(0.3333333 0.3333333 0.3333333)(0.3333333 0.3333333 0.3333333))((0.3333333 0.3333333 0.3333333)(0.3333333 0.3333333 0.3333333)(0.3333333 0.3333333 0.3333333)))(((0.3333333 0.3333333 0.3333333)(0.3333333 0.3333333 0.3333333)(0.3333333 0.3333333 0.3333333))((0.3333333 0.3333333 0.3333333)(0.3333333 0.3333333 0.3333333)(0.3333333 0.3333333 0.3333333))((0.3333333 0.3333333 0.3333333)(0.3333333 0.3333333 0.3333333)(0.3333333 0.3333333 0.3333333)))(((0.3333333 0.3333333 0.3333333)(0.3333333 0.3333333 0.3333333)(0.3333333 0.3333333 0.3333333))((0.3333333 0.3333333 0.3333333)(0.3333333 0.3333333 0.3333333)(0.3333333 0.3333333 0.3333333))((0.3333333 0.3333333 0.3333333)(0.3333333 0.3333333 0.3333333)(0.3333333 0.3333333 0.3333333))))((((0.3333333 0.3333333 0.3333333)(0.3333333 0.3333333 0.3333333)(0.004065041 0.991869919 0.004065041))((0.3333333 0.3333333 0.3333333)(0.3333333 0.3333333 0.3333333)(0.3333333 0.3333333 0.3333333))((0.3333333 0.3333333 0.3333333)(0.3333333 0.3333333 0.3333333)(0.3333333 0.3333333 0.3333333)))(((0.3333333 0.3333333 0.3333333)(0.3333333 0.3333333 0.3333333)(0.3333333 0.3333333 0.3333333))((0.3333333 0.3333333 0.3333333)(0.3333333 0.3333333 0.3333333)(0.3333333 0.3333333 0.3333333))((0.3333333 0.3333333 0.3333333)(0.3333333 0.3333333 0.3333333)(0.3333333 0.3333333 0.3333333)))(((0.3333333 0.3333333 0.3333333)(0.3333333 0.3333333 0.3333333)(0.3333333 0.3333333 0.3333333))((0.3333333 0.3333333 0.3333333)(0.3333333 0.3333333 0.3333333)(0.3333333 0.3333333 0.3333333))((0.3333333 0.3333333 0.3333333)(0.3333333 0.3333333 0.3333333)(0.3333333 0.3333333 0.3333333))))((((0.3333333 0.3333333 0.3333333)(0.3333333 0.3333333 0.3333333)(0.3333333 0.3333333 0.3333333))((0.3333333 0.3333333 0.3333333)(0.3333333 0.3333333 0.3333333)(0.3333333 0.3333333 0.3333333))((0.3333333 0.3333333 0.3333333)(0.3333333 0.3333333 0.3333333)(0.3333333 0.3333333 0.3333333)))(((0.3333333 0.3333333 0.3333333)(0.3333333 0.3333333 0.3333333)(0.3333333 0.3333333 0.3333333))((0.3333333 0.3333333 0.3333333)(0.3333333 0.3333333 0.3333333)(0.3333333 0.3333333 0.3333333))((0.3333333 0.3333333 0.3333333)(0.3333333 0.3333333 0.3333333)(0.3333333 0.3333333 0.3333333)))(((0.3333333 0.3333333 0.3333333)(0.3333333 0.3333333 0.3333333)(0.3333333 0.3333333 0.3333333))((0.3333333 0.3333333 0.3333333)(0.3333333 0.3333333 0.3333333)(0.3333333 0.3333333 0.3333333))((0.3333333 0.3333333 0.3333333)(0.004065041 0.004065041 0.991869919)(0.3333333 0.3333333 0.3333333))))) ;
}
potential ( Zkscan3 | Slc39a10 Sepp1 Chchd10 Cyp3a11 ) 
{
  data = (((((0.99726776 0.00136612 0.00136612)(0.3333333 0.3333333 0.3333333)(0.004065041 0.991869919 0.004065041))((0.3333333 0.3333333 0.3333333)(0.3333333 0.3333333 0.3333333)(0.3333333 0.3333333 0.3333333))((0.3333333 0.3333333 0.3333333)(0.3333333 0.3333333 0.3333333)(0.3333333 0.3333333 0.3333333)))(((0.3333333 0.3333333 0.3333333)(0.3333333 0.3333333 0.3333333)(0.3333333 0.3333333 0.3333333))((0.3333333 0.3333333 0.3333333)(0.3333333 0.3333333 0.3333333)(0.3333333 0.3333333 0.3333333))((0.3333333 0.3333333 0.3333333)(0.3333333 0.3333333 0.3333333)(0.3333333 0.3333333 0.3333333)))(((0.3333333 0.3333333 0.3333333)(0.3333333 0.3333333 0.3333333)(0.3333333 0.3333333 0.3333333))((0.3333333 0.3333333 0.3333333)(0.3333333 0.3333333 0.3333333)(0.3333333 0.3333333 0.3333333))((0.3333333 0.3333333 0.3333333)(0.3333333 0.3333333 0.3333333)(0.3333333 0.3333333 0.3333333))))((((0.3333333 0.3333333 0.3333333)(0.3333333 0.3333333 0.3333333)(0.3333333 0.3333333 0.3333333))((0.004065041 0.004065041 0.991869919)(0.3333333 0.3333333 0.3333333)(0.3333333 0.3333333 0.3333333))((0.3333333 0.3333333 0.3333333)(0.3333333 0.3333333 0.3333333)(0.3333333 0.3333333 0.3333333)))(((0.3333333 0.3333333 0.3333333)(0.3333333 0.3333333 0.3333333)(0.3333333 0.3333333 0.3333333))((0.3333333 0.3333333 0.3333333)(0.3333333 0.3333333 0.3333333)(0.3333333 0.3333333 0.3333333))((0.3333333 0.3333333 0.3333333)(0.3333333 0.3333333 0.3333333)(0.3333333 0.3333333 0.3333333)))(((0.3333333 0.3333333 0.3333333)(0.3333333 0.3333333 0.3333333)(0.3333333 0.3333333 0.3333333))((0.3333333 0.3333333 0.3333333)(0.3333333 0.3333333 0.3333333)(0.3333333 0.3333333 0.3333333))((0.3333333 0.3333333 0.3333333)(0.3333333 0.3333333 0.3333333)(0.3333333 0.3333333 0.3333333))))((((0.3333333 0.3333333 0.3333333)(0.3333333 0.3333333 0.3333333)(0.3333333 0.3333333 0.3333333))((0.3333333 0.3333333 0.3333333)(0.3333333 0.3333333 0.3333333)(0.3333333 0.3333333 0.3333333))((0.3333333 0.3333333 0.3333333)(0.3333333 0.3333333 0.3333333)(0.3333333 0.3333333 0.3333333)))(((0.3333333 0.3333333 0.3333333)(0.3333333 0.3333333 0.3333333)(0.3333333 0.3333333 0.3333333))((0.3333333 0.3333333 0.3333333)(0.3333333 0.3333333 0.3333333)(0.3333333 0.3333333 0.3333333))((0.3333333 0.3333333 0.3333333)(0.3333333 0.3333333 0.3333333)(0.3333333 0.3333333 0.3333333)))(((0.3333333 0.3333333 0.3333333)(0.3333333 0.3333333 0.3333333)(0.3333333 0.3333333 0.3333333))((0.3333333 0.3333333 0.3333333)(0.3333333 0.3333333 0.3333333)(0.3333333 0.3333333 0.3333333))((0.3333333 0.3333333 0.3333333)(0.3333333 0.3333333 0.3333333)(0.991869919 0.004065041 0.004065041))))) ;
}
potential ( Mtf1 | Slc30a7 Slc27a5 Gm5265 ) 
{
  data = ((((0.79656863 0.20098039 0.00245098)(0.3333333 0.3333333 0.3333333)(0.3333333 0.3333333 0.3333333))((0.3333333 0.3333333 0.3333333)(0.3333333 0.3333333 0.3333333)(0.3333333 0.3333333 0.3333333))((0.3333333 0.3333333 0.3333333)(0.3333333 0.3333333 0.3333333)(0.3333333 0.3333333 0.3333333)))(((0.3333333 0.3333333 0.3333333)(0.3333333 0.3333333 0.3333333)(0.3333333 0.3333333 0.3333333))((0.3333333 0.3333333 0.3333333)(0.3333333 0.3333333 0.3333333)(0.3333333 0.3333333 0.3333333))((0.3333333 0.3333333 0.3333333)(0.3333333 0.3333333 0.3333333)(0.3333333 0.3333333 0.3333333)))(((0.3333333 0.3333333 0.3333333)(0.3333333 0.3333333 0.3333333)(0.3333333 0.3333333 0.3333333))((0.3333333 0.3333333 0.3333333)(0.3333333 0.3333333 0.3333333)(0.3333333 0.3333333 0.3333333))((0.3333333 0.3333333 0.3333333)(0.3333333 0.3333333 0.3333333)(0.01190476 0.01190476 0.97619048)))) ;
}
potential ( Mt3 | Uba52 Serpina3k Cyp2c67 ) 
{
  data = ((((0.79656863 0.00245098 0.20098039)(0.3333333 0.3333333 0.3333333)(0.3333333 0.3333333 0.3333333))((0.3333333 0.3333333 0.3333333)(0.3333333 0.3333333 0.3333333)(0.3333333 0.3333333 0.3333333))((0.3333333 0.3333333 0.3333333)(0.3333333 0.3333333 0.3333333)(0.3333333 0.3333333 0.3333333)))(((0.3333333 0.3333333 0.3333333)(0.3333333 0.3333333 0.3333333)(0.3333333 0.3333333 0.3333333))((0.3333333 0.3333333 0.3333333)(0.3333333 0.3333333 0.3333333)(0.3333333 0.3333333 0.3333333))((0.3333333 0.3333333 0.3333333)(0.3333333 0.3333333 0.3333333)(0.3333333 0.3333333 0.3333333)))(((0.3333333 0.3333333 0.3333333)(0.3333333 0.3333333 0.3333333)(0.3333333 0.3333333 0.3333333))((0.3333333 0.3333333 0.3333333)(0.3333333 0.3333333 0.3333333)(0.3333333 0.3333333 0.3333333))((0.3333333 0.3333333 0.3333333)(0.3333333 0.3333333 0.3333333)(0.01190476 0.01190476 0.97619048)))) ;
}
potential ( Slc30a4 | Mtf1 Aass Cyp2c67 Chchd10 ) 
{
  data = (((((0.997948718 0.001025641 0.001025641)(0.3333333 0.3333333 0.3333333)(0.3333333 0.3333333 0.3333333))((0.3333333 0.3333333 0.3333333)(0.3333333 0.3333333 0.3333333)(0.3333333 0.3333333 0.3333333))((0.3333333 0.3333333 0.3333333)(0.3333333 0.3333333 0.3333333)(0.3333333 0.3333333 0.3333333)))(((0.3333333 0.3333333 0.3333333)(0.3333333 0.3333333 0.3333333)(0.3333333 0.3333333 0.3333333))((0.3333333 0.3333333 0.3333333)(0.3333333 0.3333333 0.3333333)(0.3333333 0.3333333 0.3333333))((0.3333333 0.3333333 0.3333333)(0.3333333 0.3333333 0.3333333)(0.3333333 0.3333333 0.3333333)))(((0.3333333 0.3333333 0.3333333)(0.3333333 0.3333333 0.3333333)(0.3333333 0.3333333 0.3333333))((0.3333333 0.3333333 0.3333333)(0.3333333 0.3333333 0.3333333)(0.3333333 0.3333333 0.3333333))((0.3333333 0.3333333 0.3333333)(0.3333333 0.3333333 0.3333333)(0.3333333 0.3333333 0.3333333))))((((0.3333333 0.3333333 0.3333333)(0.004065041 0.991869919 0.004065041)(0.3333333 0.3333333 0.3333333))((0.3333333 0.3333333 0.3333333)(0.3333333 0.3333333 0.3333333)(0.3333333 0.3333333 0.3333333))((0.3333333 0.3333333 0.3333333)(0.3333333 0.3333333 0.3333333)(0.3333333 0.3333333 0.3333333)))(((0.3333333 0.3333333 0.3333333)(0.3333333 0.3333333 0.3333333)(0.3333333 0.3333333 0.3333333))((0.3333333 0.3333333 0.3333333)(0.3333333 0.3333333 0.3333333)(0.3333333 0.3333333 0.3333333))((0.3333333 0.3333333 0.3333333)(0.3333333 0.3333333 0.3333333)(0.3333333 0.3333333 0.3333333)))(((0.3333333 0.3333333 0.3333333)(0.3333333 0.3333333 0.3333333)(0.3333333 0.3333333 0.3333333))((0.3333333 0.3333333 0.3333333)(0.3333333 0.3333333 0.3333333)(0.3333333 0.3333333 0.3333333))((0.3333333 0.3333333 0.3333333)(0.3333333 0.3333333 0.3333333)(0.3333333 0.3333333 0.3333333))))((((0.3333333 0.3333333 0.3333333)(0.3333333 0.3333333 0.3333333)(0.3333333 0.3333333 0.3333333))((0.3333333 0.3333333 0.3333333)(0.3333333 0.3333333 0.3333333)(0.3333333 0.3333333 0.3333333))((0.3333333 0.3333333 0.3333333)(0.3333333 0.3333333 0.3333333)(0.3333333 0.3333333 0.3333333)))(((0.3333333 0.3333333 0.3333333)(0.3333333 0.3333333 0.3333333)(0.3333333 0.3333333 0.3333333))((0.3333333 0.3333333 0.3333333)(0.3333333 0.3333333 0.3333333)(0.3333333 0.3333333 0.3333333))((0.3333333 0.3333333 0.3333333)(0.3333333 0.3333333 0.3333333)(0.3333333 0.3333333 0.3333333)))(((0.3333333 0.3333333 0.3333333)(0.3333333 0.3333333 0.3333333)(0.3333333 0.3333333 0.3333333))((0.3333333 0.3333333 0.3333333)(0.3333333 0.3333333 0.3333333)(0.3333333 0.3333333 0.3333333))((0.3333333 0.3333333 0.3333333)(0.3333333 0.3333333 0.3333333)(0.004065041 0.004065041 0.991869919))))) ;
}
potential ( Slc30a5 | Slc30a4 Gnmt X2810002N01Rik Cyp2e1 ) 
{
  data = (((((0.99726776 0.00136612 0.00136612)(0.3333333 0.3333333 0.3333333)(0.3333333 0.3333333 0.3333333))((0.3333333 0.3333333 0.3333333)(0.004065041 0.991869919 0.004065041)(0.3333333 0.3333333 0.3333333))((0.3333333 0.3333333 0.3333333)(0.3333333 0.3333333 0.3333333)(0.3333333 0.3333333 0.3333333)))(((0.3333333 0.3333333 0.3333333)(0.3333333 0.3333333 0.3333333)(0.3333333 0.3333333 0.3333333))((0.3333333 0.3333333 0.3333333)(0.3333333 0.3333333 0.3333333)(0.3333333 0.3333333 0.3333333))((0.3333333 0.3333333 0.3333333)(0.3333333 0.3333333 0.3333333)(0.3333333 0.3333333 0.3333333)))(((0.3333333 0.3333333 0.3333333)(0.3333333 0.3333333 0.3333333)(0.3333333 0.3333333 0.3333333))((0.3333333 0.3333333 0.3333333)(0.3333333 0.3333333 0.3333333)(0.3333333 0.3333333 0.3333333))((0.3333333 0.3333333 0.3333333)(0.3333333 0.3333333 0.3333333)(0.3333333 0.3333333 0.3333333))))((((0.004065041 0.004065041 0.991869919)(0.3333333 0.3333333 0.3333333)(0.3333333 0.3333333 0.3333333))((0.3333333 0.3333333 0.3333333)(0.3333333 0.3333333 0.3333333)(0.3333333 0.3333333 0.3333333))((0.3333333 0.3333333 0.3333333)(0.3333333 0.3333333 0.3333333)(0.3333333 0.3333333 0.3333333)))(((0.3333333 0.3333333 0.3333333)(0.3333333 0.3333333 0.3333333)(0.3333333 0.3333333 0.3333333))((0.3333333 0.3333333 0.3333333)(0.3333333 0.3333333 0.3333333)(0.3333333 0.3333333 0.3333333))((0.3333333 0.3333333 0.3333333)(0.3333333 0.3333333 0.3333333)(0.3333333 0.3333333 0.3333333)))(((0.3333333 0.3333333 0.3333333)(0.3333333 0.3333333 0.3333333)(0.3333333 0.3333333 0.3333333))((0.3333333 0.3333333 0.3333333)(0.3333333 0.3333333 0.3333333)(0.3333333 0.3333333 0.3333333))((0.3333333 0.3333333 0.3333333)(0.3333333 0.3333333 0.3333333)(0.3333333 0.3333333 0.3333333))))((((0.3333333 0.3333333 0.3333333)(0.3333333 0.3333333 0.3333333)(0.3333333 0.3333333 0.3333333))((0.3333333 0.3333333 0.3333333)(0.3333333 0.3333333 0.3333333)(0.3333333 0.3333333 0.3333333))((0.3333333 0.3333333 0.3333333)(0.3333333 0.3333333 0.3333333)(0.3333333 0.3333333 0.3333333)))(((0.3333333 0.3333333 0.3333333)(0.3333333 0.3333333 0.3333333)(0.3333333 0.3333333 0.3333333))((0.3333333 0.3333333 0.3333333)(0.3333333 0.3333333 0.3333333)(0.3333333 0.3333333 0.3333333))((0.3333333 0.3333333 0.3333333)(0.3333333 0.3333333 0.3333333)(0.3333333 0.3333333 0.3333333)))(((0.3333333 0.3333333 0.3333333)(0.3333333 0.3333333 0.3333333)(0.3333333 0.3333333 0.3333333))((0.3333333 0.3333333 0.3333333)(0.3333333 0.3333333 0.3333333)(0.3333333 0.3333333 0.3333333))((0.3333333 0.3333333 0.3333333)(0.3333333 0.3333333 0.3333333)(0.004065041 0.004065041 0.991869919))))) ;
}
potential ( Slc39a9 | Got1 ) 
{
  data = ((0.48717949 0.48717949 0.02564103)(0.3333333 0.3333333 0.3333333)(0.04761905 0.04761905 0.90476190)) ;
}
potential ( Slc39a13 | Zkscan3 ) 
{
  data = ((0.94871795 0.02564103 0.02564103)(0.08333333 0.83333333 0.08333333)(0.08333333 0.08333333 0.83333333)) ;
}
potential ( Acaa1a | Mt2 Slc39a14 Cyp2c67 ) 
{
  data = ((((0.99509804 0.00245098 0.00245098)(0.3333333 0.3333333 0.3333333)(0.3333333 0.3333333 0.3333333))((0.3333333 0.3333333 0.3333333)(0.3333333 0.3333333 0.3333333)(0.3333333 0.3333333 0.3333333))((0.3333333 0.3333333 0.3333333)(0.3333333 0.3333333 0.3333333)(0.3333333 0.3333333 0.3333333)))(((0.3333333 0.3333333 0.3333333)(0.3333333 0.3333333 0.3333333)(0.3333333 0.3333333 0.3333333))((0.3333333 0.3333333 0.3333333)(0.3333333 0.3333333 0.3333333)(0.3333333 0.3333333 0.3333333))((0.3333333 0.3333333 0.3333333)(0.3333333 0.3333333 0.3333333)(0.3333333 0.3333333 0.3333333)))(((0.3333333 0.3333333 0.3333333)(0.3333333 0.3333333 0.3333333)(0.3333333 0.3333333 0.3333333))((0.3333333 0.3333333 0.3333333)(0.3333333 0.3333333 0.3333333)(0.3333333 0.3333333 0.3333333))((0.3333333 0.3333333 0.3333333)(0.3333333 0.3333333 0.3333333)(0.01190476 0.01190476 0.97619048)))) ;
}
potential ( Cpamd8 | Mt2 Uba52 Hnf4a ) 
{
  data = ((((0.99509804 0.00245098 0.00245098)(0.3333333 0.3333333 0.3333333)(0.3333333 0.3333333 0.3333333))((0.3333333 0.3333333 0.3333333)(0.3333333 0.3333333 0.3333333)(0.3333333 0.3333333 0.3333333))((0.3333333 0.3333333 0.3333333)(0.3333333 0.3333333 0.3333333)(0.3333333 0.3333333 0.3333333)))(((0.3333333 0.3333333 0.3333333)(0.3333333 0.3333333 0.3333333)(0.3333333 0.3333333 0.3333333))((0.3333333 0.3333333 0.3333333)(0.3333333 0.3333333 0.3333333)(0.3333333 0.3333333 0.3333333))((0.3333333 0.3333333 0.3333333)(0.3333333 0.3333333 0.3333333)(0.3333333 0.3333333 0.3333333)))(((0.3333333 0.3333333 0.3333333)(0.3333333 0.3333333 0.3333333)(0.3333333 0.3333333 0.3333333))((0.3333333 0.3333333 0.3333333)(0.3333333 0.3333333 0.3333333)(0.3333333 0.3333333 0.3333333))((0.3333333 0.3333333 0.3333333)(0.3333333 0.3333333 0.3333333)(0.01190476 0.01190476 0.97619048)))) ;
}
potential ( Slc27a5 | Mt2 Slc39a14 Uba52 Aass Tat ) 
{
  data = ((((((0.9994517544 0.0002741228 0.0002741228)(0.3333333 0.3333333 0.3333333)(0.3333333 0.3333333 0.3333333))((0.3333333 0.3333333 0.3333333)(0.3333333 0.3333333 0.3333333)(0.3333333 0.3333333 0.3333333))((0.3333333 0.3333333 0.3333333)(0.3333333 0.3333333 0.3333333)(0.3333333 0.3333333 0.3333333)))(((0.3333333 0.3333333 0.3333333)(0.3333333 0.3333333 0.3333333)(0.3333333 0.3333333 0.3333333))((0.3333333 0.3333333 0.3333333)(0.3333333 0.3333333 0.3333333)(0.3333333 0.3333333 0.3333333))((0.3333333 0.3333333 0.3333333)(0.3333333 0.3333333 0.3333333)(0.3333333 0.3333333 0.3333333)))(((0.3333333 0.3333333 0.3333333)(0.3333333 0.3333333 0.3333333)(0.3333333 0.3333333 0.3333333))((0.3333333 0.3333333 0.3333333)(0.3333333 0.3333333 0.3333333)(0.3333333 0.3333333 0.3333333))((0.3333333 0.3333333 0.3333333)(0.3333333 0.3333333 0.3333333)(0.3333333 0.3333333 0.3333333))))((((0.3333333 0.3333333 0.3333333)(0.3333333 0.3333333 0.3333333)(0.3333333 0.3333333 0.3333333))((0.3333333 0.3333333 0.3333333)(0.3333333 0.3333333 0.3333333)(0.3333333 0.3333333 0.3333333))((0.3333333 0.3333333 0.3333333)(0.3333333 0.3333333 0.3333333)(0.3333333 0.3333333 0.3333333)))(((0.3333333 0.3333333 0.3333333)(0.3333333 0.3333333 0.3333333)(0.3333333 0.3333333 0.3333333))((0.3333333 0.3333333 0.3333333)(0.3333333 0.3333333 0.3333333)(0.3333333 0.3333333 0.3333333))((0.3333333 0.3333333 0.3333333)(0.3333333 0.3333333 0.3333333)(0.3333333 0.3333333 0.3333333)))(((0.3333333 0.3333333 0.3333333)(0.3333333 0.3333333 0.3333333)(0.3333333 0.3333333 0.3333333))((0.3333333 0.3333333 0.3333333)(0.3333333 0.3333333 0.3333333)(0.3333333 0.3333333 0.3333333))((0.3333333 0.3333333 0.3333333)(0.3333333 0.3333333 0.3333333)(0.3333333 0.3333333 0.3333333))))((((0.3333333 0.3333333 0.3333333)(0.3333333 0.3333333 0.3333333)(0.3333333 0.3333333 0.3333333))((0.3333333 0.3333333 0.3333333)(0.3333333 0.3333333 0.3333333)(0.3333333 0.3333333 0.3333333))((0.3333333 0.3333333 0.3333333)(0.3333333 0.3333333 0.3333333)(0.3333333 0.3333333 0.3333333)))(((0.3333333 0.3333333 0.3333333)(0.3333333 0.3333333 0.3333333)(0.3333333 0.3333333 0.3333333))((0.3333333 0.3333333 0.3333333)(0.3333333 0.3333333 0.3333333)(0.3333333 0.3333333 0.3333333))((0.3333333 0.3333333 0.3333333)(0.3333333 0.3333333 0.3333333)(0.3333333 0.3333333 0.3333333)))(((0.3333333 0.3333333 0.3333333)(0.3333333 0.3333333 0.3333333)(0.3333333 0.3333333 0.3333333))((0.3333333 0.3333333 0.3333333)(0.3333333 0.3333333 0.3333333)(0.3333333 0.3333333 0.3333333))((0.3333333 0.3333333 0.3333333)(0.3333333 0.3333333 0.3333333)(0.3333333 0.3333333 0.3333333)))))(((((0.3333333 0.3333333 0.3333333)(0.3333333 0.3333333 0.3333333)(0.3333333 0.3333333 0.3333333))((0.3333333 0.3333333 0.3333333)(0.3333333 0.3333333 0.3333333)(0.3333333 0.3333333 0.3333333))((0.3333333 0.3333333 0.3333333)(0.3333333 0.3333333 0.3333333)(0.3333333 0.3333333 0.3333333)))(((0.3333333 0.3333333 0.3333333)(0.3333333 0.3333333 0.3333333)(0.3333333 0.3333333 0.3333333))((0.3333333 0.3333333 0.3333333)(0.3333333 0.3333333 0.3333333)(0.3333333 0.3333333 0.3333333))((0.3333333 0.3333333 0.3333333)(0.3333333 0.3333333 0.3333333)(0.3333333 0.3333333 0.3333333)))(((0.3333333 0.3333333 0.3333333)(0.3333333 0.3333333 0.3333333)(0.3333333 0.3333333 0.3333333))((0.3333333 0.3333333 0.3333333)(0.3333333 0.3333333 0.3333333)(0.3333333 0.3333333 0.3333333))((0.3333333 0.3333333 0.3333333)(0.3333333 0.3333333 0.3333333)(0.3333333 0.3333333 0.3333333))))((((0.3333333 0.3333333 0.3333333)(0.3333333 0.3333333 0.3333333)(0.3333333 0.3333333 0.3333333))((0.3333333 0.3333333 0.3333333)(0.3333333 0.3333333 0.3333333)(0.3333333 0.3333333 0.3333333))((0.3333333 0.3333333 0.3333333)(0.3333333 0.3333333 0.3333333)(0.3333333 0.3333333 0.3333333)))(((0.3333333 0.3333333 0.3333333)(0.3333333 0.3333333 0.3333333)(0.3333333 0.3333333 0.3333333))((0.3333333 0.3333333 0.3333333)(0.3333333 0.3333333 0.3333333)(0.3333333 0.3333333 0.3333333))((0.3333333 0.3333333 0.3333333)(0.3333333 0.3333333 0.3333333)(0.3333333 0.3333333 0.3333333)))(((0.3333333 0.3333333 0.3333333)(0.3333333 0.3333333 0.3333333)(0.3333333 0.3333333 0.3333333))((0.3333333 0.3333333 0.3333333)(0.3333333 0.3333333 0.3333333)(0.3333333 0.3333333 0.3333333))((0.3333333 0.3333333 0.3333333)(0.3333333 0.3333333 0.3333333)(0.3333333 0.3333333 0.3333333))))((((0.3333333 0.3333333 0.3333333)(0.3333333 0.3333333 0.3333333)(0.3333333 0.3333333 0.3333333))((0.3333333 0.3333333 0.3333333)(0.3333333 0.3333333 0.3333333)(0.3333333 0.3333333 0.3333333))((0.3333333 0.3333333 0.3333333)(0.3333333 0.3333333 0.3333333)(0.3333333 0.3333333 0.3333333)))(((0.3333333 0.3333333 0.3333333)(0.3333333 0.3333333 0.3333333)(0.3333333 0.3333333 0.3333333))((0.3333333 0.3333333 0.3333333)(0.3333333 0.3333333 0.3333333)(0.3333333 0.3333333 0.3333333))((0.3333333 0.3333333 0.3333333)(0.3333333 0.3333333 0.3333333)(0.3333333 0.3333333 0.3333333)))(((0.3333333 0.3333333 0.3333333)(0.3333333 0.3333333 0.3333333)(0.3333333 0.3333333 0.3333333))((0.3333333 0.3333333 0.3333333)(0.3333333 0.3333333 0.3333333)(0.3333333 0.3333333 0.3333333))((0.3333333 0.3333333 0.3333333)(0.3333333 0.3333333 0.3333333)(0.3333333 0.3333333 0.3333333)))))(((((0.3333333 0.3333333 0.3333333)(0.3333333 0.3333333 0.3333333)(0.3333333 0.3333333 0.3333333))((0.3333333 0.3333333 0.3333333)(0.3333333 0.3333333 0.3333333)(0.3333333 0.3333333 0.3333333))((0.3333333 0.3333333 0.3333333)(0.3333333 0.3333333 0.3333333)(0.3333333 0.3333333 0.3333333)))(((0.3333333 0.3333333 0.3333333)(0.3333333 0.3333333 0.3333333)(0.3333333 0.3333333 0.3333333))((0.3333333 0.3333333 0.3333333)(0.3333333 0.3333333 0.3333333)(0.3333333 0.3333333 0.3333333))((0.3333333 0.3333333 0.3333333)(0.3333333 0.3333333 0.3333333)(0.3333333 0.3333333 0.3333333)))(((0.3333333 0.3333333 0.3333333)(0.3333333 0.3333333 0.3333333)(0.3333333 0.3333333 0.3333333))((0.3333333 0.3333333 0.3333333)(0.3333333 0.3333333 0.3333333)(0.3333333 0.3333333 0.3333333))((0.3333333 0.3333333 0.3333333)(0.3333333 0.3333333 0.3333333)(0.3333333 0.3333333 0.3333333))))((((0.3333333 0.3333333 0.3333333)(0.3333333 0.3333333 0.3333333)(0.3333333 0.3333333 0.3333333))((0.3333333 0.3333333 0.3333333)(0.3333333 0.3333333 0.3333333)(0.3333333 0.3333333 0.3333333))((0.3333333 0.3333333 0.3333333)(0.3333333 0.3333333 0.3333333)(0.3333333 0.3333333 0.3333333)))(((0.3333333 0.3333333 0.3333333)(0.3333333 0.3333333 0.3333333)(0.3333333 0.3333333 0.3333333))((0.3333333 0.3333333 0.3333333)(0.3333333 0.3333333 0.3333333)(0.3333333 0.3333333 0.3333333))((0.3333333 0.3333333 0.3333333)(0.3333333 0.3333333 0.3333333)(0.3333333 0.3333333 0.3333333)))(((0.3333333 0.3333333 0.3333333)(0.3333333 0.3333333 0.3333333)(0.3333333 0.3333333 0.3333333))((0.3333333 0.3333333 0.3333333)(0.3333333 0.3333333 0.3333333)(0.3333333 0.3333333 0.3333333))((0.3333333 0.3333333 0.3333333)(0.3333333 0.3333333 0.3333333)(0.3333333 0.3333333 0.3333333))))((((0.3333333 0.3333333 0.3333333)(0.3333333 0.3333333 0.3333333)(0.3333333 0.3333333 0.3333333))((0.3333333 0.3333333 0.3333333)(0.3333333 0.3333333 0.3333333)(0.3333333 0.3333333 0.3333333))((0.3333333 0.3333333 0.3333333)(0.3333333 0.3333333 0.3333333)(0.3333333 0.3333333 0.3333333)))(((0.3333333 0.3333333 0.3333333)(0.3333333 0.3333333 0.3333333)(0.3333333 0.3333333 0.3333333))((0.3333333 0.3333333 0.3333333)(0.3333333 0.3333333 0.3333333)(0.3333333 0.3333333 0.3333333))((0.3333333 0.3333333 0.3333333)(0.3333333 0.3333333 0.3333333)(0.3333333 0.3333333 0.3333333)))(((0.3333333 0.3333333 0.3333333)(0.3333333 0.3333333 0.3333333)(0.3333333 0.3333333 0.3333333))((0.3333333 0.3333333 0.3333333)(0.3333333 0.3333333 0.3333333)(0.3333333 0.3333333 0.3333333))((0.3333333 0.3333333 0.3333333)(0.3333333 0.3333333 0.3333333)(0.00136612 0.00136612 0.99726776)))))) ;
}
potential ( Uba52 | Mt2 Cyp2c67 ) 
{
  data = (((0.985507246 0.007246377 0.007246377)(0.3333333 0.3333333 0.3333333)(0.3333333 0.3333333 0.3333333))((0.3333333 0.3333333 0.3333333)(0.3333333 0.3333333 0.3333333)(0.3333333 0.3333333 0.3333333))((0.3333333 0.3333333 0.3333333)(0.3333333 0.3333333 0.3333333)(0.03333333 0.03333333 0.93333333))) ;
}
potential ( Sepp1 | St3gal5 Slc30a7 Hnf4a ) 
{
  data = ((((0.99509804 0.00245098 0.00245098)(0.3333333 0.3333333 0.3333333)(0.3333333 0.3333333 0.3333333))((0.3333333 0.3333333 0.3333333)(0.3333333 0.3333333 0.3333333)(0.3333333 0.3333333 0.3333333))((0.3333333 0.3333333 0.3333333)(0.3333333 0.3333333 0.3333333)(0.3333333 0.3333333 0.3333333)))(((0.3333333 0.3333333 0.3333333)(0.3333333 0.3333333 0.3333333)(0.3333333 0.3333333 0.3333333))((0.3333333 0.3333333 0.3333333)(0.3333333 0.3333333 0.3333333)(0.3333333 0.3333333 0.3333333))((0.3333333 0.3333333 0.3333333)(0.3333333 0.3333333 0.3333333)(0.3333333 0.3333333 0.3333333)))(((0.3333333 0.3333333 0.3333333)(0.3333333 0.3333333 0.3333333)(0.3333333 0.3333333 0.3333333))((0.3333333 0.3333333 0.3333333)(0.3333333 0.3333333 0.3333333)(0.3333333 0.3333333 0.3333333))((0.3333333 0.3333333 0.3333333)(0.3333333 0.3333333 0.3333333)(0.01190476 0.01190476 0.97619048)))) ;
}
potential ( Cyp2c68 | Slc39a3 ) 
{
  data = ((0.95833333 0.02083333 0.02083333)(0.3333333 0.3333333 0.3333333)(0.08333333 0.08333333 0.83333333)) ;
}
potential ( Gm6428 | St3gal5 Slc39a7 Atp5b ND2 ) 
{
  data = (((((0.9983579639 0.0008210181 0.0008210181)(0.3333333 0.3333333 0.3333333)(0.3333333 0.3333333 0.3333333))((0.3333333 0.3333333 0.3333333)(0.3333333 0.3333333 0.3333333)(0.3333333 0.3333333 0.3333333))((0.3333333 0.3333333 0.3333333)(0.3333333 0.3333333 0.3333333)(0.3333333 0.3333333 0.3333333)))(((0.3333333 0.3333333 0.3333333)(0.3333333 0.3333333 0.3333333)(0.3333333 0.3333333 0.3333333))((0.3333333 0.3333333 0.3333333)(0.3333333 0.3333333 0.3333333)(0.3333333 0.3333333 0.3333333))((0.3333333 0.3333333 0.3333333)(0.3333333 0.3333333 0.3333333)(0.3333333 0.3333333 0.3333333)))(((0.3333333 0.3333333 0.3333333)(0.3333333 0.3333333 0.3333333)(0.3333333 0.3333333 0.3333333))((0.3333333 0.3333333 0.3333333)(0.3333333 0.3333333 0.3333333)(0.3333333 0.3333333 0.3333333))((0.3333333 0.3333333 0.3333333)(0.3333333 0.3333333 0.3333333)(0.3333333 0.3333333 0.3333333))))((((0.3333333 0.3333333 0.3333333)(0.3333333 0.3333333 0.3333333)(0.3333333 0.3333333 0.3333333))((0.3333333 0.3333333 0.3333333)(0.3333333 0.3333333 0.3333333)(0.3333333 0.3333333 0.3333333))((0.3333333 0.3333333 0.3333333)(0.3333333 0.3333333 0.3333333)(0.3333333 0.3333333 0.3333333)))(((0.3333333 0.3333333 0.3333333)(0.3333333 0.3333333 0.3333333)(0.3333333 0.3333333 0.3333333))((0.3333333 0.3333333 0.3333333)(0.3333333 0.3333333 0.3333333)(0.3333333 0.3333333 0.3333333))((0.3333333 0.3333333 0.3333333)(0.3333333 0.3333333 0.3333333)(0.3333333 0.3333333 0.3333333)))(((0.3333333 0.3333333 0.3333333)(0.3333333 0.3333333 0.3333333)(0.3333333 0.3333333 0.3333333))((0.3333333 0.3333333 0.3333333)(0.3333333 0.3333333 0.3333333)(0.3333333 0.3333333 0.3333333))((0.3333333 0.3333333 0.3333333)(0.3333333 0.3333333 0.3333333)(0.3333333 0.3333333 0.3333333))))((((0.3333333 0.3333333 0.3333333)(0.3333333 0.3333333 0.3333333)(0.3333333 0.3333333 0.3333333))((0.3333333 0.3333333 0.3333333)(0.3333333 0.3333333 0.3333333)(0.3333333 0.3333333 0.3333333))((0.3333333 0.3333333 0.3333333)(0.3333333 0.3333333 0.3333333)(0.3333333 0.3333333 0.3333333)))(((0.3333333 0.3333333 0.3333333)(0.3333333 0.3333333 0.3333333)(0.3333333 0.3333333 0.3333333))((0.3333333 0.3333333 0.3333333)(0.3333333 0.3333333 0.3333333)(0.3333333 0.3333333 0.3333333))((0.3333333 0.3333333 0.3333333)(0.3333333 0.3333333 0.3333333)(0.3333333 0.3333333 0.3333333)))(((0.3333333 0.3333333 0.3333333)(0.3333333 0.3333333 0.3333333)(0.3333333 0.3333333 0.3333333))((0.3333333 0.3333333 0.3333333)(0.3333333 0.3333333 0.3333333)(0.3333333 0.3333333 0.3333333))((0.3333333 0.3333333 0.3333333)(0.3333333 0.3333333 0.3333333)(0.004065041 0.004065041 0.991869919))))) ;
}
potential ( Aass | Slc39a14 Cpamd8 Uba52 Hnf4a Cyp2c67 ) 
{
  data = ((((((0.9994517544 0.0002741228 0.0002741228)(0.3333333 0.3333333 0.3333333)(0.3333333 0.3333333 0.3333333))((0.3333333 0.3333333 0.3333333)(0.3333333 0.3333333 0.3333333)(0.3333333 0.3333333 0.3333333))((0.3333333 0.3333333 0.3333333)(0.3333333 0.3333333 0.3333333)(0.3333333 0.3333333 0.3333333)))(((0.3333333 0.3333333 0.3333333)(0.3333333 0.3333333 0.3333333)(0.3333333 0.3333333 0.3333333))((0.3333333 0.3333333 0.3333333)(0.3333333 0.3333333 0.3333333)(0.3333333 0.3333333 0.3333333))((0.3333333 0.3333333 0.3333333)(0.3333333 0.3333333 0.3333333)(0.3333333 0.3333333 0.3333333)))(((0.3333333 0.3333333 0.3333333)(0.3333333 0.3333333 0.3333333)(0.3333333 0.3333333 0.3333333))((0.3333333 0.3333333 0.3333333)(0.3333333 0.3333333 0.3333333)(0.3333333 0.3333333 0.3333333))((0.3333333 0.3333333 0.3333333)(0.3333333 0.3333333 0.3333333)(0.3333333 0.3333333 0.3333333))))((((0.3333333 0.3333333 0.3333333)(0.3333333 0.3333333 0.3333333)(0.3333333 0.3333333 0.3333333))((0.3333333 0.3333333 0.3333333)(0.3333333 0.3333333 0.3333333)(0.3333333 0.3333333 0.3333333))((0.3333333 0.3333333 0.3333333)(0.3333333 0.3333333 0.3333333)(0.3333333 0.3333333 0.3333333)))(((0.3333333 0.3333333 0.3333333)(0.3333333 0.3333333 0.3333333)(0.3333333 0.3333333 0.3333333))((0.3333333 0.3333333 0.3333333)(0.3333333 0.3333333 0.3333333)(0.3333333 0.3333333 0.3333333))((0.3333333 0.3333333 0.3333333)(0.3333333 0.3333333 0.3333333)(0.3333333 0.3333333 0.3333333)))(((0.3333333 0.3333333 0.3333333)(0.3333333 0.3333333 0.3333333)(0.3333333 0.3333333 0.3333333))((0.3333333 0.3333333 0.3333333)(0.3333333 0.3333333 0.3333333)(0.3333333 0.3333333 0.3333333))((0.3333333 0.3333333 0.3333333)(0.3333333 0.3333333 0.3333333)(0.3333333 0.3333333 0.3333333))))((((0.3333333 0.3333333 0.3333333)(0.3333333 0.3333333 0.3333333)(0.3333333 0.3333333 0.3333333))((0.3333333 0.3333333 0.3333333)(0.3333333 0.3333333 0.3333333)(0.3333333 0.3333333 0.3333333))((0.3333333 0.3333333 0.3333333)(0.3333333 0.3333333 0.3333333)(0.3333333 0.3333333 0.3333333)))(((0.3333333 0.3333333 0.3333333)(0.3333333 0.3333333 0.3333333)(0.3333333 0.3333333 0.3333333))((0.3333333 0.3333333 0.3333333)(0.3333333 0.3333333 0.3333333)(0.3333333 0.3333333 0.3333333))((0.3333333 0.3333333 0.3333333)(0.3333333 0.3333333 0.3333333)(0.3333333 0.3333333 0.3333333)))(((0.3333333 0.3333333 0.3333333)(0.3333333 0.3333333 0.3333333)(0.3333333 0.3333333 0.3333333))((0.3333333 0.3333333 0.3333333)(0.3333333 0.3333333 0.3333333)(0.3333333 0.3333333 0.3333333))((0.3333333 0.3333333 0.3333333)(0.3333333 0.3333333 0.3333333)(0.3333333 0.3333333 0.3333333)))))(((((0.3333333 0.3333333 0.3333333)(0.3333333 0.3333333 0.3333333)(0.3333333 0.3333333 0.3333333))((0.3333333 0.3333333 0.3333333)(0.3333333 0.3333333 0.3333333)(0.3333333 0.3333333 0.3333333))((0.3333333 0.3333333 0.3333333)(0.3333333 0.3333333 0.3333333)(0.3333333 0.3333333 0.3333333)))(((0.3333333 0.3333333 0.3333333)(0.3333333 0.3333333 0.3333333)(0.3333333 0.3333333 0.3333333))((0.3333333 0.3333333 0.3333333)(0.3333333 0.3333333 0.3333333)(0.3333333 0.3333333 0.3333333))((0.3333333 0.3333333 0.3333333)(0.3333333 0.3333333 0.3333333)(0.3333333 0.3333333 0.3333333)))(((0.3333333 0.3333333 0.3333333)(0.3333333 0.3333333 0.3333333)(0.3333333 0.3333333 0.3333333))((0.3333333 0.3333333 0.3333333)(0.3333333 0.3333333 0.3333333)(0.3333333 0.3333333 0.3333333))((0.3333333 0.3333333 0.3333333)(0.3333333 0.3333333 0.3333333)(0.3333333 0.3333333 0.3333333))))((((0.3333333 0.3333333 0.3333333)(0.3333333 0.3333333 0.3333333)(0.3333333 0.3333333 0.3333333))((0.3333333 0.3333333 0.3333333)(0.3333333 0.3333333 0.3333333)(0.3333333 0.3333333 0.3333333))((0.3333333 0.3333333 0.3333333)(0.3333333 0.3333333 0.3333333)(0.3333333 0.3333333 0.3333333)))(((0.3333333 0.3333333 0.3333333)(0.3333333 0.3333333 0.3333333)(0.3333333 0.3333333 0.3333333))((0.3333333 0.3333333 0.3333333)(0.3333333 0.3333333 0.3333333)(0.3333333 0.3333333 0.3333333))((0.3333333 0.3333333 0.3333333)(0.3333333 0.3333333 0.3333333)(0.3333333 0.3333333 0.3333333)))(((0.3333333 0.3333333 0.3333333)(0.3333333 0.3333333 0.3333333)(0.3333333 0.3333333 0.3333333))((0.3333333 0.3333333 0.3333333)(0.3333333 0.3333333 0.3333333)(0.3333333 0.3333333 0.3333333))((0.3333333 0.3333333 0.3333333)(0.3333333 0.3333333 0.3333333)(0.3333333 0.3333333 0.3333333))))((((0.3333333 0.3333333 0.3333333)(0.3333333 0.3333333 0.3333333)(0.3333333 0.3333333 0.3333333))((0.3333333 0.3333333 0.3333333)(0.3333333 0.3333333 0.3333333)(0.3333333 0.3333333 0.3333333))((0.3333333 0.3333333 0.3333333)(0.3333333 0.3333333 0.3333333)(0.3333333 0.3333333 0.3333333)))(((0.3333333 0.3333333 0.3333333)(0.3333333 0.3333333 0.3333333)(0.3333333 0.3333333 0.3333333))((0.3333333 0.3333333 0.3333333)(0.3333333 0.3333333 0.3333333)(0.3333333 0.3333333 0.3333333))((0.3333333 0.3333333 0.3333333)(0.3333333 0.3333333 0.3333333)(0.3333333 0.3333333 0.3333333)))(((0.3333333 0.3333333 0.3333333)(0.3333333 0.3333333 0.3333333)(0.3333333 0.3333333 0.3333333))((0.3333333 0.3333333 0.3333333)(0.3333333 0.3333333 0.3333333)(0.3333333 0.3333333 0.3333333))((0.3333333 0.3333333 0.3333333)(0.3333333 0.3333333 0.3333333)(0.3333333 0.3333333 0.3333333)))))(((((0.3333333 0.3333333 0.3333333)(0.3333333 0.3333333 0.3333333)(0.3333333 0.3333333 0.3333333))((0.3333333 0.3333333 0.3333333)(0.3333333 0.3333333 0.3333333)(0.3333333 0.3333333 0.3333333))((0.3333333 0.3333333 0.3333333)(0.3333333 0.3333333 0.3333333)(0.3333333 0.3333333 0.3333333)))(((0.3333333 0.3333333 0.3333333)(0.3333333 0.3333333 0.3333333)(0.3333333 0.3333333 0.3333333))((0.3333333 0.3333333 0.3333333)(0.3333333 0.3333333 0.3333333)(0.3333333 0.3333333 0.3333333))((0.3333333 0.3333333 0.3333333)(0.3333333 0.3333333 0.3333333)(0.3333333 0.3333333 0.3333333)))(((0.3333333 0.3333333 0.3333333)(0.3333333 0.3333333 0.3333333)(0.3333333 0.3333333 0.3333333))((0.3333333 0.3333333 0.3333333)(0.3333333 0.3333333 0.3333333)(0.3333333 0.3333333 0.3333333))((0.3333333 0.3333333 0.3333333)(0.3333333 0.3333333 0.3333333)(0.3333333 0.3333333 0.3333333))))((((0.3333333 0.3333333 0.3333333)(0.3333333 0.3333333 0.3333333)(0.3333333 0.3333333 0.3333333))((0.3333333 0.3333333 0.3333333)(0.3333333 0.3333333 0.3333333)(0.3333333 0.3333333 0.3333333))((0.3333333 0.3333333 0.3333333)(0.3333333 0.3333333 0.3333333)(0.3333333 0.3333333 0.3333333)))(((0.3333333 0.3333333 0.3333333)(0.3333333 0.3333333 0.3333333)(0.3333333 0.3333333 0.3333333))((0.3333333 0.3333333 0.3333333)(0.3333333 0.3333333 0.3333333)(0.3333333 0.3333333 0.3333333))((0.3333333 0.3333333 0.3333333)(0.3333333 0.3333333 0.3333333)(0.3333333 0.3333333 0.3333333)))(((0.3333333 0.3333333 0.3333333)(0.3333333 0.3333333 0.3333333)(0.3333333 0.3333333 0.3333333))((0.3333333 0.3333333 0.3333333)(0.3333333 0.3333333 0.3333333)(0.3333333 0.3333333 0.3333333))((0.3333333 0.3333333 0.3333333)(0.3333333 0.3333333 0.3333333)(0.3333333 0.3333333 0.3333333))))((((0.3333333 0.3333333 0.3333333)(0.3333333 0.3333333 0.3333333)(0.3333333 0.3333333 0.3333333))((0.3333333 0.3333333 0.3333333)(0.3333333 0.3333333 0.3333333)(0.3333333 0.3333333 0.3333333))((0.3333333 0.3333333 0.3333333)(0.3333333 0.3333333 0.3333333)(0.3333333 0.3333333 0.3333333)))(((0.3333333 0.3333333 0.3333333)(0.3333333 0.3333333 0.3333333)(0.3333333 0.3333333 0.3333333))((0.3333333 0.3333333 0.3333333)(0.3333333 0.3333333 0.3333333)(0.3333333 0.3333333 0.3333333))((0.3333333 0.3333333 0.3333333)(0.3333333 0.3333333 0.3333333)(0.3333333 0.3333333 0.3333333)))(((0.3333333 0.3333333 0.3333333)(0.3333333 0.3333333 0.3333333)(0.3333333 0.3333333 0.3333333))((0.3333333 0.3333333 0.3333333)(0.3333333 0.3333333 0.3333333)(0.3333333 0.3333333 0.3333333))((0.3333333 0.3333333 0.3333333)(0.3333333 0.3333333 0.3333333)(0.00136612 0.00136612 0.99726776)))))) ;
}
potential ( Gnmt | Slc39a14 Cpamd8 Slc27a5 Serpina3k Cyp2c67 ) 
{
