net 
{ 
}
node Cyp2c50 
{
  states = ( "No Change" "Low" "High" );
}
node Gsta3 
{
  states = ( "No Change" "Low" "High" );
}
node Serpina3m 
{
  states = ( "No Change" "Low" "High" );
}
node St3gal5 
{
  states = ( "No Change" "Low" "High" );
}
node Thrsp 
{
  states = ( "No Change" "Low" "High" );
}
node Slc30a7 
{
  states = ( "No Change" "Low" "High" );
}
node Mt2 
{
  states = ( "No Change" "Low" "High" );
}
node Slc39a3 
{
  states = ( "No Change" "Low" "High" );
}
node Slc39a7 
{
  states = ( "No Change" "Low" "High" );
}
node Slc39a14 
{
  states = ( "No Change" "Low" "High" );
}
node Slc39a2 
{
  states = ( "No Change" "Low" "High" );
}
node Lamp1 
{
  states = ( "No Change" "Low" "High" );
}
node Mt1 
{
  states = ( "No Change" "Low" "High" );
}
node Mt4 
{
  states = ( "No Change" "Low" "High" );
}
node Slc30a1 
{
  states = ( "No Change" "Low" "High" );
}
node Slc39a1 
{
  states = ( "No Change" "Low" "High" );
}
node Slc39a5 
{
  states = ( "No Change" "Low" "High" );
}
node Slc39a6 
{
  states = ( "No Change" "Low" "High" );
}
node Slc39a10 
{
  states = ( "No Change" "Low" "High" );
}
node Mcoln1 
{
  states = ( "No Change" "Low" "High" );
}
node Zkscan3 
{
  states = ( "No Change" "Low" "High" );
}
node Mtf1 
{
  states = ( "No Change" "Low" "High" );
}
node Mt3 
{
  states = ( "No Change" "Low" "High" );
}
node Slc30a4 
{
  states = ( "No Change" "Low" "High" );
}
node Slc30a5 
{
  states = ( "No Change" "Low" "High" );
}
node Slc39a9 
{
  states = ( "No Change" "Low" "High" );
}
node Slc39a13 
{
  states = ( "No Change" "Low" "High" );
}
node Acaa1a 
{
  states = ( "No Change" "Low" "High" );
}
node Cpamd8 
{
  states = ( "No Change" "Low" "High" );
}
node Slc27a5 
{
  states = ( "No Change" "Low" "High" );
}
node Uba52 
{
  states = ( "No Change" "Low" "High" );
}
node Sepp1 
{
  states = ( "No Change" "Low" "High" );
}
node Cyp2c68 
{
  states = ( "No Change" "Low" "High" );
}
node Gm6428 
{
  states = ( "No Change" "Low" "High" );
}
node Aass 
{
  states = ( "No Change" "Low" "High" );
}
node Gnmt 
{
  states = ( "No Change" "Low" "High" );
}
node Hnf4a 
{
  states = ( "No Change" "Low" "High" );
}
node Tat 
{
  states = ( "No Change" "Low" "High" );
}
node Atp5b 
{
  states = ( "No Change" "Low" "High" );
}
node Serpina3k 
{
  states = ( "No Change" "Low" "High" );
}
node Cyp2c67 
{
  states = ( "No Change" "Low" "High" );
}
node X2810007J24Rik 
{
  states = ( "No Change" "Low" "High" );
}
node Gm8566 
{
  states = ( "No Change" "Low" "High" );
}
node ND2 
{
  states = ( "No Change" "Low" "High" );
}
node Mat1a 
{
  states = ( "No Change" "Low" "High" );
}
node X1190003J15Rik 
{
  states = ( "No Change" "Low" "High" );
}
node Ass1 
{
  states = ( "No Change" "Low" "High" );
}
node Gm6222 
{
  states = ( "No Change" "Low" "High" );
}
node Aadac 
{
  states = ( "No Change" "Low" "High" );
}
node Mup3 
{
  states = ( "No Change" "Low" "High" );
}
node Gm5265 
{
  states = ( "No Change" "Low" "High" );
}
node Gstm1 
{
  states = ( "No Change" "Low" "High" );
}
node Cyp3a16 
{
  states = ( "No Change" "Low" "High" );
}
node Chchd10 
{
  states = ( "No Change" "Low" "High" );
}
node X2810002N01Rik 
{
  states = ( "No Change" "Low" "High" );
}
node Cyp2e1 
{
  states = ( "No Change" "Low" "High" );
}
node F10 
{
  states = ( "No Change" "Low" "High" );
}
node Gm15393 
{
  states = ( "No Change" "Low" "High" );
}
node Fgb 
{
  states = ( "No Change" "Low" "High" );
}
node Got1 
{
  states = ( "No Change" "Low" "High" );
}
node Alas1 
{
  states = ( "No Change" "Low" "High" );
}
node Elk1 
{
  states = ( "No Change" "Low" "High" );
}
node Gsta2 
{
  states = ( "No Change" "Low" "High" );
}
node Cyp3a11 
{
  states = ( "No Change" "Low" "High" );
}
potential ( Cyp2c50 | Cyp2c68 ) 
{
  data = ((0.796909492 0.002207506 0.200883002)(0.3333333 0.3333333 0.3333333)(0.01075269 0.01075269 0.97849462)) ;
}
potential ( Gsta3 | Slc30a7 Slc27a5 Uba52 Aass Tat ) 
{
  data = ((((((9.999451e-01 2.743258e-05 2.743258e-05)(0.3333333 0.3333333 0.3333333)(0.3333333 0.3333333 0.3333333))((0.3333333 0.3333333 0.3333333)(0.3333333 0.3333333 0.3333333)(0.3333333 0.3333333 0.3333333))((0.3333333 0.3333333 0.3333333)(0.3333333 0.3333333 0.3333333)(0.3333333 0.3333333 0.3333333)))(((0.3333333 0.3333333 0.3333333)(0.3333333 0.3333333 0.3333333)(0.3333333 0.3333333 0.3333333))((0.3333333 0.3333333 0.3333333)(0.3333333 0.3333333 0.3333333)(0.3333333 0.3333333 0.3333333))((0.3333333 0.3333333 0.3333333)(0.3333333 0.3333333 0.3333333)(0.3333333 0.3333333 0.3333333)))(((0.3333333 0.3333333 0.3333333)(0.3333333 0.3333333 0.3333333)(0.3333333 0.3333333 0.3333333))((0.3333333 0.3333333 0.3333333)(0.3333333 0.3333333 0.3333333)(0.3333333 0.3333333 0.3333333))((0.3333333 0.3333333 0.3333333)(0.3333333 0.3333333 0.3333333)(0.3333333 0.3333333 0.3333333))))((((0.3333333 0.3333333 0.3333333)(0.3333333 0.3333333 0.3333333)(0.3333333 0.3333333 0.3333333))((0.3333333 0.3333333 0.3333333)(0.3333333 0.3333333 0.3333333)(0.3333333 0.3333333 0.3333333))((0.3333333 0.3333333 0.3333333)(0.3333333 0.3333333 0.3333333)(0.3333333 0.3333333 0.3333333)))(((0.3333333 0.3333333 0.3333333)(0.3333333 0.3333333 0.3333333)(0.3333333 0.3333333 0.3333333))((0.3333333 0.3333333 0.3333333)(0.3333333 0.3333333 0.3333333)(0.3333333 0.3333333 0.3333333))((0.3333333 0.3333333 0.3333333)(0.3333333 0.3333333 0.3333333)(0.3333333 0.3333333 0.3333333)))(((0.3333333 0.3333333 0.3333333)(0.3333333 0.3333333 0.3333333)(0.3333333 0.3333333 0.3333333))((0.3333333 0.3333333 0.3333333)(0.3333333 0.3333333 0.3333333)(0.3333333 0.3333333 0.3333333))((0.3333333 0.3333333 0.3333333)(0.3333333 0.3333333 0.3333333)(0.3333333 0.3333333 0.3333333))))((((0.3333333 0.3333333 0.3333333)(0.3333333 0.3333333 0.3333333)(0.3333333 0.3333333 0.3333333))((0.3333333 0.3333333 0.3333333)(0.3333333 0.3333333 0.3333333)(0.3333333 0.3333333 0.3333333))((0.3333333 0.3333333 0.3333333)(0.3333333 0.3333333 0.3333333)(0.3333333 0.3333333 0.3333333)))(((0.3333333 0.3333333 0.3333333)(0.3333333 0.3333333 0.3333333)(0.3333333 0.3333333 0.3333333))((0.3333333 0.3333333 0.3333333)(0.3333333 0.3333333 0.3333333)(0.3333333 0.3333333 0.3333333))((0.3333333 0.3333333 0.3333333)(0.3333333 0.3333333 0.3333333)(0.3333333 0.3333333 0.3333333)))(((0.3333333 0.3333333 0.3333333)(0.3333333 0.3333333 0.3333333)(0.3333333 0.3333333 0.3333333))((0.3333333 0.3333333 0.3333333)(0.3333333 0.3333333 0.3333333)(0.3333333 0.3333333 0.3333333))((0.3333333 0.3333333 0.3333333)(0.3333333 0.3333333 0.3333333)(0.3333333 0.3333333 0.3333333)))))(((((0.3333333 0.3333333 0.3333333)(0.3333333 0.3333333 0.3333333)(0.3333333 0.3333333 0.3333333))((0.3333333 0.3333333 0.3333333)(0.3333333 0.3333333 0.3333333)(0.3333333 0.3333333 0.3333333))((0.3333333 0.3333333 0.3333333)(0.3333333 0.3333333 0.3333333)(0.3333333 0.3333333 0.3333333)))(((0.3333333 0.3333333 0.3333333)(0.3333333 0.3333333 0.3333333)(0.3333333 0.3333333 0.3333333))((0.3333333 0.3333333 0.3333333)(0.3333333 0.3333333 0.3333333)(0.3333333 0.3333333 0.3333333))((0.3333333 0.3333333 0.3333333)(0.3333333 0.3333333 0.3333333)(0.3333333 0.3333333 0.3333333)))(((0.3333333 0.3333333 0.3333333)(0.3333333 0.3333333 0.3333333)(0.3333333 0.3333333 0.3333333))((0.3333333 0.3333333 0.3333333)(0.3333333 0.3333333 0.3333333)(0.3333333 0.3333333 0.3333333))((0.3333333 0.3333333 0.3333333)(0.3333333 0.3333333 0.3333333)(0.3333333 0.3333333 0.3333333))))((((0.3333333 0.3333333 0.3333333)(0.3333333 0.3333333 0.3333333)(0.3333333 0.3333333 0.3333333))((0.3333333 0.3333333 0.3333333)(0.3333333 0.3333333 0.3333333)(0.3333333 0.3333333 0.3333333))((0.3333333 0.3333333 0.3333333)(0.3333333 0.3333333 0.3333333)(0.3333333 0.3333333 0.3333333)))(((0.3333333 0.3333333 0.3333333)(0.3333333 0.3333333 0.3333333)(0.3333333 0.3333333 0.3333333))((0.3333333 0.3333333 0.3333333)(0.3333333 0.3333333 0.3333333)(0.3333333 0.3333333 0.3333333))((0.3333333 0.3333333 0.3333333)(0.3333333 0.3333333 0.3333333)(0.3333333 0.3333333 0.3333333)))(((0.3333333 0.3333333 0.3333333)(0.3333333 0.3333333 0.3333333)(0.3333333 0.3333333 0.3333333))((0.3333333 0.3333333 0.3333333)(0.3333333 0.3333333 0.3333333)(0.3333333 0.3333333 0.3333333))((0.3333333 0.3333333 0.3333333)(0.3333333 0.3333333 0.3333333)(0.3333333 0.3333333 0.3333333))))((((0.3333333 0.3333333 0.3333333)(0.3333333 0.3333333 0.3333333)(0.3333333 0.3333333 0.3333333))((0.3333333 0.3333333 0.3333333)(0.3333333 0.3333333 0.3333333)(0.3333333 0.3333333 0.3333333))((0.3333333 0.3333333 0.3333333)(0.3333333 0.3333333 0.3333333)(0.3333333 0.3333333 0.3333333)))(((0.3333333 0.3333333 0.3333333)(0.3333333 0.3333333 0.3333333)(0.3333333 0.3333333 0.3333333))((0.3333333 0.3333333 0.3333333)(0.3333333 0.3333333 0.3333333)(0.3333333 0.3333333 0.3333333))((0.3333333 0.3333333 0.3333333)(0.3333333 0.3333333 0.3333333)(0.3333333 0.3333333 0.3333333)))(((0.3333333 0.3333333 0.3333333)(0.3333333 0.3333333 0.3333333)(0.3333333 0.3333333 0.3333333))((0.3333333 0.3333333 0.3333333)(0.3333333 0.3333333 0.3333333)(0.3333333 0.3333333 0.3333333))((0.3333333 0.3333333 0.3333333)(0.3333333 0.3333333 0.3333333)(0.3333333 0.3333333 0.3333333)))))(((((0.3333333 0.3333333 0.3333333)(0.3333333 0.3333333 0.3333333)(0.3333333 0.3333333 0.3333333))((0.3333333 0.3333333 0.3333333)(0.3333333 0.3333333 0.3333333)(0.3333333 0.3333333 0.3333333))((0.3333333 0.3333333 0.3333333)(0.3333333 0.3333333 0.3333333)(0.3333333 0.3333333 0.3333333)))(((0.3333333 0.3333333 0.3333333)(0.3333333 0.3333333 0.3333333)(0.3333333 0.3333333 0.3333333))((0.3333333 0.3333333 0.3333333)(0.3333333 0.3333333 0.3333333)(0.3333333 0.3333333 0.3333333))((0.3333333 0.3333333 0.3333333)(0.3333333 0.3333333 0.3333333)(0.3333333 0.3333333 0.3333333)))(((0.3333333 0.3333333 0.3333333)(0.3333333 0.3333333 0.3333333)(0.3333333 0.3333333 0.3333333))((0.3333333 0.3333333 0.3333333)(0.3333333 0.3333333 0.3333333)(0.3333333 0.3333333 0.3333333))((0.3333333 0.3333333 0.3333333)(0.3333333 0.3333333 0.3333333)(0.3333333 0.3333333 0.3333333))))((((0.3333333 0.3333333 0.3333333)(0.3333333 0.3333333 0.3333333)(0.3333333 0.3333333 0.3333333))((0.3333333 0.3333333 0.3333333)(0.3333333 0.3333333 0.3333333)(0.3333333 0.3333333 0.3333333))((0.3333333 0.3333333 0.3333333)(0.3333333 0.3333333 0.3333333)(0.3333333 0.3333333 0.3333333)))(((0.3333333 0.3333333 0.3333333)(0.3333333 0.3333333 0.3333333)(0.3333333 0.3333333 0.3333333))((0.3333333 0.3333333 0.3333333)(0.3333333 0.3333333 0.3333333)(0.3333333 0.3333333 0.3333333))((0.3333333 0.3333333 0.3333333)(0.3333333 0.3333333 0.3333333)(0.3333333 0.3333333 0.3333333)))(((0.3333333 0.3333333 0.3333333)(0.3333333 0.3333333 0.3333333)(0.3333333 0.3333333 0.3333333))((0.3333333 0.3333333 0.3333333)(0.3333333 0.3333333 0.3333333)(0.3333333 0.3333333 0.3333333))((0.3333333 0.3333333 0.3333333)(0.3333333 0.3333333 0.3333333)(0.3333333 0.3333333 0.3333333))))((((0.3333333 0.3333333 0.3333333)(0.3333333 0.3333333 0.3333333)(0.3333333 0.3333333 0.3333333))((0.3333333 0.3333333 0.3333333)(0.3333333 0.3333333 0.3333333)(0.3333333 0.3333333 0.3333333))((0.3333333 0.3333333 0.3333333)(0.3333333 0.3333333 0.3333333)(0.3333333 0.3333333 0.3333333)))(((0.3333333 0.3333333 0.3333333)(0.3333333 0.3333333 0.3333333)(0.3333333 0.3333333 0.3333333))((0.3333333 0.3333333 0.3333333)(0.3333333 0.3333333 0.3333333)(0.3333333 0.3333333 0.3333333))((0.3333333 0.3333333 0.3333333)(0.3333333 0.3333333 0.3333333)(0.3333333 0.3333333 0.3333333)))(((0.3333333 0.3333333 0.3333333)(0.3333333 0.3333333 0.3333333)(0.3333333 0.3333333 0.3333333))((0.3333333 0.3333333 0.3333333)(0.3333333 0.3333333 0.3333333)(0.3333333 0.3333333 0.3333333))((0.3333333 0.3333333 0.3333333)(0.3333333 0.3333333 0.3333333)(0.0001371178 0.0001371178 0.9997257644)))))) ;
}
potential ( Serpina3m | Slc30a7 Cpamd8 Slc27a5 Sepp1 ) 
{
  data = (((((9.998354e-01 8.228421e-05 8.228421e-05)(0.3333333 0.3333333 0.3333333)(0.3333333 0.3333333 0.3333333))((0.3333333 0.3333333 0.3333333)(0.3333333 0.3333333 0.3333333)(0.3333333 0.3333333 0.3333333))((0.3333333 0.3333333 0.3333333)(0.3333333 0.3333333 0.3333333)(0.3333333 0.3333333 0.3333333)))(((0.3333333 0.3333333 0.3333333)(0.3333333 0.3333333 0.3333333)(0.3333333 0.3333333 0.3333333))((0.3333333 0.3333333 0.3333333)(0.3333333 0.3333333 0.3333333)(0.3333333 0.3333333 0.3333333))((0.3333333 0.3333333 0.3333333)(0.3333333 0.3333333 0.3333333)(0.3333333 0.3333333 0.3333333)))(((0.3333333 0.3333333 0.3333333)(0.3333333 0.3333333 0.3333333)(0.3333333 0.3333333 0.3333333))((0.3333333 0.3333333 0.3333333)(0.3333333 0.3333333 0.3333333)(0.3333333 0.3333333 0.3333333))((0.3333333 0.3333333 0.3333333)(0.3333333 0.3333333 0.3333333)(0.3333333 0.3333333 0.3333333))))((((0.3333333 0.3333333 0.3333333)(0.3333333 0.3333333 0.3333333)(0.3333333 0.3333333 0.3333333))((0.3333333 0.3333333 0.3333333)(0.3333333 0.3333333 0.3333333)(0.3333333 0.3333333 0.3333333))((0.3333333 0.3333333 0.3333333)(0.3333333 0.3333333 0.3333333)(0.3333333 0.3333333 0.3333333)))(((0.3333333 0.3333333 0.3333333)(0.3333333 0.3333333 0.3333333)(0.3333333 0.3333333 0.3333333))((0.3333333 0.3333333 0.3333333)(0.3333333 0.3333333 0.3333333)(0.3333333 0.3333333 0.3333333))((0.3333333 0.3333333 0.3333333)(0.3333333 0.3333333 0.3333333)(0.3333333 0.3333333 0.3333333)))(((0.3333333 0.3333333 0.3333333)(0.3333333 0.3333333 0.3333333)(0.3333333 0.3333333 0.3333333))((0.3333333 0.3333333 0.3333333)(0.3333333 0.3333333 0.3333333)(0.3333333 0.3333333 0.3333333))((0.3333333 0.3333333 0.3333333)(0.3333333 0.3333333 0.3333333)(0.3333333 0.3333333 0.3333333))))((((0.3333333 0.3333333 0.3333333)(0.3333333 0.3333333 0.3333333)(0.3333333 0.3333333 0.3333333))((0.3333333 0.3333333 0.3333333)(0.3333333 0.3333333 0.3333333)(0.3333333 0.3333333 0.3333333))((0.3333333 0.3333333 0.3333333)(0.3333333 0.3333333 0.3333333)(0.3333333 0.3333333 0.3333333)))(((0.3333333 0.3333333 0.3333333)(0.3333333 0.3333333 0.3333333)(0.3333333 0.3333333 0.3333333))((0.3333333 0.3333333 0.3333333)(0.3333333 0.3333333 0.3333333)(0.3333333 0.3333333 0.3333333))((0.3333333 0.3333333 0.3333333)(0.3333333 0.3333333 0.3333333)(0.3333333 0.3333333 0.3333333)))(((0.3333333 0.3333333 0.3333333)(0.3333333 0.3333333 0.3333333)(0.3333333 0.3333333 0.3333333))((0.3333333 0.3333333 0.3333333)(0.3333333 0.3333333 0.3333333)(0.3333333 0.3333333 0.3333333))((0.3333333 0.3333333 0.3333333)(0.3333333 0.3333333 0.3333333)(0.0004110152 0.0004110152 0.9991779696))))) ;
}
potential ( St3gal5 | Acaa1a Cpamd8 Aass Hnf4a ) 
{
  data = (((((9.998354e-01 8.228421e-05 8.228421e-05)(0.3333333 0.3333333 0.3333333)(0.3333333 0.3333333 0.3333333))((0.3333333 0.3333333 0.3333333)(0.3333333 0.3333333 0.3333333)(0.3333333 0.3333333 0.3333333))((0.3333333 0.3333333 0.3333333)(0.3333333 0.3333333 0.3333333)(0.3333333 0.3333333 0.3333333)))(((0.3333333 0.3333333 0.3333333)(0.3333333 0.3333333 0.3333333)(0.3333333 0.3333333 0.3333333))((0.3333333 0.3333333 0.3333333)(0.3333333 0.3333333 0.3333333)(0.3333333 0.3333333 0.3333333))((0.3333333 0.3333333 0.3333333)(0.3333333 0.3333333 0.3333333)(0.3333333 0.3333333 0.3333333)))(((0.3333333 0.3333333 0.3333333)(0.3333333 0.3333333 0.3333333)(0.3333333 0.3333333 0.3333333))((0.3333333 0.3333333 0.3333333)(0.3333333 0.3333333 0.3333333)(0.3333333 0.3333333 0.3333333))((0.3333333 0.3333333 0.3333333)(0.3333333 0.3333333 0.3333333)(0.3333333 0.3333333 0.3333333))))((((0.3333333 0.3333333 0.3333333)(0.3333333 0.3333333 0.3333333)(0.3333333 0.3333333 0.3333333))((0.3333333 0.3333333 0.3333333)(0.3333333 0.3333333 0.3333333)(0.3333333 0.3333333 0.3333333))((0.3333333 0.3333333 0.3333333)(0.3333333 0.3333333 0.3333333)(0.3333333 0.3333333 0.3333333)))(((0.3333333 0.3333333 0.3333333)(0.3333333 0.3333333 0.3333333)(0.3333333 0.3333333 0.3333333))((0.3333333 0.3333333 0.3333333)(0.3333333 0.3333333 0.3333333)(0.3333333 0.3333333 0.3333333))((0.3333333 0.3333333 0.3333333)(0.3333333 0.3333333 0.3333333)(0.3333333 0.3333333 0.3333333)))(((0.3333333 0.3333333 0.3333333)(0.3333333 0.3333333 0.3333333)(0.3333333 0.3333333 0.3333333))((0.3333333 0.3333333 0.3333333)(0.3333333 0.3333333 0.3333333)(0.3333333 0.3333333 0.3333333))((0.3333333 0.3333333 0.3333333)(0.3333333 0.3333333 0.3333333)(0.3333333 0.3333333 0.3333333))))((((0.3333333 0.3333333 0.3333333)(0.3333333 0.3333333 0.3333333)(0.3333333 0.3333333 0.3333333))((0.3333333 0.3333333 0.3333333)(0.3333333 0.3333333 0.3333333)(0.3333333 0.3333333 0.3333333))((0.3333333 0.3333333 0.3333333)(0.3333333 0.3333333 0.3333333)(0.3333333 0.3333333 0.3333333)))(((0.3333333 0.3333333 0.3333333)(0.3333333 0.3333333 0.3333333)(0.3333333 0.3333333 0.3333333))((0.3333333 0.3333333 0.3333333)(0.3333333 0.3333333 0.3333333)(0.3333333 0.3333333 0.3333333))((0.3333333 0.3333333 0.3333333)(0.3333333 0.3333333 0.3333333)(0.3333333 0.3333333 0.3333333)))(((0.3333333 0.3333333 0.3333333)(0.3333333 0.3333333 0.3333333)(0.3333333 0.3333333 0.3333333))((0.3333333 0.3333333 0.3333333)(0.3333333 0.3333333 0.3333333)(0.3333333 0.3333333 0.3333333))((0.3333333 0.3333333 0.3333333)(0.3333333 0.3333333 0.3333333)(0.0004110152 0.0004110152 0.9991779696))))) ;
}
potential ( Thrsp | Acaa1a Gm6428 Aass Gnmt ) 
{
  data = (((((9.998354e-01 8.228421e-05 8.228421e-05)(0.3333333 0.3333333 0.3333333)(0.3333333 0.3333333 0.3333333))((0.3333333 0.3333333 0.3333333)(0.3333333 0.3333333 0.3333333)(0.3333333 0.3333333 0.3333333))((0.3333333 0.3333333 0.3333333)(0.3333333 0.3333333 0.3333333)(0.3333333 0.3333333 0.3333333)))(((0.3333333 0.3333333 0.3333333)(0.3333333 0.3333333 0.3333333)(0.3333333 0.3333333 0.3333333))((0.3333333 0.3333333 0.3333333)(0.3333333 0.3333333 0.3333333)(0.3333333 0.3333333 0.3333333))((0.3333333 0.3333333 0.3333333)(0.3333333 0.3333333 0.3333333)(0.3333333 0.3333333 0.3333333)))(((0.3333333 0.3333333 0.3333333)(0.3333333 0.3333333 0.3333333)(0.3333333 0.3333333 0.3333333))((0.3333333 0.3333333 0.3333333)(0.3333333 0.3333333 0.3333333)(0.3333333 0.3333333 0.3333333))((0.3333333 0.3333333 0.3333333)(0.3333333 0.3333333 0.3333333)(0.3333333 0.3333333 0.3333333))))((((0.3333333 0.3333333 0.3333333)(0.3333333 0.3333333 0.3333333)(0.3333333 0.3333333 0.3333333))((0.3333333 0.3333333 0.3333333)(0.3333333 0.3333333 0.3333333)(0.3333333 0.3333333 0.3333333))((0.3333333 0.3333333 0.3333333)(0.3333333 0.3333333 0.3333333)(0.3333333 0.3333333 0.3333333)))(((0.3333333 0.3333333 0.3333333)(0.3333333 0.3333333 0.3333333)(0.3333333 0.3333333 0.3333333))((0.3333333 0.3333333 0.3333333)(0.3333333 0.3333333 0.3333333)(0.3333333 0.3333333 0.3333333))((0.3333333 0.3333333 0.3333333)(0.3333333 0.3333333 0.3333333)(0.3333333 0.3333333 0.3333333)))(((0.3333333 0.3333333 0.3333333)(0.3333333 0.3333333 0.3333333)(0.3333333 0.3333333 0.3333333))((0.3333333 0.3333333 0.3333333)(0.3333333 0.3333333 0.3333333)(0.3333333 0.3333333 0.3333333))((0.3333333 0.3333333 0.3333333)(0.3333333 0.3333333 0.3333333)(0.3333333 0.3333333 0.3333333))))((((0.3333333 0.3333333 0.3333333)(0.3333333 0.3333333 0.3333333)(0.3333333 0.3333333 0.3333333))((0.3333333 0.3333333 0.3333333)(0.3333333 0.3333333 0.3333333)(0.3333333 0.3333333 0.3333333))((0.3333333 0.3333333 0.3333333)(0.3333333 0.3333333 0.3333333)(0.3333333 0.3333333 0.3333333)))(((0.3333333 0.3333333 0.3333333)(0.3333333 0.3333333 0.3333333)(0.3333333 0.3333333 0.3333333))((0.3333333 0.3333333 0.3333333)(0.3333333 0.3333333 0.3333333)(0.3333333 0.3333333 0.3333333))((0.3333333 0.3333333 0.3333333)(0.3333333 0.3333333 0.3333333)(0.3333333 0.3333333 0.3333333)))(((0.3333333 0.3333333 0.3333333)(0.3333333 0.3333333 0.3333333)(0.3333333 0.3333333 0.3333333))((0.3333333 0.3333333 0.3333333)(0.3333333 0.3333333 0.3333333)(0.3333333 0.3333333 0.3333333))((0.3333333 0.3333333 0.3333333)(0.3333333 0.3333333 0.3333333)(0.0004110152 0.0004110152 0.9991779696))))) ;
}
potential ( Slc30a7 | Slc39a14 Uba52 Aass Cyp2c67 ) 
{
  data = (((((9.998354e-01 8.228421e-05 8.228421e-05)(0.3333333 0.3333333 0.3333333)(0.3333333 0.3333333 0.3333333))((0.3333333 0.3333333 0.3333333)(0.3333333 0.3333333 0.3333333)(0.3333333 0.3333333 0.3333333))((0.3333333 0.3333333 0.3333333)(0.3333333 0.3333333 0.3333333)(0.3333333 0.3333333 0.3333333)))(((0.3333333 0.3333333 0.3333333)(0.3333333 0.3333333 0.3333333)(0.3333333 0.3333333 0.3333333))((0.3333333 0.3333333 0.3333333)(0.3333333 0.3333333 0.3333333)(0.3333333 0.3333333 0.3333333))((0.3333333 0.3333333 0.3333333)(0.3333333 0.3333333 0.3333333)(0.3333333 0.3333333 0.3333333)))(((0.3333333 0.3333333 0.3333333)(0.3333333 0.3333333 0.3333333)(0.3333333 0.3333333 0.3333333))((0.3333333 0.3333333 0.3333333)(0.3333333 0.3333333 0.3333333)(0.3333333 0.3333333 0.3333333))((0.3333333 0.3333333 0.3333333)(0.3333333 0.3333333 0.3333333)(0.3333333 0.3333333 0.3333333))))((((0.3333333 0.3333333 0.3333333)(0.3333333 0.3333333 0.3333333)(0.3333333 0.3333333 0.3333333))((0.3333333 0.3333333 0.3333333)(0.3333333 0.3333333 0.3333333)(0.3333333 0.3333333 0.3333333))((0.3333333 0.3333333 0.3333333)(0.3333333 0.3333333 0.3333333)(0.3333333 0.3333333 0.3333333)))(((0.3333333 0.3333333 0.3333333)(0.3333333 0.3333333 0.3333333)(0.3333333 0.3333333 0.3333333))((0.3333333 0.3333333 0.3333333)(0.3333333 0.3333333 0.3333333)(0.3333333 0.3333333 0.3333333))((0.3333333 0.3333333 0.3333333)(0.3333333 0.3333333 0.3333333)(0.3333333 0.3333333 0.3333333)))(((0.3333333 0.3333333 0.3333333)(0.3333333 0.3333333 0.3333333)(0.3333333 0.3333333 0.3333333))((0.3333333 0.3333333 0.3333333)(0.3333333 0.3333333 0.3333333)(0.3333333 0.3333333 0.3333333))((0.3333333 0.3333333 0.3333333)(0.3333333 0.3333333 0.3333333)(0.3333333 0.3333333 0.3333333))))((((0.3333333 0.3333333 0.3333333)(0.3333333 0.3333333 0.3333333)(0.3333333 0.3333333 0.3333333))((0.3333333 0.3333333 0.3333333)(0.3333333 0.3333333 0.3333333)(0.3333333 0.3333333 0.3333333))((0.3333333 0.3333333 0.3333333)(0.3333333 0.3333333 0.3333333)(0.3333333 0.3333333 0.3333333)))(((0.3333333 0.3333333 0.3333333)(0.3333333 0.3333333 0.3333333)(0.3333333 0.3333333 0.3333333))((0.3333333 0.3333333 0.3333333)(0.3333333 0.3333333 0.3333333)(0.3333333 0.3333333 0.3333333))((0.3333333 0.3333333 0.3333333)(0.3333333 0.3333333 0.3333333)(0.3333333 0.3333333 0.3333333)))(((0.3333333 0.3333333 0.3333333)(0.3333333 0.3333333 0.3333333)(0.3333333 0.3333333 0.3333333))((0.3333333 0.3333333 0.3333333)(0.3333333 0.3333333 0.3333333)(0.3333333 0.3333333 0.3333333))((0.3333333 0.3333333 0.3333333)(0.3333333 0.3333333 0.3333333)(0.0004110152 0.0004110152 0.9991779696))))) ;
}
potential ( Mt2 | Slc39a14 ) 
{
  data = ((0.995584989 0.002207506 0.002207506)(0.3333333 0.3333333 0.3333333)(0.01075269 0.01075269 0.97849462)) ;
}
potential ( Slc39a3 ) 
{
  data = ( 0.825136612 0.005464481 0.169398907 );
}
potential ( Slc39a7 | Serpina3m Slc27a5 Hnf4a Atp5b ) 
{
  data = (((((9.998354e-01 8.228421e-05 8.228421e-05)(0.3333333 0.3333333 0.3333333)(0.3333333 0.3333333 0.3333333))((0.3333333 0.3333333 0.3333333)(0.3333333 0.3333333 0.3333333)(0.3333333 0.3333333 0.3333333))((0.3333333 0.3333333 0.3333333)(0.3333333 0.3333333 0.3333333)(0.3333333 0.3333333 0.3333333)))(((0.3333333 0.3333333 0.3333333)(0.3333333 0.3333333 0.3333333)(0.3333333 0.3333333 0.3333333))((0.3333333 0.3333333 0.3333333)(0.3333333 0.3333333 0.3333333)(0.3333333 0.3333333 0.3333333))((0.3333333 0.3333333 0.3333333)(0.3333333 0.3333333 0.3333333)(0.3333333 0.3333333 0.3333333)))(((0.3333333 0.3333333 0.3333333)(0.3333333 0.3333333 0.3333333)(0.3333333 0.3333333 0.3333333))((0.3333333 0.3333333 0.3333333)(0.3333333 0.3333333 0.3333333)(0.3333333 0.3333333 0.3333333))((0.3333333 0.3333333 0.3333333)(0.3333333 0.3333333 0.3333333)(0.3333333 0.3333333 0.3333333))))((((0.3333333 0.3333333 0.3333333)(0.3333333 0.3333333 0.3333333)(0.3333333 0.3333333 0.3333333))((0.3333333 0.3333333 0.3333333)(0.3333333 0.3333333 0.3333333)(0.3333333 0.3333333 0.3333333))((0.3333333 0.3333333 0.3333333)(0.3333333 0.3333333 0.3333333)(0.3333333 0.3333333 0.3333333)))(((0.3333333 0.3333333 0.3333333)(0.3333333 0.3333333 0.3333333)(0.3333333 0.3333333 0.3333333))((0.3333333 0.3333333 0.3333333)(0.3333333 0.3333333 0.3333333)(0.3333333 0.3333333 0.3333333))((0.3333333 0.3333333 0.3333333)(0.3333333 0.3333333 0.3333333)(0.3333333 0.3333333 0.3333333)))(((0.3333333 0.3333333 0.3333333)(0.3333333 0.3333333 0.3333333)(0.3333333 0.3333333 0.3333333))((0.3333333 0.3333333 0.3333333)(0.3333333 0.3333333 0.3333333)(0.3333333 0.3333333 0.3333333))((0.3333333 0.3333333 0.3333333)(0.3333333 0.3333333 0.3333333)(0.3333333 0.3333333 0.3333333))))((((0.3333333 0.3333333 0.3333333)(0.3333333 0.3333333 0.3333333)(0.3333333 0.3333333 0.3333333))((0.3333333 0.3333333 0.3333333)(0.3333333 0.3333333 0.3333333)(0.3333333 0.3333333 0.3333333))((0.3333333 0.3333333 0.3333333)(0.3333333 0.3333333 0.3333333)(0.3333333 0.3333333 0.3333333)))(((0.3333333 0.3333333 0.3333333)(0.3333333 0.3333333 0.3333333)(0.3333333 0.3333333 0.3333333))((0.3333333 0.3333333 0.3333333)(0.3333333 0.3333333 0.3333333)(0.3333333 0.3333333 0.3333333))((0.3333333 0.3333333 0.3333333)(0.3333333 0.3333333 0.3333333)(0.3333333 0.3333333 0.3333333)))(((0.3333333 0.3333333 0.3333333)(0.3333333 0.3333333 0.3333333)(0.3333333 0.3333333 0.3333333))((0.3333333 0.3333333 0.3333333)(0.3333333 0.3333333 0.3333333)(0.3333333 0.3333333 0.3333333))((0.3333333 0.3333333 0.3333333)(0.3333333 0.3333333 0.3333333)(0.0004110152 0.0004110152 0.9991779696))))) ;
}
potential ( Slc39a14 ) 
{
  data = ( 0.825136612 0.005464481 0.169398907 );
}
potential ( Slc39a2 | Cyp2c50 Slc39a5 Fgb ) 
{
  data = ((((0.0006161429 0.9987677141 0.0006161429)(0.997539975 0.001230012 0.001230012)(0.3333333 0.3333333 0.3333333))((0.3333333 0.3333333 0.3333333)(0.3333333 0.3333333 0.3333333)(0.997539975 0.001230012 0.001230012))((0.3333333 0.3333333 0.3333333)(0.3333333 0.3333333 0.3333333)(0.3333333 0.3333333 0.3333333)))(((0.3333333 0.3333333 0.3333333)(0.3333333 0.3333333 0.3333333)(0.3333333 0.3333333 0.3333333))((0.3333333 0.3333333 0.3333333)(0.3333333 0.3333333 0.3333333)(0.3333333 0.3333333 0.3333333))((0.3333333 0.3333333 0.3333333)(0.3333333 0.3333333 0.3333333)(0.3333333 0.3333333 0.3333333)))(((0.997539975 0.001230012 0.001230012)(0.3333333 0.3333333 0.3333333)(0.3333333 0.3333333 0.3333333))((0.3333333 0.3333333 0.3333333)(0.3333333 0.3333333 0.3333333)(0.3333333 0.3333333 0.3333333))((0.001230012 0.001230012 0.997539975)(0.3333333 0.3333333 0.3333333)(0.3333333 0.3333333 0.3333333)))) ;
}
potential ( Lamp1 | Gsta3 Slc39a7 Mat1a Gm6222 ) 
{
  data = (((((0.9997943022 0.0001028489 0.0001028489)(0.0004110152 0.9991779696 0.0004110152)(0.3333333 0.3333333 0.3333333))((0.3333333 0.3333333 0.3333333)(0.3333333 0.3333333 0.3333333)(0.3333333 0.3333333 0.3333333))((0.3333333 0.3333333 0.3333333)(0.3333333 0.3333333 0.3333333)(0.3333333 0.3333333 0.3333333)))(((0.3333333 0.3333333 0.3333333)(0.3333333 0.3333333 0.3333333)(0.3333333 0.3333333 0.3333333))((0.3333333 0.3333333 0.3333333)(0.3333333 0.3333333 0.3333333)(0.3333333 0.3333333 0.3333333))((0.3333333 0.3333333 0.3333333)(0.3333333 0.3333333 0.3333333)(0.3333333 0.3333333 0.3333333)))(((0.3333333 0.3333333 0.3333333)(0.3333333 0.3333333 0.3333333)(0.3333333 0.3333333 0.3333333))((0.3333333 0.3333333 0.3333333)(0.3333333 0.3333333 0.3333333)(0.3333333 0.3333333 0.3333333))((0.3333333 0.3333333 0.3333333)(0.3333333 0.3333333 0.3333333)(0.3333333 0.3333333 0.3333333))))((((0.3333333 0.3333333 0.3333333)(0.3333333 0.3333333 0.3333333)(0.3333333 0.3333333 0.3333333))((0.3333333 0.3333333 0.3333333)(0.3333333 0.3333333 0.3333333)(0.3333333 0.3333333 0.3333333))((0.3333333 0.3333333 0.3333333)(0.3333333 0.3333333 0.3333333)(0.3333333 0.3333333 0.3333333)))(((0.3333333 0.3333333 0.3333333)(0.3333333 0.3333333 0.3333333)(0.3333333 0.3333333 0.3333333))((0.3333333 0.3333333 0.3333333)(0.3333333 0.3333333 0.3333333)(0.3333333 0.3333333 0.3333333))((0.3333333 0.3333333 0.3333333)(0.3333333 0.3333333 0.3333333)(0.3333333 0.3333333 0.3333333)))(((0.3333333 0.3333333 0.3333333)(0.3333333 0.3333333 0.3333333)(0.3333333 0.3333333 0.3333333))((0.3333333 0.3333333 0.3333333)(0.3333333 0.3333333 0.3333333)(0.3333333 0.3333333 0.3333333))((0.3333333 0.3333333 0.3333333)(0.3333333 0.3333333 0.3333333)(0.3333333 0.3333333 0.3333333))))((((0.3333333 0.3333333 0.3333333)(0.3333333 0.3333333 0.3333333)(0.3333333 0.3333333 0.3333333))((0.3333333 0.3333333 0.3333333)(0.3333333 0.3333333 0.3333333)(0.3333333 0.3333333 0.3333333))((0.3333333 0.3333333 0.3333333)(0.3333333 0.3333333 0.3333333)(0.3333333 0.3333333 0.3333333)))(((0.3333333 0.3333333 0.3333333)(0.3333333 0.3333333 0.3333333)(0.3333333 0.3333333 0.3333333))((0.3333333 0.3333333 0.3333333)(0.3333333 0.3333333 0.3333333)(0.3333333 0.3333333 0.3333333))((0.3333333 0.3333333 0.3333333)(0.3333333 0.3333333 0.3333333)(0.3333333 0.3333333 0.3333333)))(((0.3333333 0.3333333 0.3333333)(0.3333333 0.3333333 0.3333333)(0.3333333 0.3333333 0.3333333))((0.3333333 0.3333333 0.3333333)(0.3333333 0.3333333 0.3333333)(0.3333333 0.3333333 0.3333333))((0.3333333 0.3333333 0.3333333)(0.3333333 0.3333333 0.3333333)(0.0004110152 0.0004110152 0.9991779696))))) ;
}
potential ( Mt1 | Gm6428 Aass X2810007J24Rik Gm8566 Gstm1 ) 
{
  data = ((((((9.999314e-01 3.429003e-05 3.429003e-05)(0.3333333 0.3333333 0.3333333)(0.0001371178 0.9997257644 0.0001371178))((0.3333333 0.3333333 0.3333333)(0.3333333 0.3333333 0.3333333)(0.3333333 0.3333333 0.3333333))((0.3333333 0.3333333 0.3333333)(0.3333333 0.3333333 0.3333333)(0.3333333 0.3333333 0.3333333)))(((0.3333333 0.3333333 0.3333333)(0.3333333 0.3333333 0.3333333)(0.3333333 0.3333333 0.3333333))((0.3333333 0.3333333 0.3333333)(0.3333333 0.3333333 0.3333333)(0.3333333 0.3333333 0.3333333))((0.3333333 0.3333333 0.3333333)(0.3333333 0.3333333 0.3333333)(0.3333333 0.3333333 0.3333333)))(((0.3333333 0.3333333 0.3333333)(0.3333333 0.3333333 0.3333333)(0.3333333 0.3333333 0.3333333))((0.3333333 0.3333333 0.3333333)(0.3333333 0.3333333 0.3333333)(0.3333333 0.3333333 0.3333333))((0.3333333 0.3333333 0.3333333)(0.3333333 0.3333333 0.3333333)(0.3333333 0.3333333 0.3333333))))((((0.3333333 0.3333333 0.3333333)(0.3333333 0.3333333 0.3333333)(0.3333333 0.3333333 0.3333333))((0.3333333 0.3333333 0.3333333)(0.3333333 0.3333333 0.3333333)(0.3333333 0.3333333 0.3333333))((0.3333333 0.3333333 0.3333333)(0.3333333 0.3333333 0.3333333)(0.3333333 0.3333333 0.3333333)))(((0.3333333 0.3333333 0.3333333)(0.3333333 0.3333333 0.3333333)(0.3333333 0.3333333 0.3333333))((0.3333333 0.3333333 0.3333333)(0.3333333 0.3333333 0.3333333)(0.3333333 0.3333333 0.3333333))((0.3333333 0.3333333 0.3333333)(0.3333333 0.3333333 0.3333333)(0.3333333 0.3333333 0.3333333)))(((0.3333333 0.3333333 0.3333333)(0.3333333 0.3333333 0.3333333)(0.3333333 0.3333333 0.3333333))((0.3333333 0.3333333 0.3333333)(0.3333333 0.3333333 0.3333333)(0.3333333 0.3333333 0.3333333))((0.3333333 0.3333333 0.3333333)(0.3333333 0.3333333 0.3333333)(0.3333333 0.3333333 0.3333333))))((((0.3333333 0.3333333 0.3333333)(0.3333333 0.3333333 0.3333333)(0.3333333 0.3333333 0.3333333))((0.3333333 0.3333333 0.3333333)(0.3333333 0.3333333 0.3333333)(0.3333333 0.3333333 0.3333333))((0.3333333 0.3333333 0.3333333)(0.3333333 0.3333333 0.3333333)(0.3333333 0.3333333 0.3333333)))(((0.3333333 0.3333333 0.3333333)(0.3333333 0.3333333 0.3333333)(0.3333333 0.3333333 0.3333333))((0.3333333 0.3333333 0.3333333)(0.3333333 0.3333333 0.3333333)(0.3333333 0.3333333 0.3333333))((0.3333333 0.3333333 0.3333333)(0.3333333 0.3333333 0.3333333)(0.3333333 0.3333333 0.3333333)))(((0.3333333 0.3333333 0.3333333)(0.3333333 0.3333333 0.3333333)(0.3333333 0.3333333 0.3333333))((0.3333333 0.3333333 0.3333333)(0.3333333 0.3333333 0.3333333)(0.3333333 0.3333333 0.3333333))((0.3333333 0.3333333 0.3333333)(0.3333333 0.3333333 0.3333333)(0.3333333 0.3333333 0.3333333)))))(((((0.3333333 0.3333333 0.3333333)(0.3333333 0.3333333 0.3333333)(0.3333333 0.3333333 0.3333333))((0.3333333 0.3333333 0.3333333)(0.3333333 0.3333333 0.3333333)(0.3333333 0.3333333 0.3333333))((0.3333333 0.3333333 0.3333333)(0.3333333 0.3333333 0.3333333)(0.3333333 0.3333333 0.3333333)))(((0.3333333 0.3333333 0.3333333)(0.3333333 0.3333333 0.3333333)(0.3333333 0.3333333 0.3333333))((0.3333333 0.3333333 0.3333333)(0.3333333 0.3333333 0.3333333)(0.3333333 0.3333333 0.3333333))((0.3333333 0.3333333 0.3333333)(0.3333333 0.3333333 0.3333333)(0.3333333 0.3333333 0.3333333)))(((0.3333333 0.3333333 0.3333333)(0.3333333 0.3333333 0.3333333)(0.3333333 0.3333333 0.3333333))((0.3333333 0.3333333 0.3333333)(0.3333333 0.3333333 0.3333333)(0.3333333 0.3333333 0.3333333))((0.3333333 0.3333333 0.3333333)(0.3333333 0.3333333 0.3333333)(0.3333333 0.3333333 0.3333333))))((((0.3333333 0.3333333 0.3333333)(0.3333333 0.3333333 0.3333333)(0.3333333 0.3333333 0.3333333))((0.3333333 0.3333333 0.3333333)(0.3333333 0.3333333 0.3333333)(0.3333333 0.3333333 0.3333333))((0.3333333 0.3333333 0.3333333)(0.3333333 0.3333333 0.3333333)(0.3333333 0.3333333 0.3333333)))(((0.3333333 0.3333333 0.3333333)(0.3333333 0.3333333 0.3333333)(0.3333333 0.3333333 0.3333333))((0.3333333 0.3333333 0.3333333)(0.3333333 0.3333333 0.3333333)(0.3333333 0.3333333 0.3333333))((0.3333333 0.3333333 0.3333333)(0.3333333 0.3333333 0.3333333)(0.3333333 0.3333333 0.3333333)))(((0.3333333 0.3333333 0.3333333)(0.3333333 0.3333333 0.3333333)(0.3333333 0.3333333 0.3333333))((0.3333333 0.3333333 0.3333333)(0.3333333 0.3333333 0.3333333)(0.3333333 0.3333333 0.3333333))((0.3333333 0.3333333 0.3333333)(0.3333333 0.3333333 0.3333333)(0.3333333 0.3333333 0.3333333))))((((0.3333333 0.3333333 0.3333333)(0.3333333 0.3333333 0.3333333)(0.3333333 0.3333333 0.3333333))((0.3333333 0.3333333 0.3333333)(0.3333333 0.3333333 0.3333333)(0.3333333 0.3333333 0.3333333))((0.3333333 0.3333333 0.3333333)(0.3333333 0.3333333 0.3333333)(0.3333333 0.3333333 0.3333333)))(((0.3333333 0.3333333 0.3333333)(0.3333333 0.3333333 0.3333333)(0.3333333 0.3333333 0.3333333))((0.3333333 0.3333333 0.3333333)(0.3333333 0.3333333 0.3333333)(0.3333333 0.3333333 0.3333333))((0.3333333 0.3333333 0.3333333)(0.3333333 0.3333333 0.3333333)(0.3333333 0.3333333 0.3333333)))(((0.3333333 0.3333333 0.3333333)(0.3333333 0.3333333 0.3333333)(0.3333333 0.3333333 0.3333333))((0.3333333 0.3333333 0.3333333)(0.3333333 0.3333333 0.3333333)(0.3333333 0.3333333 0.3333333))((0.3333333 0.3333333 0.3333333)(0.3333333 0.3333333 0.3333333)(0.3333333 0.3333333 0.3333333)))))(((((0.3333333 0.3333333 0.3333333)(0.3333333 0.3333333 0.3333333)(0.3333333 0.3333333 0.3333333))((0.3333333 0.3333333 0.3333333)(0.3333333 0.3333333 0.3333333)(0.3333333 0.3333333 0.3333333))((0.3333333 0.3333333 0.3333333)(0.3333333 0.3333333 0.3333333)(0.3333333 0.3333333 0.3333333)))(((0.3333333 0.3333333 0.3333333)(0.3333333 0.3333333 0.3333333)(0.3333333 0.3333333 0.3333333))((0.3333333 0.3333333 0.3333333)(0.3333333 0.3333333 0.3333333)(0.3333333 0.3333333 0.3333333))((0.3333333 0.3333333 0.3333333)(0.3333333 0.3333333 0.3333333)(0.3333333 0.3333333 0.3333333)))(((0.3333333 0.3333333 0.3333333)(0.3333333 0.3333333 0.3333333)(0.3333333 0.3333333 0.3333333))((0.3333333 0.3333333 0.3333333)(0.3333333 0.3333333 0.3333333)(0.3333333 0.3333333 0.3333333))((0.3333333 0.3333333 0.3333333)(0.3333333 0.3333333 0.3333333)(0.3333333 0.3333333 0.3333333))))((((0.3333333 0.3333333 0.3333333)(0.3333333 0.3333333 0.3333333)(0.3333333 0.3333333 0.3333333))((0.3333333 0.3333333 0.3333333)(0.3333333 0.3333333 0.3333333)(0.3333333 0.3333333 0.3333333))((0.3333333 0.3333333 0.3333333)(0.3333333 0.3333333 0.3333333)(0.3333333 0.3333333 0.3333333)))(((0.3333333 0.3333333 0.3333333)(0.3333333 0.3333333 0.3333333)(0.3333333 0.3333333 0.3333333))((0.3333333 0.3333333 0.3333333)(0.3333333 0.3333333 0.3333333)(0.3333333 0.3333333 0.3333333))((0.3333333 0.3333333 0.3333333)(0.3333333 0.3333333 0.3333333)(0.3333333 0.3333333 0.3333333)))(((0.3333333 0.3333333 0.3333333)(0.3333333 0.3333333 0.3333333)(0.3333333 0.3333333 0.3333333))((0.3333333 0.3333333 0.3333333)(0.3333333 0.3333333 0.3333333)(0.3333333 0.3333333 0.3333333))((0.3333333 0.3333333 0.3333333)(0.3333333 0.3333333 0.3333333)(0.3333333 0.3333333 0.3333333))))((((0.3333333 0.3333333 0.3333333)(0.3333333 0.3333333 0.3333333)(0.3333333 0.3333333 0.3333333))((0.3333333 0.3333333 0.3333333)(0.3333333 0.3333333 0.3333333)(0.3333333 0.3333333 0.3333333))((0.3333333 0.3333333 0.3333333)(0.3333333 0.3333333 0.3333333)(0.3333333 0.3333333 0.3333333)))(((0.3333333 0.3333333 0.3333333)(0.3333333 0.3333333 0.3333333)(0.3333333 0.3333333 0.3333333))((0.3333333 0.3333333 0.3333333)(0.3333333 0.3333333 0.3333333)(0.3333333 0.3333333 0.3333333))((0.3333333 0.3333333 0.3333333)(0.3333333 0.3333333 0.3333333)(0.3333333 0.3333333 0.3333333)))(((0.3333333 0.3333333 0.3333333)(0.3333333 0.3333333 0.3333333)(0.3333333 0.3333333 0.3333333))((0.3333333 0.3333333 0.3333333)(0.3333333 0.3333333 0.3333333)(0.3333333 0.3333333 0.3333333))((0.3333333 0.3333333 0.3333333)(0.0001371178 0.0001371178 0.9997257644)(0.3333333 0.3333333 0.3333333)))))) ;
}
potential ( Mt4 | Mt1 Cpamd8 Sepp1 Cyp3a16 ) 
{
  data = (((((0.7498714389 0.0001028489 0.2500257122)(0.3333333 0.3333333 0.3333333)(0.3333333 0.3333333 0.3333333))((0.3333333 0.3333333 0.3333333)(0.3333333 0.3333333 0.3333333)(0.3333333 0.3333333 0.3333333))((0.3333333 0.3333333 0.3333333)(0.3333333 0.3333333 0.3333333)(0.3333333 0.3333333 0.3333333)))(((0.3333333 0.3333333 0.3333333)(0.3333333 0.3333333 0.3333333)(0.3333333 0.3333333 0.3333333))((0.3333333 0.3333333 0.3333333)(0.3333333 0.3333333 0.3333333)(0.3333333 0.3333333 0.3333333))((0.3333333 0.3333333 0.3333333)(0.3333333 0.3333333 0.3333333)(0.3333333 0.3333333 0.3333333)))(((0.3333333 0.3333333 0.3333333)(0.3333333 0.3333333 0.3333333)(0.3333333 0.3333333 0.3333333))((0.3333333 0.3333333 0.3333333)(0.3333333 0.3333333 0.3333333)(0.3333333 0.3333333 0.3333333))((0.3333333 0.3333333 0.3333333)(0.3333333 0.3333333 0.3333333)(0.3333333 0.3333333 0.3333333))))((((0.0004110152 0.9991779696 0.0004110152)(0.3333333 0.3333333 0.3333333)(0.3333333 0.3333333 0.3333333))((0.3333333 0.3333333 0.3333333)(0.3333333 0.3333333 0.3333333)(0.3333333 0.3333333 0.3333333))((0.3333333 0.3333333 0.3333333)(0.3333333 0.3333333 0.3333333)(0.3333333 0.3333333 0.3333333)))(((0.3333333 0.3333333 0.3333333)(0.3333333 0.3333333 0.3333333)(0.3333333 0.3333333 0.3333333))((0.3333333 0.3333333 0.3333333)(0.3333333 0.3333333 0.3333333)(0.3333333 0.3333333 0.3333333))((0.3333333 0.3333333 0.3333333)(0.3333333 0.3333333 0.3333333)(0.3333333 0.3333333 0.3333333)))(((0.3333333 0.3333333 0.3333333)(0.3333333 0.3333333 0.3333333)(0.3333333 0.3333333 0.3333333))((0.3333333 0.3333333 0.3333333)(0.3333333 0.3333333 0.3333333)(0.3333333 0.3333333 0.3333333))((0.3333333 0.3333333 0.3333333)(0.3333333 0.3333333 0.3333333)(0.3333333 0.3333333 0.3333333))))((((0.3333333 0.3333333 0.3333333)(0.3333333 0.3333333 0.3333333)(0.3333333 0.3333333 0.3333333))((0.3333333 0.3333333 0.3333333)(0.3333333 0.3333333 0.3333333)(0.3333333 0.3333333 0.3333333))((0.3333333 0.3333333 0.3333333)(0.3333333 0.3333333 0.3333333)(0.3333333 0.3333333 0.3333333)))(((0.3333333 0.3333333 0.3333333)(0.3333333 0.3333333 0.3333333)(0.3333333 0.3333333 0.3333333))((0.3333333 0.3333333 0.3333333)(0.3333333 0.3333333 0.3333333)(0.3333333 0.3333333 0.3333333))((0.3333333 0.3333333 0.3333333)(0.3333333 0.3333333 0.3333333)(0.3333333 0.3333333 0.3333333)))(((0.3333333 0.3333333 0.3333333)(0.3333333 0.3333333 0.3333333)(0.3333333 0.3333333 0.3333333))((0.3333333 0.3333333 0.3333333)(0.3333333 0.3333333 0.3333333)(0.3333333 0.3333333 0.3333333))((0.3333333 0.3333333 0.3333333)(0.3333333 0.3333333 0.3333333)(0.9991779696 0.0004110152 0.0004110152))))) ;
}
potential ( Slc30a1 | Mcoln1 Atp5b Gm8566 ND2 Gstm1 ) 
{
  data = ((((((9.999086e-01 4.571847e-05 4.571847e-05)(0.3333333 0.3333333 0.3333333)(0.0001371178 0.9997257644 0.0001371178))((0.3333333 0.3333333 0.3333333)(0.3333333 0.3333333 0.3333333)(0.3333333 0.3333333 0.3333333))((0.3333333 0.3333333 0.3333333)(0.3333333 0.3333333 0.3333333)(0.3333333 0.3333333 0.3333333)))(((0.3333333 0.3333333 0.3333333)(0.3333333 0.3333333 0.3333333)(0.3333333 0.3333333 0.3333333))((0.3333333 0.3333333 0.3333333)(0.3333333 0.3333333 0.3333333)(0.3333333 0.3333333 0.3333333))((0.3333333 0.3333333 0.3333333)(0.3333333 0.3333333 0.3333333)(0.3333333 0.3333333 0.3333333)))(((0.3333333 0.3333333 0.3333333)(0.3333333 0.3333333 0.3333333)(0.3333333 0.3333333 0.3333333))((0.3333333 0.3333333 0.3333333)(0.3333333 0.3333333 0.3333333)(0.3333333 0.3333333 0.3333333))((0.3333333 0.3333333 0.3333333)(0.3333333 0.3333333 0.3333333)(0.3333333 0.3333333 0.3333333))))((((0.3333333 0.3333333 0.3333333)(0.3333333 0.3333333 0.3333333)(0.3333333 0.3333333 0.3333333))((0.3333333 0.3333333 0.3333333)(0.3333333 0.3333333 0.3333333)(0.3333333 0.3333333 0.3333333))((0.3333333 0.3333333 0.3333333)(0.3333333 0.3333333 0.3333333)(0.3333333 0.3333333 0.3333333)))(((0.3333333 0.3333333 0.3333333)(0.3333333 0.3333333 0.3333333)(0.3333333 0.3333333 0.3333333))((0.3333333 0.3333333 0.3333333)(0.3333333 0.3333333 0.3333333)(0.3333333 0.3333333 0.3333333))((0.3333333 0.3333333 0.3333333)(0.3333333 0.3333333 0.3333333)(0.3333333 0.3333333 0.3333333)))(((0.3333333 0.3333333 0.3333333)(0.3333333 0.3333333 0.3333333)(0.3333333 0.3333333 0.3333333))((0.3333333 0.3333333 0.3333333)(0.3333333 0.3333333 0.3333333)(0.3333333 0.3333333 0.3333333))((0.3333333 0.3333333 0.3333333)(0.3333333 0.3333333 0.3333333)(0.3333333 0.3333333 0.3333333))))((((0.3333333 0.3333333 0.3333333)(0.3333333 0.3333333 0.3333333)(0.3333333 0.3333333 0.3333333))((0.3333333 0.3333333 0.3333333)(0.3333333 0.3333333 0.3333333)(0.3333333 0.3333333 0.3333333))((0.3333333 0.3333333 0.3333333)(0.3333333 0.3333333 0.3333333)(0.3333333 0.3333333 0.3333333)))(((0.3333333 0.3333333 0.3333333)(0.3333333 0.3333333 0.3333333)(0.3333333 0.3333333 0.3333333))((0.3333333 0.3333333 0.3333333)(0.3333333 0.3333333 0.3333333)(0.3333333 0.3333333 0.3333333))((0.3333333 0.3333333 0.3333333)(0.3333333 0.3333333 0.3333333)(0.3333333 0.3333333 0.3333333)))(((0.3333333 0.3333333 0.3333333)(0.3333333 0.3333333 0.3333333)(0.3333333 0.3333333 0.3333333))((0.3333333 0.3333333 0.3333333)(0.3333333 0.3333333 0.3333333)(0.3333333 0.3333333 0.3333333))((0.3333333 0.3333333 0.3333333)(0.3333333 0.3333333 0.3333333)(0.3333333 0.3333333 0.3333333)))))(((((0.0001371178 0.0001371178 0.9997257644)(0.3333333 0.3333333 0.3333333)(0.3333333 0.3333333 0.3333333))((0.3333333 0.3333333 0.3333333)(0.3333333 0.3333333 0.3333333)(0.3333333 0.3333333 0.3333333))((0.3333333 0.3333333 0.3333333)(0.3333333 0.3333333 0.3333333)(0.3333333 0.3333333 0.3333333)))(((0.3333333 0.3333333 0.3333333)(0.3333333 0.3333333 0.3333333)(0.3333333 0.3333333 0.3333333))((0.3333333 0.3333333 0.3333333)(0.3333333 0.3333333 0.3333333)(0.3333333 0.3333333 0.3333333))((0.3333333 0.3333333 0.3333333)(0.3333333 0.3333333 0.3333333)(0.3333333 0.3333333 0.3333333)))(((0.3333333 0.3333333 0.3333333)(0.3333333 0.3333333 0.3333333)(0.3333333 0.3333333 0.3333333))((0.3333333 0.3333333 0.3333333)(0.3333333 0.3333333 0.3333333)(0.3333333 0.3333333 0.3333333))((0.3333333 0.3333333 0.3333333)(0.3333333 0.3333333 0.3333333)(0.3333333 0.3333333 0.3333333))))((((0.3333333 0.3333333 0.3333333)(0.3333333 0.3333333 0.3333333)(0.3333333 0.3333333 0.3333333))((0.3333333 0.3333333 0.3333333)(0.3333333 0.3333333 0.3333333)(0.3333333 0.3333333 0.3333333))((0.3333333 0.3333333 0.3333333)(0.3333333 0.3333333 0.3333333)(0.3333333 0.3333333 0.3333333)))(((0.3333333 0.3333333 0.3333333)(0.3333333 0.3333333 0.3333333)(0.3333333 0.3333333 0.3333333))((0.3333333 0.3333333 0.3333333)(0.3333333 0.3333333 0.3333333)(0.3333333 0.3333333 0.3333333))((0.3333333 0.3333333 0.3333333)(0.3333333 0.3333333 0.3333333)(0.3333333 0.3333333 0.3333333)))(((0.3333333 0.3333333 0.3333333)(0.3333333 0.3333333 0.3333333)(0.3333333 0.3333333 0.3333333))((0.3333333 0.3333333 0.3333333)(0.3333333 0.3333333 0.3333333)(0.3333333 0.3333333 0.3333333))((0.3333333 0.3333333 0.3333333)(0.3333333 0.3333333 0.3333333)(0.3333333 0.3333333 0.3333333))))((((0.3333333 0.3333333 0.3333333)(0.3333333 0.3333333 0.3333333)(0.3333333 0.3333333 0.3333333))((0.3333333 0.3333333 0.3333333)(0.3333333 0.3333333 0.3333333)(0.3333333 0.3333333 0.3333333))((0.3333333 0.3333333 0.3333333)(0.3333333 0.3333333 0.3333333)(0.3333333 0.3333333 0.3333333)))(((0.3333333 0.3333333 0.3333333)(0.3333333 0.3333333 0.3333333)(0.3333333 0.3333333 0.3333333))((0.3333333 0.3333333 0.3333333)(0.3333333 0.3333333 0.3333333)(0.3333333 0.3333333 0.3333333))((0.3333333 0.3333333 0.3333333)(0.3333333 0.3333333 0.3333333)(0.3333333 0.3333333 0.3333333)))(((0.3333333 0.3333333 0.3333333)(0.3333333 0.3333333 0.3333333)(0.3333333 0.3333333 0.3333333))((0.3333333 0.3333333 0.3333333)(0.3333333 0.3333333 0.3333333)(0.3333333 0.3333333 0.3333333))((0.3333333 0.3333333 0.3333333)(0.3333333 0.3333333 0.3333333)(0.3333333 0.3333333 0.3333333)))))(((((0.3333333 0.3333333 0.3333333)(0.3333333 0.3333333 0.3333333)(0.3333333 0.3333333 0.3333333))((0.3333333 0.3333333 0.3333333)(0.3333333 0.3333333 0.3333333)(0.3333333 0.3333333 0.3333333))((0.3333333 0.3333333 0.3333333)(0.3333333 0.3333333 0.3333333)(0.3333333 0.3333333 0.3333333)))(((0.3333333 0.3333333 0.3333333)(0.3333333 0.3333333 0.3333333)(0.3333333 0.3333333 0.3333333))((0.3333333 0.3333333 0.3333333)(0.3333333 0.3333333 0.3333333)(0.3333333 0.3333333 0.3333333))((0.3333333 0.3333333 0.3333333)(0.3333333 0.3333333 0.3333333)(0.3333333 0.3333333 0.3333333)))(((0.3333333 0.3333333 0.3333333)(0.3333333 0.3333333 0.3333333)(0.3333333 0.3333333 0.3333333))((0.3333333 0.3333333 0.3333333)(0.3333333 0.3333333 0.3333333)(0.3333333 0.3333333 0.3333333))((0.3333333 0.3333333 0.3333333)(0.3333333 0.3333333 0.3333333)(0.3333333 0.3333333 0.3333333))))((((0.3333333 0.3333333 0.3333333)(0.3333333 0.3333333 0.3333333)(0.3333333 0.3333333 0.3333333))((0.3333333 0.3333333 0.3333333)(0.3333333 0.3333333 0.3333333)(0.3333333 0.3333333 0.3333333))((0.3333333 0.3333333 0.3333333)(0.3333333 0.3333333 0.3333333)(0.3333333 0.3333333 0.3333333)))(((0.3333333 0.3333333 0.3333333)(0.3333333 0.3333333 0.3333333)(0.3333333 0.3333333 0.3333333))((0.3333333 0.3333333 0.3333333)(0.3333333 0.3333333 0.3333333)(0.3333333 0.3333333 0.3333333))((0.3333333 0.3333333 0.3333333)(0.3333333 0.3333333 0.3333333)(0.3333333 0.3333333 0.3333333)))(((0.3333333 0.3333333 0.3333333)(0.3333333 0.3333333 0.3333333)(0.3333333 0.3333333 0.3333333))((0.3333333 0.3333333 0.3333333)(0.3333333 0.3333333 0.3333333)(0.3333333 0.3333333 0.3333333))((0.3333333 0.3333333 0.3333333)(0.3333333 0.3333333 0.3333333)(0.3333333 0.3333333 0.3333333))))((((0.3333333 0.3333333 0.3333333)(0.3333333 0.3333333 0.3333333)(0.3333333 0.3333333 0.3333333))((0.3333333 0.3333333 0.3333333)(0.3333333 0.3333333 0.3333333)(0.3333333 0.3333333 0.3333333))((0.3333333 0.3333333 0.3333333)(0.3333333 0.3333333 0.3333333)(0.3333333 0.3333333 0.3333333)))(((0.3333333 0.3333333 0.3333333)(0.3333333 0.3333333 0.3333333)(0.3333333 0.3333333 0.3333333))((0.3333333 0.3333333 0.3333333)(0.3333333 0.3333333 0.3333333)(0.3333333 0.3333333 0.3333333))((0.3333333 0.3333333 0.3333333)(0.3333333 0.3333333 0.3333333)(0.3333333 0.3333333 0.3333333)))(((0.3333333 0.3333333 0.3333333)(0.3333333 0.3333333 0.3333333)(0.3333333 0.3333333 0.3333333))((0.3333333 0.3333333 0.3333333)(0.3333333 0.3333333 0.3333333)(0.3333333 0.3333333 0.3333333))((0.3333333 0.3333333 0.3333333)(0.0001371178 0.9997257644 0.0001371178)(0.3333333 0.3333333 0.3333333)))))) ;
}
potential ( Slc39a1 | Atp5b X2810002N01Rik F10 Gm15393 ) 
{
  data = (((((0.9997943022 0.0001028489 0.0001028489)(0.3333333 0.3333333 0.3333333)(0.3333333 0.3333333 0.3333333))((0.3333333 0.3333333 0.3333333)(0.3333333 0.3333333 0.3333333)(0.3333333 0.3333333 0.3333333))((0.3333333 0.3333333 0.3333333)(0.3333333 0.3333333 0.3333333)(0.3333333 0.3333333 0.3333333)))(((0.3333333 0.3333333 0.3333333)(0.3333333 0.3333333 0.3333333)(0.3333333 0.3333333 0.3333333))((0.3333333 0.3333333 0.3333333)(0.0004110152 0.9991779696 0.0004110152)(0.3333333 0.3333333 0.3333333))((0.3333333 0.3333333 0.3333333)(0.3333333 0.3333333 0.3333333)(0.3333333 0.3333333 0.3333333)))(((0.3333333 0.3333333 0.3333333)(0.3333333 0.3333333 0.3333333)(0.3333333 0.3333333 0.3333333))((0.3333333 0.3333333 0.3333333)(0.3333333 0.3333333 0.3333333)(0.3333333 0.3333333 0.3333333))((0.3333333 0.3333333 0.3333333)(0.3333333 0.3333333 0.3333333)(0.3333333 0.3333333 0.3333333))))((((0.3333333 0.3333333 0.3333333)(0.3333333 0.3333333 0.3333333)(0.3333333 0.3333333 0.3333333))((0.3333333 0.3333333 0.3333333)(0.3333333 0.3333333 0.3333333)(0.3333333 0.3333333 0.3333333))((0.3333333 0.3333333 0.3333333)(0.3333333 0.3333333 0.3333333)(0.3333333 0.3333333 0.3333333)))(((0.3333333 0.3333333 0.3333333)(0.3333333 0.3333333 0.3333333)(0.3333333 0.3333333 0.3333333))((0.3333333 0.3333333 0.3333333)(0.3333333 0.3333333 0.3333333)(0.3333333 0.3333333 0.3333333))((0.3333333 0.3333333 0.3333333)(0.3333333 0.3333333 0.3333333)(0.3333333 0.3333333 0.3333333)))(((0.3333333 0.3333333 0.3333333)(0.3333333 0.3333333 0.3333333)(0.3333333 0.3333333 0.3333333))((0.3333333 0.3333333 0.3333333)(0.3333333 0.3333333 0.3333333)(0.3333333 0.3333333 0.3333333))((0.3333333 0.3333333 0.3333333)(0.3333333 0.3333333 0.3333333)(0.3333333 0.3333333 0.3333333))))((((0.3333333 0.3333333 0.3333333)(0.3333333 0.3333333 0.3333333)(0.3333333 0.3333333 0.3333333))((0.3333333 0.3333333 0.3333333)(0.3333333 0.3333333 0.3333333)(0.3333333 0.3333333 0.3333333))((0.3333333 0.3333333 0.3333333)(0.3333333 0.3333333 0.3333333)(0.3333333 0.3333333 0.3333333)))(((0.3333333 0.3333333 0.3333333)(0.3333333 0.3333333 0.3333333)(0.3333333 0.3333333 0.3333333))((0.3333333 0.3333333 0.3333333)(0.3333333 0.3333333 0.3333333)(0.3333333 0.3333333 0.3333333))((0.3333333 0.3333333 0.3333333)(0.3333333 0.3333333 0.3333333)(0.3333333 0.3333333 0.3333333)))(((0.3333333 0.3333333 0.3333333)(0.3333333 0.3333333 0.3333333)(0.3333333 0.3333333 0.3333333))((0.3333333 0.3333333 0.3333333)(0.3333333 0.3333333 0.3333333)(0.3333333 0.3333333 0.3333333))((0.3333333 0.3333333 0.3333333)(0.3333333 0.3333333 0.3333333)(0.0004110152 0.0004110152 0.9991779696))))) ;
}
potential ( Slc39a5 | Slc30a7 Aass Gnmt Mat1a ) 
{
  data = (((((7.998848e-01 8.228421e-05 2.000329e-01)(0.3333333 0.3333333 0.3333333)(0.3333333 0.3333333 0.3333333))((0.3333333 0.3333333 0.3333333)(0.3333333 0.3333333 0.3333333)(0.3333333 0.3333333 0.3333333))((0.3333333 0.3333333 0.3333333)(0.3333333 0.3333333 0.3333333)(0.3333333 0.3333333 0.3333333)))(((0.3333333 0.3333333 0.3333333)(0.3333333 0.3333333 0.3333333)(0.3333333 0.3333333 0.3333333))((0.3333333 0.3333333 0.3333333)(0.3333333 0.3333333 0.3333333)(0.3333333 0.3333333 0.3333333))((0.3333333 0.3333333 0.3333333)(0.3333333 0.3333333 0.3333333)(0.3333333 0.3333333 0.3333333)))(((0.3333333 0.3333333 0.3333333)(0.3333333 0.3333333 0.3333333)(0.3333333 0.3333333 0.3333333))((0.3333333 0.3333333 0.3333333)(0.3333333 0.3333333 0.3333333)(0.3333333 0.3333333 0.3333333))((0.3333333 0.3333333 0.3333333)(0.3333333 0.3333333 0.3333333)(0.3333333 0.3333333 0.3333333))))((((0.3333333 0.3333333 0.3333333)(0.3333333 0.3333333 0.3333333)(0.3333333 0.3333333 0.3333333))((0.3333333 0.3333333 0.3333333)(0.3333333 0.3333333 0.3333333)(0.3333333 0.3333333 0.3333333))((0.3333333 0.3333333 0.3333333)(0.3333333 0.3333333 0.3333333)(0.3333333 0.3333333 0.3333333)))(((0.3333333 0.3333333 0.3333333)(0.3333333 0.3333333 0.3333333)(0.3333333 0.3333333 0.3333333))((0.3333333 0.3333333 0.3333333)(0.3333333 0.3333333 0.3333333)(0.3333333 0.3333333 0.3333333))((0.3333333 0.3333333 0.3333333)(0.3333333 0.3333333 0.3333333)(0.3333333 0.3333333 0.3333333)))(((0.3333333 0.3333333 0.3333333)(0.3333333 0.3333333 0.3333333)(0.3333333 0.3333333 0.3333333))((0.3333333 0.3333333 0.3333333)(0.3333333 0.3333333 0.3333333)(0.3333333 0.3333333 0.3333333))((0.3333333 0.3333333 0.3333333)(0.3333333 0.3333333 0.3333333)(0.3333333 0.3333333 0.3333333))))((((0.3333333 0.3333333 0.3333333)(0.3333333 0.3333333 0.3333333)(0.3333333 0.3333333 0.3333333))((0.3333333 0.3333333 0.3333333)(0.3333333 0.3333333 0.3333333)(0.3333333 0.3333333 0.3333333))((0.3333333 0.3333333 0.3333333)(0.3333333 0.3333333 0.3333333)(0.3333333 0.3333333 0.3333333)))(((0.3333333 0.3333333 0.3333333)(0.3333333 0.3333333 0.3333333)(0.3333333 0.3333333 0.3333333))((0.3333333 0.3333333 0.3333333)(0.3333333 0.3333333 0.3333333)(0.3333333 0.3333333 0.3333333))((0.3333333 0.3333333 0.3333333)(0.3333333 0.3333333 0.3333333)(0.3333333 0.3333333 0.3333333)))(((0.3333333 0.3333333 0.3333333)(0.3333333 0.3333333 0.3333333)(0.3333333 0.3333333 0.3333333))((0.3333333 0.3333333 0.3333333)(0.3333333 0.3333333 0.3333333)(0.3333333 0.3333333 0.3333333))((0.3333333 0.3333333 0.3333333)(0.3333333 0.3333333 0.3333333)(0.0004110152 0.9991779696 0.0004110152))))) ;
}
potential ( Slc39a6 | Mt2 Mt3 X1190003J15Rik Gm5265 ) 
{
  data = (((((0.9997943022 0.0001028489 0.0001028489)(0.3333333 0.3333333 0.3333333)(0.3333333 0.3333333 0.3333333))((0.3333333 0.3333333 0.3333333)(0.3333333 0.3333333 0.3333333)(0.3333333 0.3333333 0.3333333))((0.3333333 0.3333333 0.3333333)(0.3333333 0.3333333 0.3333333)(0.3333333 0.3333333 0.3333333)))(((0.3333333 0.3333333 0.3333333)(0.3333333 0.3333333 0.3333333)(0.3333333 0.3333333 0.3333333))((0.3333333 0.3333333 0.3333333)(0.3333333 0.3333333 0.3333333)(0.3333333 0.3333333 0.3333333))((0.3333333 0.3333333 0.3333333)(0.3333333 0.3333333 0.3333333)(0.3333333 0.3333333 0.3333333)))(((0.0004110152 0.9991779696 0.0004110152)(0.3333333 0.3333333 0.3333333)(0.3333333 0.3333333 0.3333333))((0.3333333 0.3333333 0.3333333)(0.3333333 0.3333333 0.3333333)(0.3333333 0.3333333 0.3333333))((0.3333333 0.3333333 0.3333333)(0.3333333 0.3333333 0.3333333)(0.3333333 0.3333333 0.3333333))))((((0.3333333 0.3333333 0.3333333)(0.3333333 0.3333333 0.3333333)(0.3333333 0.3333333 0.3333333))((0.3333333 0.3333333 0.3333333)(0.3333333 0.3333333 0.3333333)(0.3333333 0.3333333 0.3333333))((0.3333333 0.3333333 0.3333333)(0.3333333 0.3333333 0.3333333)(0.3333333 0.3333333 0.3333333)))(((0.3333333 0.3333333 0.3333333)(0.3333333 0.3333333 0.3333333)(0.3333333 0.3333333 0.3333333))((0.3333333 0.3333333 0.3333333)(0.3333333 0.3333333 0.3333333)(0.3333333 0.3333333 0.3333333))((0.3333333 0.3333333 0.3333333)(0.3333333 0.3333333 0.3333333)(0.3333333 0.3333333 0.3333333)))(((0.3333333 0.3333333 0.3333333)(0.3333333 0.3333333 0.3333333)(0.3333333 0.3333333 0.3333333))((0.3333333 0.3333333 0.3333333)(0.3333333 0.3333333 0.3333333)(0.3333333 0.3333333 0.3333333))((0.3333333 0.3333333 0.3333333)(0.3333333 0.3333333 0.3333333)(0.3333333 0.3333333 0.3333333))))((((0.3333333 0.3333333 0.3333333)(0.3333333 0.3333333 0.3333333)(0.3333333 0.3333333 0.3333333))((0.3333333 0.3333333 0.3333333)(0.3333333 0.3333333 0.3333333)(0.3333333 0.3333333 0.3333333))((0.3333333 0.3333333 0.3333333)(0.3333333 0.3333333 0.3333333)(0.3333333 0.3333333 0.3333333)))(((0.3333333 0.3333333 0.3333333)(0.3333333 0.3333333 0.3333333)(0.3333333 0.3333333 0.3333333))((0.3333333 0.3333333 0.3333333)(0.3333333 0.3333333 0.3333333)(0.3333333 0.3333333 0.3333333))((0.3333333 0.3333333 0.3333333)(0.3333333 0.3333333 0.3333333)(0.3333333 0.3333333 0.3333333)))(((0.3333333 0.3333333 0.3333333)(0.3333333 0.3333333 0.3333333)(0.3333333 0.3333333 0.3333333))((0.3333333 0.3333333 0.3333333)(0.3333333 0.3333333 0.3333333)(0.3333333 0.3333333 0.3333333))((0.3333333 0.3333333 0.3333333)(0.3333333 0.3333333 0.3333333)(0.0004110152 0.0004110152 0.9991779696))))) ;
}
potential ( Slc39a10 | Slc30a4 Aass Ass1 Alas1 Elk1 ) 
{
  data = ((((((9.999314e-01 3.429003e-05 3.429003e-05)(0.3333333 0.3333333 0.3333333)(0.3333333 0.3333333 0.3333333))((0.3333333 0.3333333 0.3333333)(0.3333333 0.3333333 0.3333333)(0.3333333 0.3333333 0.3333333))((0.3333333 0.3333333 0.3333333)(0.3333333 0.3333333 0.3333333)(0.3333333 0.3333333 0.3333333)))(((0.3333333 0.3333333 0.3333333)(0.3333333 0.3333333 0.3333333)(0.3333333 0.3333333 0.3333333))((0.3333333 0.3333333 0.3333333)(0.3333333 0.3333333 0.3333333)(0.3333333 0.3333333 0.3333333))((0.3333333 0.3333333 0.3333333)(0.3333333 0.3333333 0.3333333)(0.3333333 0.3333333 0.3333333)))(((0.3333333 0.3333333 0.3333333)(0.3333333 0.3333333 0.3333333)(0.3333333 0.3333333 0.3333333))((0.3333333 0.3333333 0.3333333)(0.3333333 0.3333333 0.3333333)(0.3333333 0.3333333 0.3333333))((0.3333333 0.3333333 0.3333333)(0.3333333 0.3333333 0.3333333)(0.3333333 0.3333333 0.3333333))))((((0.3333333 0.3333333 0.3333333)(0.3333333 0.3333333 0.3333333)(0.3333333 0.3333333 0.3333333))((0.3333333 0.3333333 0.3333333)(0.3333333 0.3333333 0.3333333)(0.3333333 0.3333333 0.3333333))((0.3333333 0.3333333 0.3333333)(0.3333333 0.3333333 0.3333333)(0.3333333 0.3333333 0.3333333)))(((0.3333333 0.3333333 0.3333333)(0.3333333 0.3333333 0.3333333)(0.3333333 0.3333333 0.3333333))((0.3333333 0.3333333 0.3333333)(0.3333333 0.3333333 0.3333333)(0.3333333 0.3333333 0.3333333))((0.3333333 0.3333333 0.3333333)(0.3333333 0.3333333 0.3333333)(0.3333333 0.3333333 0.3333333)))(((0.3333333 0.3333333 0.3333333)(0.3333333 0.3333333 0.3333333)(0.3333333 0.3333333 0.3333333))((0.3333333 0.3333333 0.3333333)(0.3333333 0.3333333 0.3333333)(0.3333333 0.3333333 0.3333333))((0.3333333 0.3333333 0.3333333)(0.3333333 0.3333333 0.3333333)(0.3333333 0.3333333 0.3333333))))((((0.3333333 0.3333333 0.3333333)(0.3333333 0.3333333 0.3333333)(0.3333333 0.3333333 0.3333333))((0.3333333 0.3333333 0.3333333)(0.3333333 0.3333333 0.3333333)(0.3333333 0.3333333 0.3333333))((0.3333333 0.3333333 0.3333333)(0.3333333 0.3333333 0.3333333)(0.3333333 0.3333333 0.3333333)))(((0.3333333 0.3333333 0.3333333)(0.3333333 0.3333333 0.3333333)(0.3333333 0.3333333 0.3333333))((0.3333333 0.3333333 0.3333333)(0.3333333 0.3333333 0.3333333)(0.3333333 0.3333333 0.3333333))((0.3333333 0.3333333 0.3333333)(0.3333333 0.3333333 0.3333333)(0.3333333 0.3333333 0.3333333)))(((0.3333333 0.3333333 0.3333333)(0.3333333 0.3333333 0.3333333)(0.3333333 0.3333333 0.3333333))((0.3333333 0.3333333 0.3333333)(0.3333333 0.3333333 0.3333333)(0.3333333 0.3333333 0.3333333))((0.3333333 0.3333333 0.3333333)(0.3333333 0.3333333 0.3333333)(0.3333333 0.3333333 0.3333333)))))(((((0.0001371178 0.9997257644 0.0001371178)(0.3333333 0.3333333 0.3333333)(0.3333333 0.3333333 0.3333333))((0.3333333 0.3333333 0.3333333)(0.3333333 0.3333333 0.3333333)(0.3333333 0.3333333 0.3333333))((0.3333333 0.3333333 0.3333333)(0.3333333 0.3333333 0.3333333)(0.3333333 0.3333333 0.3333333)))(((0.3333333 0.3333333 0.3333333)(0.3333333 0.3333333 0.3333333)(0.3333333 0.3333333 0.3333333))((0.3333333 0.3333333 0.3333333)(0.3333333 0.3333333 0.3333333)(0.3333333 0.3333333 0.3333333))((0.3333333 0.3333333 0.3333333)(0.3333333 0.3333333 0.3333333)(0.3333333 0.3333333 0.3333333)))(((0.3333333 0.3333333 0.3333333)(0.3333333 0.3333333 0.3333333)(0.3333333 0.3333333 0.3333333))((0.3333333 0.3333333 0.3333333)(0.3333333 0.3333333 0.3333333)(0.3333333 0.3333333 0.3333333))((0.3333333 0.3333333 0.3333333)(0.3333333 0.3333333 0.3333333)(0.3333333 0.3333333 0.3333333))))((((0.3333333 0.3333333 0.3333333)(0.3333333 0.3333333 0.3333333)(0.3333333 0.3333333 0.3333333))((0.3333333 0.3333333 0.3333333)(0.3333333 0.3333333 0.3333333)(0.3333333 0.3333333 0.3333333))((0.3333333 0.3333333 0.3333333)(0.3333333 0.3333333 0.3333333)(0.3333333 0.3333333 0.3333333)))(((0.3333333 0.3333333 0.3333333)(0.3333333 0.3333333 0.3333333)(0.3333333 0.3333333 0.3333333))((0.3333333 0.3333333 0.3333333)(0.3333333 0.3333333 0.3333333)(0.3333333 0.3333333 0.3333333))((0.3333333 0.3333333 0.3333333)(0.3333333 0.3333333 0.3333333)(0.3333333 0.3333333 0.3333333)))(((0.3333333 0.3333333 0.3333333)(0.3333333 0.3333333 0.3333333)(0.3333333 0.3333333 0.3333333))((0.3333333 0.3333333 0.3333333)(0.3333333 0.3333333 0.3333333)(0.3333333 0.3333333 0.3333333))((0.3333333 0.3333333 0.3333333)(0.3333333 0.3333333 0.3333333)(0.3333333 0.3333333 0.3333333))))((((0.3333333 0.3333333 0.3333333)(0.3333333 0.3333333 0.3333333)(0.3333333 0.3333333 0.3333333))((0.3333333 0.3333333 0.3333333)(0.3333333 0.3333333 0.3333333)(0.3333333 0.3333333 0.3333333))((0.3333333 0.3333333 0.3333333)(0.3333333 0.3333333 0.3333333)(0.3333333 0.3333333 0.3333333)))(((0.3333333 0.3333333 0.3333333)(0.3333333 0.3333333 0.3333333)(0.3333333 0.3333333 0.3333333))((0.3333333 0.3333333 0.3333333)(0.3333333 0.3333333 0.3333333)(0.3333333 0.3333333 0.3333333))((0.3333333 0.3333333 0.3333333)(0.3333333 0.3333333 0.3333333)(0.3333333 0.3333333 0.3333333)))(((0.3333333 0.3333333 0.3333333)(0.3333333 0.3333333 0.3333333)(0.3333333 0.3333333 0.3333333))((0.3333333 0.3333333 0.3333333)(0.3333333 0.3333333 0.3333333)(0.3333333 0.3333333 0.3333333))((0.3333333 0.3333333 0.3333333)(0.3333333 0.3333333 0.3333333)(0.3333333 0.3333333 0.3333333)))))(((((0.3333333 0.3333333 0.3333333)(0.3333333 0.3333333 0.3333333)(0.3333333 0.3333333 0.3333333))((0.3333333 0.3333333 0.3333333)(0.3333333 0.3333333 0.3333333)(0.3333333 0.3333333 0.3333333))((0.3333333 0.3333333 0.3333333)(0.3333333 0.3333333 0.3333333)(0.3333333 0.3333333 0.3333333)))(((0.3333333 0.3333333 0.3333333)(0.3333333 0.3333333 0.3333333)(0.3333333 0.3333333 0.3333333))((0.3333333 0.3333333 0.3333333)(0.3333333 0.3333333 0.3333333)(0.3333333 0.3333333 0.3333333))((0.3333333 0.3333333 0.3333333)(0.3333333 0.3333333 0.3333333)(0.3333333 0.3333333 0.3333333)))(((0.3333333 0.3333333 0.3333333)(0.3333333 0.3333333 0.3333333)(0.3333333 0.3333333 0.3333333))((0.3333333 0.3333333 0.3333333)(0.3333333 0.3333333 0.3333333)(0.3333333 0.3333333 0.3333333))((0.3333333 0.3333333 0.3333333)(0.3333333 0.3333333 0.3333333)(0.3333333 0.3333333 0.3333333))))((((0.3333333 0.3333333 0.3333333)(0.3333333 0.3333333 0.3333333)(0.3333333 0.3333333 0.3333333))((0.3333333 0.3333333 0.3333333)(0.3333333 0.3333333 0.3333333)(0.3333333 0.3333333 0.3333333))((0.3333333 0.3333333 0.3333333)(0.3333333 0.3333333 0.3333333)(0.3333333 0.3333333 0.3333333)))(((0.3333333 0.3333333 0.3333333)(0.3333333 0.3333333 0.3333333)(0.3333333 0.3333333 0.3333333))((0.3333333 0.3333333 0.3333333)(0.3333333 0.3333333 0.3333333)(0.3333333 0.3333333 0.3333333))((0.3333333 0.3333333 0.3333333)(0.3333333 0.3333333 0.3333333)(0.3333333 0.3333333 0.3333333)))(((0.3333333 0.3333333 0.3333333)(0.3333333 0.3333333 0.3333333)(0.3333333 0.3333333 0.3333333))((0.3333333 0.3333333 0.3333333)(0.3333333 0.3333333 0.3333333)(0.3333333 0.3333333 0.3333333))((0.3333333 0.3333333 0.3333333)(0.3333333 0.3333333 0.3333333)(0.3333333 0.3333333 0.3333333))))((((0.3333333 0.3333333 0.3333333)(0.3333333 0.3333333 0.3333333)(0.3333333 0.3333333 0.3333333))((0.3333333 0.3333333 0.3333333)(0.3333333 0.3333333 0.3333333)(0.3333333 0.3333333 0.3333333))((0.3333333 0.3333333 0.3333333)(0.3333333 0.3333333 0.3333333)(0.3333333 0.3333333 0.3333333)))(((0.3333333 0.3333333 0.3333333)(0.3333333 0.3333333 0.3333333)(0.3333333 0.3333333 0.3333333))((0.3333333 0.3333333 0.3333333)(0.3333333 0.3333333 0.3333333)(0.3333333 0.3333333 0.3333333))((0.3333333 0.3333333 0.3333333)(0.3333333 0.3333333 0.3333333)(0.3333333 0.3333333 0.3333333)))(((0.3333333 0.3333333 0.3333333)(0.3333333 0.3333333 0.3333333)(0.3333333 0.3333333 0.3333333))((0.3333333 0.3333333 0.3333333)(0.3333333 0.3333333 0.3333333)(0.3333333 0.3333333 0.3333333))((0.3333333 0.3333333 0.3333333)(0.3333333 0.3333333 0.3333333)(0.0001371178 0.0001371178 0.9997257644)))))) ;
}
potential ( Mcoln1 | Aadac Mup3 Gm5265 Gsta2 ) 
{
  data = (((((0.9997943022 0.0001028489 0.0001028489)(0.3333333 0.3333333 0.3333333)(0.3333333 0.3333333 0.3333333))((0.3333333 0.3333333 0.3333333)(0.3333333 0.3333333 0.3333333)(0.3333333 0.3333333 0.3333333))((0.3333333 0.3333333 0.3333333)(0.3333333 0.3333333 0.3333333)(0.3333333 0.3333333 0.3333333)))(((0.3333333 0.3333333 0.3333333)(0.3333333 0.3333333 0.3333333)(0.3333333 0.3333333 0.3333333))((0.3333333 0.3333333 0.3333333)(0.3333333 0.3333333 0.3333333)(0.3333333 0.3333333 0.3333333))((0.3333333 0.3333333 0.3333333)(0.3333333 0.3333333 0.3333333)(0.3333333 0.3333333 0.3333333)))(((0.3333333 0.3333333 0.3333333)(0.3333333 0.3333333 0.3333333)(0.3333333 0.3333333 0.3333333))((0.3333333 0.3333333 0.3333333)(0.3333333 0.3333333 0.3333333)(0.3333333 0.3333333 0.3333333))((0.3333333 0.3333333 0.3333333)(0.3333333 0.3333333 0.3333333)(0.3333333 0.3333333 0.3333333))))((((0.3333333 0.3333333 0.3333333)(0.3333333 0.3333333 0.3333333)(0.0004110152 0.9991779696 0.0004110152))((0.3333333 0.3333333 0.3333333)(0.3333333 0.3333333 0.3333333)(0.3333333 0.3333333 0.3333333))((0.3333333 0.3333333 0.3333333)(0.3333333 0.3333333 0.3333333)(0.3333333 0.3333333 0.3333333)))(((0.3333333 0.3333333 0.3333333)(0.3333333 0.3333333 0.3333333)(0.3333333 0.3333333 0.3333333))((0.3333333 0.3333333 0.3333333)(0.3333333 0.3333333 0.3333333)(0.3333333 0.3333333 0.3333333))((0.3333333 0.3333333 0.3333333)(0.3333333 0.3333333 0.3333333)(0.3333333 0.3333333 0.3333333)))(((0.3333333 0.3333333 0.3333333)(0.3333333 0.3333333 0.3333333)(0.3333333 0.3333333 0.3333333))((0.3333333 0.3333333 0.3333333)(0.3333333 0.3333333 0.3333333)(0.3333333 0.3333333 0.3333333))((0.3333333 0.3333333 0.3333333)(0.3333333 0.3333333 0.3333333)(0.3333333 0.3333333 0.3333333))))((((0.3333333 0.3333333 0.3333333)(0.3333333 0.3333333 0.3333333)(0.3333333 0.3333333 0.3333333))((0.3333333 0.3333333 0.3333333)(0.3333333 0.3333333 0.3333333)(0.3333333 0.3333333 0.3333333))((0.3333333 0.3333333 0.3333333)(0.3333333 0.3333333 0.3333333)(0.3333333 0.3333333 0.3333333)))(((0.3333333 0.3333333 0.3333333)(0.3333333 0.3333333 0.3333333)(0.3333333 0.3333333 0.3333333))((0.3333333 0.3333333 0.3333333)(0.3333333 0.3333333 0.3333333)(0.3333333 0.3333333 0.3333333))((0.3333333 0.3333333 0.3333333)(0.3333333 0.3333333 0.3333333)(0.3333333 0.3333333 0.3333333)))(((0.3333333 0.3333333 0.3333333)(0.3333333 0.3333333 0.3333333)(0.3333333 0.3333333 0.3333333))((0.3333333 0.3333333 0.3333333)(0.3333333 0.3333333 0.3333333)(0.3333333 0.3333333 0.3333333))((0.3333333 0.3333333 0.3333333)(0.0004110152 0.0004110152 0.9991779696)(0.3333333 0.3333333 0.3333333))))) ;
}
potential ( Zkscan3 | Slc39a10 Sepp1 Chchd10 Cyp3a11 ) 
{
  data = (((((0.9997257644 0.0001371178 0.0001371178)(0.3333333 0.3333333 0.3333333)(0.0004110152 0.9991779696 0.0004110152))((0.3333333 0.3333333 0.3333333)(0.3333333 0.3333333 0.3333333)(0.3333333 0.3333333 0.3333333))((0.3333333 0.3333333 0.3333333)(0.3333333 0.3333333 0.3333333)(0.3333333 0.3333333 0.3333333)))(((0.3333333 0.3333333 0.3333333)(0.3333333 0.3333333 0.3333333)(0.3333333 0.3333333 0.3333333))((0.3333333 0.3333333 0.3333333)(0.3333333 0.3333333 0.3333333)(0.3333333 0.3333333 0.3333333))((0.3333333 0.3333333 0.3333333)(0.3333333 0.3333333 0.3333333)(0.3333333 0.3333333 0.3333333)))(((0.3333333 0.3333333 0.3333333)(0.3333333 0.3333333 0.3333333)(0.3333333 0.3333333 0.3333333))((0.3333333 0.3333333 0.3333333)(0.3333333 0.3333333 0.3333333)(0.3333333 0.3333333 0.3333333))((0.3333333 0.3333333 0.3333333)(0.3333333 0.3333333 0.3333333)(0.3333333 0.3333333 0.3333333))))((((0.3333333 0.3333333 0.3333333)(0.3333333 0.3333333 0.3333333)(0.3333333 0.3333333 0.3333333))((0.0004110152 0.0004110152 0.9991779696)(0.3333333 0.3333333 0.3333333)(0.3333333 0.3333333 0.3333333))((0.3333333 0.3333333 0.3333333)(0.3333333 0.3333333 0.3333333)(0.3333333 0.3333333 0.3333333)))(((0.3333333 0.3333333 0.3333333)(0.3333333 0.3333333 0.3333333)(0.3333333 0.3333333 0.3333333))((0.3333333 0.3333333 0.3333333)(0.3333333 0.3333333 0.3333333)(0.3333333 0.3333333 0.3333333))((0.3333333 0.3333333 0.3333333)(0.3333333 0.3333333 0.3333333)(0.3333333 0.3333333 0.3333333)))(((0.3333333 0.3333333 0.3333333)(0.3333333 0.3333333 0.3333333)(0.3333333 0.3333333 0.3333333))((0.3333333 0.3333333 0.3333333)(0.3333333 0.3333333 0.3333333)(0.3333333 0.3333333 0.3333333))((0.3333333 0.3333333 0.3333333)(0.3333333 0.3333333 0.3333333)(0.3333333 0.3333333 0.3333333))))((((0.3333333 0.3333333 0.3333333)(0.3333333 0.3333333 0.3333333)(0.3333333 0.3333333 0.3333333))((0.3333333 0.3333333 0.3333333)(0.3333333 0.3333333 0.3333333)(0.3333333 0.3333333 0.3333333))((0.3333333 0.3333333 0.3333333)(0.3333333 0.3333333 0.3333333)(0.3333333 0.3333333 0.3333333)))(((0.3333333 0.3333333 0.3333333)(0.3333333 0.3333333 0.3333333)(0.3333333 0.3333333 0.3333333))((0.3333333 0.3333333 0.3333333)(0.3333333 0.3333333 0.3333333)(0.3333333 0.3333333 0.3333333))((0.3333333 0.3333333 0.3333333)(0.3333333 0.3333333 0.3333333)(0.3333333 0.3333333 0.3333333)))(((0.3333333 0.3333333 0.3333333)(0.3333333 0.3333333 0.3333333)(0.3333333 0.3333333 0.3333333))((0.3333333 0.3333333 0.3333333)(0.3333333 0.3333333 0.3333333)(0.3333333 0.3333333 0.3333333))((0.3333333 0.3333333 0.3333333)(0.3333333 0.3333333 0.3333333)(0.9991779696 0.0004110152 0.0004110152))))) ;
}
potential ( Mtf1 | Slc30a7 Slc27a5 Gm5265 ) 
{
  data = ((((0.7996545769 0.2000986923 0.0002467308)(0.3333333 0.3333333 0.3333333)(0.3333333 0.3333333 0.3333333))((0.3333333 0.3333333 0.3333333)(0.3333333 0.3333333 0.3333333)(0.3333333 0.3333333 0.3333333))((0.3333333 0.3333333 0.3333333)(0.3333333 0.3333333 0.3333333)(0.3333333 0.3333333 0.3333333)))(((0.3333333 0.3333333 0.3333333)(0.3333333 0.3333333 0.3333333)(0.3333333 0.3333333 0.3333333))((0.3333333 0.3333333 0.3333333)(0.3333333 0.3333333 0.3333333)(0.3333333 0.3333333 0.3333333))((0.3333333 0.3333333 0.3333333)(0.3333333 0.3333333 0.3333333)(0.3333333 0.3333333 0.3333333)))(((0.3333333 0.3333333 0.3333333)(0.3333333 0.3333333 0.3333333)(0.3333333 0.3333333 0.3333333))((0.3333333 0.3333333 0.3333333)(0.3333333 0.3333333 0.3333333)(0.3333333 0.3333333 0.3333333))((0.3333333 0.3333333 0.3333333)(0.3333333 0.3333333 0.3333333)(0.001230012 0.001230012 0.997539975)))) ;
}
potential ( Mt3 | Uba52 Serpina3k Cyp2c67 ) 
{
  data = ((((0.7996545769 0.0002467308 0.2000986923)(0.3333333 0.3333333 0.3333333)(0.3333333 0.3333333 0.3333333))((0.3333333 0.3333333 0.3333333)(0.3333333 0.3333333 0.3333333)(0.3333333 0.3333333 0.3333333))((0.3333333 0.3333333 0.3333333)(0.3333333 0.3333333 0.3333333)(0.3333333 0.3333333 0.3333333)))(((0.3333333 0.3333333 0.3333333)(0.3333333 0.3333333 0.3333333)(0.3333333 0.3333333 0.3333333))((0.3333333 0.3333333 0.3333333)(0.3333333 0.3333333 0.3333333)(0.3333333 0.3333333 0.3333333))((0.3333333 0.3333333 0.3333333)(0.3333333 0.3333333 0.3333333)(0.3333333 0.3333333 0.3333333)))(((0.3333333 0.3333333 0.3333333)(0.3333333 0.3333333 0.3333333)(0.3333333 0.3333333 0.3333333))((0.3333333 0.3333333 0.3333333)(0.3333333 0.3333333 0.3333333)(0.3333333 0.3333333 0.3333333))((0.3333333 0.3333333 0.3333333)(0.3333333 0.3333333 0.3333333)(0.001230012 0.001230012 0.997539975)))) ;
}
potential ( Slc30a4 | Mtf1 Aass Cyp2c67 Chchd10 ) 
{
  data = (((((0.9997943022 0.0001028489 0.0001028489)(0.3333333 0.3333333 0.3333333)(0.3333333 0.3333333 0.3333333))((0.3333333 0.3333333 0.3333333)(0.3333333 0.3333333 0.3333333)(0.3333333 0.3333333 0.3333333))((0.3333333 0.3333333 0.3333333)(0.3333333 0.3333333 0.3333333)(0.3333333 0.3333333 0.3333333)))(((0.3333333 0.3333333 0.3333333)(0.3333333 0.3333333 0.3333333)(0.3333333 0.3333333 0.3333333))((0.3333333 0.3333333 0.3333333)(0.3333333 0.3333333 0.3333333)(0.3333333 0.3333333 0.3333333))((0.3333333 0.3333333 0.3333333)(0.3333333 0.3333333 0.3333333)(0.3333333 0.3333333 0.3333333)))(((0.3333333 0.3333333 0.3333333)(0.3333333 0.3333333 0.3333333)(0.3333333 0.3333333 0.3333333))((0.3333333 0.3333333 0.3333333)(0.3333333 0.3333333 0.3333333)(0.3333333 0.3333333 0.3333333))((0.3333333 0.3333333 0.3333333)(0.3333333 0.3333333 0.3333333)(0.3333333 0.3333333 0.3333333))))((((0.3333333 0.3333333 0.3333333)(0.0004110152 0.9991779696 0.0004110152)(0.3333333 0.3333333 0.3333333))((0.3333333 0.3333333 0.3333333)(0.3333333 0.3333333 0.3333333)(0.3333333 0.3333333 0.3333333))((0.3333333 0.3333333 0.3333333)(0.3333333 0.3333333 0.3333333)(0.3333333 0.3333333 0.3333333)))(((0.3333333 0.3333333 0.3333333)(0.3333333 0.3333333 0.3333333)(0.3333333 0.3333333 0.3333333))((0.3333333 0.3333333 0.3333333)(0.3333333 0.3333333 0.3333333)(0.3333333 0.3333333 0.3333333))((0.3333333 0.3333333 0.3333333)(0.3333333 0.3333333 0.3333333)(0.3333333 0.3333333 0.3333333)))(((0.3333333 0.3333333 0.3333333)(0.3333333 0.3333333 0.3333333)(0.3333333 0.3333333 0.3333333))((0.3333333 0.3333333 0.3333333)(0.3333333 0.3333333 0.3333333)(0.3333333 0.3333333 0.3333333))((0.3333333 0.3333333 0.3333333)(0.3333333 0.3333333 0.3333333)(0.3333333 0.3333333 0.3333333))))((((0.3333333 0.3333333 0.3333333)(0.3333333 0.3333333 0.3333333)(0.3333333 0.3333333 0.3333333))((0.3333333 0.3333333 0.3333333)(0.3333333 0.3333333 0.3333333)(0.3333333 0.3333333 0.3333333))((0.3333333 0.3333333 0.3333333)(0.3333333 0.3333333 0.3333333)(0.3333333 0.3333333 0.3333333)))(((0.3333333 0.3333333 0.3333333)(0.3333333 0.3333333 0.3333333)(0.3333333 0.3333333 0.3333333))((0.3333333 0.3333333 0.3333333)(0.3333333 0.3333333 0.3333333)(0.3333333 0.3333333 0.3333333))((0.3333333 0.3333333 0.3333333)(0.3333333 0.3333333 0.3333333)(0.3333333 0.3333333 0.3333333)))(((0.3333333 0.3333333 0.3333333)(0.3333333 0.3333333 0.3333333)(0.3333333 0.3333333 0.3333333))((0.3333333 0.3333333 0.3333333)(0.3333333 0.3333333 0.3333333)(0.3333333 0.3333333 0.3333333))((0.3333333 0.3333333 0.3333333)(0.3333333 0.3333333 0.3333333)(0.0004110152 0.0004110152 0.9991779696))))) ;
}
potential ( Slc30a5 | Slc30a4 Gnmt X2810002N01Rik Cyp2e1 ) 
{
  data = (((((0.9997257644 0.0001371178 0.0001371178)(0.3333333 0.3333333 0.3333333)(0.3333333 0.3333333 0.3333333))((0.3333333 0.3333333 0.3333333)(0.0004110152 0.9991779696 0.0004110152)(0.3333333 0.3333333 0.3333333))((0.3333333 0.3333333 0.3333333)(0.3333333 0.3333333 0.3333333)(0.3333333 0.3333333 0.3333333)))(((0.3333333 0.3333333 0.3333333)(0.3333333 0.3333333 0.3333333)(0.3333333 0.3333333 0.3333333))((0.3333333 0.3333333 0.3333333)(0.3333333 0.3333333 0.3333333)(0.3333333 0.3333333 0.3333333))((0.3333333 0.3333333 0.3333333)(0.3333333 0.3333333 0.3333333)(0.3333333 0.3333333 0.3333333)))(((0.3333333 0.3333333 0.3333333)(0.3333333 0.3333333 0.3333333)(0.3333333 0.3333333 0.3333333))((0.3333333 0.3333333 0.3333333)(0.3333333 0.3333333 0.3333333)(0.3333333 0.3333333 0.3333333))((0.3333333 0.3333333 0.3333333)(0.3333333 0.3333333 0.3333333)(0.3333333 0.3333333 0.3333333))))((((0.0004110152 0.0004110152 0.9991779696)(0.3333333 0.3333333 0.3333333)(0.3333333 0.3333333 0.3333333))((0.3333333 0.3333333 0.3333333)(0.3333333 0.3333333 0.3333333)(0.3333333 0.3333333 0.3333333))((0.3333333 0.3333333 0.3333333)(0.3333333 0.3333333 0.3333333)(0.3333333 0.3333333 0.3333333)))(((0.3333333 0.3333333 0.3333333)(0.3333333 0.3333333 0.3333333)(0.3333333 0.3333333 0.3333333))((0.3333333 0.3333333 0.3333333)(0.3333333 0.3333333 0.3333333)(0.3333333 0.3333333 0.3333333))((0.3333333 0.3333333 0.3333333)(0.3333333 0.3333333 0.3333333)(0.3333333 0.3333333 0.3333333)))(((0.3333333 0.3333333 0.3333333)(0.3333333 0.3333333 0.3333333)(0.3333333 0.3333333 0.3333333))((0.3333333 0.3333333 0.3333333)(0.3333333 0.3333333 0.3333333)(0.3333333 0.3333333 0.3333333))((0.3333333 0.3333333 0.3333333)(0.3333333 0.3333333 0.3333333)(0.3333333 0.3333333 0.3333333))))((((0.3333333 0.3333333 0.3333333)(0.3333333 0.3333333 0.3333333)(0.3333333 0.3333333 0.3333333))((0.3333333 0.3333333 0.3333333)(0.3333333 0.3333333 0.3333333)(0.3333333 0.3333333 0.3333333))((0.3333333 0.3333333 0.3333333)(0.3333333 0.3333333 0.3333333)(0.3333333 0.3333333 0.3333333)))(((0.3333333 0.3333333 0.3333333)(0.3333333 0.3333333 0.3333333)(0.3333333 0.3333333 0.3333333))((0.3333333 0.3333333 0.3333333)(0.3333333 0.3333333 0.3333333)(0.3333333 0.3333333 0.3333333))((0.3333333 0.3333333 0.3333333)(0.3333333 0.3333333 0.3333333)(0.3333333 0.3333333 0.3333333)))(((0.3333333 0.3333333 0.3333333)(0.3333333 0.3333333 0.3333333)(0.3333333 0.3333333 0.3333333))((0.3333333 0.3333333 0.3333333)(0.3333333 0.3333333 0.3333333)(0.3333333 0.3333333 0.3333333))((0.3333333 0.3333333 0.3333333)(0.3333333 0.3333333 0.3333333)(0.0004110152 0.0004110152 0.9991779696))))) ;
}
potential ( Slc39a9 | Got1 ) 
{
  data = ((0.498622590 0.498622590 0.002754821)(0.3333333 0.3333333 0.3333333)(0.005464481 0.005464481 0.989071038)) ;
}
potential ( Slc39a13 | Zkscan3 ) 
{
  data = ((0.994490358 0.002754821 0.002754821)(0.01075269 0.97849462 0.01075269)(0.01075269 0.01075269 0.97849462)) ;
}
potential ( Acaa1a | Mt2 Slc39a14 Cyp2c67 ) 
{
  data = ((((0.9995065384 0.0002467308 0.0002467308)(0.3333333 0.3333333 0.3333333)(0.3333333 0.3333333 0.3333333))((0.3333333 0.3333333 0.3333333)(0.3333333 0.3333333 0.3333333)(0.3333333 0.3333333 0.3333333))((0.3333333 0.3333333 0.3333333)(0.3333333 0.3333333 0.3333333)(0.3333333 0.3333333 0.3333333)))(((0.3333333 0.3333333 0.3333333)(0.3333333 0.3333333 0.3333333)(0.3333333 0.3333333 0.3333333))((0.3333333 0.3333333 0.3333333)(0.3333333 0.3333333 0.3333333)(0.3333333 0.3333333 0.3333333))((0.3333333 0.3333333 0.3333333)(0.3333333 0.3333333 0.3333333)(0.3333333 0.3333333 0.3333333)))(((0.3333333 0.3333333 0.3333333)(0.3333333 0.3333333 0.3333333)(0.3333333 0.3333333 0.3333333))((0.3333333 0.3333333 0.3333333)(0.3333333 0.3333333 0.3333333)(0.3333333 0.3333333 0.3333333))((0.3333333 0.3333333 0.3333333)(0.3333333 0.3333333 0.3333333)(0.001230012 0.001230012 0.997539975)))) ;
}
potential ( Cpamd8 | Mt2 Uba52 Hnf4a ) 
{
  data = ((((0.9995065384 0.0002467308 0.0002467308)(0.3333333 0.3333333 0.3333333)(0.3333333 0.3333333 0.3333333))((0.3333333 0.3333333 0.3333333)(0.3333333 0.3333333 0.3333333)(0.3333333 0.3333333 0.3333333))((0.3333333 0.3333333 0.3333333)(0.3333333 0.3333333 0.3333333)(0.3333333 0.3333333 0.3333333)))(((0.3333333 0.3333333 0.3333333)(0.3333333 0.3333333 0.3333333)(0.3333333 0.3333333 0.3333333))((0.3333333 0.3333333 0.3333333)(0.3333333 0.3333333 0.3333333)(0.3333333 0.3333333 0.3333333))((0.3333333 0.3333333 0.3333333)(0.3333333 0.3333333 0.3333333)(0.3333333 0.3333333 0.3333333)))(((0.3333333 0.3333333 0.3333333)(0.3333333 0.3333333 0.3333333)(0.3333333 0.3333333 0.3333333))((0.3333333 0.3333333 0.3333333)(0.3333333 0.3333333 0.3333333)(0.3333333 0.3333333 0.3333333))((0.3333333 0.3333333 0.3333333)(0.3333333 0.3333333 0.3333333)(0.001230012 0.001230012 0.997539975)))) ;
}
potential ( Slc27a5 | Mt2 Slc39a14 Uba52 Aass Tat ) 
{
  data = ((((((9.999451e-01 2.743258e-05 2.743258e-05)(0.3333333 0.3333333 0.3333333)(0.3333333 0.3333333 0.3333333))((0.3333333 0.3333333 0.3333333)(0.3333333 0.3333333 0.3333333)(0.3333333 0.3333333 0.3333333))((0.3333333 0.3333333 0.3333333)(0.3333333 0.3333333 0.3333333)(0.3333333 0.3333333 0.3333333)))(((0.3333333 0.3333333 0.3333333)(0.3333333 0.3333333 0.3333333)(0.3333333 0.3333333 0.3333333))((0.3333333 0.3333333 0.3333333)(0.3333333 0.3333333 0.3333333)(0.3333333 0.3333333 0.3333333))((0.3333333 0.3333333 0.3333333)(0.3333333 0.3333333 0.3333333)(0.3333333 0.3333333 0.3333333)))(((0.3333333 0.3333333 0.3333333)(0.3333333 0.3333333 0.3333333)(0.3333333 0.3333333 0.3333333))((0.3333333 0.3333333 0.3333333)(0.3333333 0.3333333 0.3333333)(0.3333333 0.3333333 0.3333333))((0.3333333 0.3333333 0.3333333)(0.3333333 0.3333333 0.3333333)(0.3333333 0.3333333 0.3333333))))((((0.3333333 0.3333333 0.3333333)(0.3333333 0.3333333 0.3333333)(0.3333333 0.3333333 0.3333333))((0.3333333 0.3333333 0.3333333)(0.3333333 0.3333333 0.3333333)(0.3333333 0.3333333 0.3333333))((0.3333333 0.3333333 0.3333333)(0.3333333 0.3333333 0.3333333)(0.3333333 0.3333333 0.3333333)))(((0.3333333 0.3333333 0.3333333)(0.3333333 0.3333333 0.3333333)(0.3333333 0.3333333 0.3333333))((0.3333333 0.3333333 0.3333333)(0.3333333 0.3333333 0.3333333)(0.3333333 0.3333333 0.3333333))((0.3333333 0.3333333 0.3333333)(0.3333333 0.3333333 0.3333333)(0.3333333 0.3333333 0.3333333)))(((0.3333333 0.3333333 0.3333333)(0.3333333 0.3333333 0.3333333)(0.3333333 0.3333333 0.3333333))((0.3333333 0.3333333 0.3333333)(0.3333333 0.3333333 0.3333333)(0.3333333 0.3333333 0.3333333))((0.3333333 0.3333333 0.3333333)(0.3333333 0.3333333 0.3333333)(0.3333333 0.3333333 0.3333333))))((((0.3333333 0.3333333 0.3333333)(0.3333333 0.3333333 0.3333333)(0.3333333 0.3333333 0.3333333))((0.3333333 0.3333333 0.3333333)(0.3333333 0.3333333 0.3333333)(0.3333333 0.3333333 0.3333333))((0.3333333 0.3333333 0.3333333)(0.3333333 0.3333333 0.3333333)(0.3333333 0.3333333 0.3333333)))(((0.3333333 0.3333333 0.3333333)(0.3333333 0.3333333 0.3333333)(0.3333333 0.3333333 0.3333333))((0.3333333 0.3333333 0.3333333)(0.3333333 0.3333333 0.3333333)(0.3333333 0.3333333 0.3333333))((0.3333333 0.3333333 0.3333333)(0.3333333 0.3333333 0.3333333)(0.3333333 0.3333333 0.3333333)))(((0.3333333 0.3333333 0.3333333)(0.3333333 0.3333333 0.3333333)(0.3333333 0.3333333 0.3333333))((0.3333333 0.3333333 0.3333333)(0.3333333 0.3333333 0.3333333)(0.3333333 0.3333333 0.3333333))((0.3333333 0.3333333 0.3333333)(0.3333333 0.3333333 0.3333333)(0.3333333 0.3333333 0.3333333)))))(((((0.3333333 0.3333333 0.3333333)(0.3333333 0.3333333 0.3333333)(0.3333333 0.3333333 0.3333333))((0.3333333 0.3333333 0.3333333)(0.3333333 0.3333333 0.3333333)(0.3333333 0.3333333 0.3333333))((0.3333333 0.3333333 0.3333333)(0.3333333 0.3333333 0.3333333)(0.3333333 0.3333333 0.3333333)))(((0.3333333 0.3333333 0.3333333)(0.3333333 0.3333333 0.3333333)(0.3333333 0.3333333 0.3333333))((0.3333333 0.3333333 0.3333333)(0.3333333 0.3333333 0.3333333)(0.3333333 0.3333333 0.3333333))((0.3333333 0.3333333 0.3333333)(0.3333333 0.3333333 0.3333333)(0.3333333 0.3333333 0.3333333)))(((0.3333333 0.3333333 0.3333333)(0.3333333 0.3333333 0.3333333)(0.3333333 0.3333333 0.3333333))((0.3333333 0.3333333 0.3333333)(0.3333333 0.3333333 0.3333333)(0.3333333 0.3333333 0.3333333))((0.3333333 0.3333333 0.3333333)(0.3333333 0.3333333 0.3333333)(0.3333333 0.3333333 0.3333333))))((((0.3333333 0.3333333 0.3333333)(0.3333333 0.3333333 0.3333333)(0.3333333 0.3333333 0.3333333))((0.3333333 0.3333333 0.3333333)(0.3333333 0.3333333 0.3333333)(0.3333333 0.3333333 0.3333333))((0.3333333 0.3333333 0.3333333)(0.3333333 0.3333333 0.3333333)(0.3333333 0.3333333 0.3333333)))(((0.3333333 0.3333333 0.3333333)(0.3333333 0.3333333 0.3333333)(0.3333333 0.3333333 0.3333333))((0.3333333 0.3333333 0.3333333)(0.3333333 0.3333333 0.3333333)(0.3333333 0.3333333 0.3333333))((0.3333333 0.3333333 0.3333333)(0.3333333 0.3333333 0.3333333)(0.3333333 0.3333333 0.3333333)))(((0.3333333 0.3333333 0.3333333)(0.3333333 0.3333333 0.3333333)(0.3333333 0.3333333 0.3333333))((0.3333333 0.3333333 0.3333333)(0.3333333 0.3333333 0.3333333)(0.3333333 0.3333333 0.3333333))((0.3333333 0.3333333 0.3333333)(0.3333333 0.3333333 0.3333333)(0.3333333 0.3333333 0.3333333))))((((0.3333333 0.3333333 0.3333333)(0.3333333 0.3333333 0.3333333)(0.3333333 0.3333333 0.3333333))((0.3333333 0.3333333 0.3333333)(0.3333333 0.3333333 0.3333333)(0.3333333 0.3333333 0.3333333))((0.3333333 0.3333333 0.3333333)(0.3333333 0.3333333 0.3333333)(0.3333333 0.3333333 0.3333333)))(((0.3333333 0.3333333 0.3333333)(0.3333333 0.3333333 0.3333333)(0.3333333 0.3333333 0.3333333))((0.3333333 0.3333333 0.3333333)(0.3333333 0.3333333 0.3333333)(0.3333333 0.3333333 0.3333333))((0.3333333 0.3333333 0.3333333)(0.3333333 0.3333333 0.3333333)(0.3333333 0.3333333 0.3333333)))(((0.3333333 0.3333333 0.3333333)(0.3333333 0.3333333 0.3333333)(0.3333333 0.3333333 0.3333333))((0.3333333 0.3333333 0.3333333)(0.3333333 0.3333333 0.3333333)(0.3333333 0.3333333 0.3333333))((0.3333333 0.3333333 0.3333333)(0.3333333 0.3333333 0.3333333)(0.3333333 0.3333333 0.3333333)))))(((((0.3333333 0.3333333 0.3333333)(0.3333333 0.3333333 0.3333333)(0.3333333 0.3333333 0.3333333))((0.3333333 0.3333333 0.3333333)(0.3333333 0.3333333 0.3333333)(0.3333333 0.3333333 0.3333333))((0.3333333 0.3333333 0.3333333)(0.3333333 0.3333333 0.3333333)(0.3333333 0.3333333 0.3333333)))(((0.3333333 0.3333333 0.3333333)(0.3333333 0.3333333 0.3333333)(0.3333333 0.3333333 0.3333333))((0.3333333 0.3333333 0.3333333)(0.3333333 0.3333333 0.3333333)(0.3333333 0.3333333 0.3333333))((0.3333333 0.3333333 0.3333333)(0.3333333 0.3333333 0.3333333)(0.3333333 0.3333333 0.3333333)))(((0.3333333 0.3333333 0.3333333)(0.3333333 0.3333333 0.3333333)(0.3333333 0.3333333 0.3333333))((0.3333333 0.3333333 0.3333333)(0.3333333 0.3333333 0.3333333)(0.3333333 0.3333333 0.3333333))((0.3333333 0.3333333 0.3333333)(0.3333333 0.3333333 0.3333333)(0.3333333 0.3333333 0.3333333))))((((0.3333333 0.3333333 0.3333333)(0.3333333 0.3333333 0.3333333)(0.3333333 0.3333333 0.3333333))((0.3333333 0.3333333 0.3333333)(0.3333333 0.3333333 0.3333333)(0.3333333 0.3333333 0.3333333))((0.3333333 0.3333333 0.3333333)(0.3333333 0.3333333 0.3333333)(0.3333333 0.3333333 0.3333333)))(((0.3333333 0.3333333 0.3333333)(0.3333333 0.3333333 0.3333333)(0.3333333 0.3333333 0.3333333))((0.3333333 0.3333333 0.3333333)(0.3333333 0.3333333 0.3333333)(0.3333333 0.3333333 0.3333333))((0.3333333 0.3333333 0.3333333)(0.3333333 0.3333333 0.3333333)(0.3333333 0.3333333 0.3333333)))(((0.3333333 0.3333333 0.3333333)(0.3333333 0.3333333 0.3333333)(0.3333333 0.3333333 0.3333333))((0.3333333 0.3333333 0.3333333)(0.3333333 0.3333333 0.3333333)(0.3333333 0.3333333 0.3333333))((0.3333333 0.3333333 0.3333333)(0.3333333 0.3333333 0.3333333)(0.3333333 0.3333333 0.3333333))))((((0.3333333 0.3333333 0.3333333)(0.3333333 0.3333333 0.3333333)(0.3333333 0.3333333 0.3333333))((0.3333333 0.3333333 0.3333333)(0.3333333 0.3333333 0.3333333)(0.3333333 0.3333333 0.3333333))((0.3333333 0.3333333 0.3333333)(0.3333333 0.3333333 0.3333333)(0.3333333 0.3333333 0.3333333)))(((0.3333333 0.3333333 0.3333333)(0.3333333 0.3333333 0.3333333)(0.3333333 0.3333333 0.3333333))((0.3333333 0.3333333 0.3333333)(0.3333333 0.3333333 0.3333333)(0.3333333 0.3333333 0.3333333))((0.3333333 0.3333333 0.3333333)(0.3333333 0.3333333 0.3333333)(0.3333333 0.3333333 0.3333333)))(((0.3333333 0.3333333 0.3333333)(0.3333333 0.3333333 0.3333333)(0.3333333 0.3333333 0.3333333))((0.3333333 0.3333333 0.3333333)(0.3333333 0.3333333 0.3333333)(0.3333333 0.3333333 0.3333333))((0.3333333 0.3333333 0.3333333)(0.3333333 0.3333333 0.3333333)(0.0001371178 0.0001371178 0.9997257644)))))) ;
}
potential ( Uba52 | Mt2 Cyp2c67 ) 
{
  data = (((0.9985218034 0.0007390983 0.0007390983)(0.3333333 0.3333333 0.3333333)(0.3333333 0.3333333 0.3333333))((0.3333333 0.3333333 0.3333333)(0.3333333 0.3333333 0.3333333)(0.3333333 0.3333333 0.3333333))((0.3333333 0.3333333 0.3333333)(0.3333333 0.3333333 0.3333333)(0.003663004 0.003663004 0.992673993))) ;
}
potential ( Sepp1 | St3gal5 Slc30a7 Hnf4a ) 
{
  data = ((((0.9995065384 0.0002467308 0.0002467308)(0.3333333 0.3333333 0.3333333)(0.3333333 0.3333333 0.3333333))((0.3333333 0.3333333 0.3333333)(0.3333333 0.3333333 0.3333333)(0.3333333 0.3333333 0.3333333))((0.3333333 0.3333333 0.3333333)(0.3333333 0.3333333 0.3333333)(0.3333333 0.3333333 0.3333333)))(((0.3333333 0.3333333 0.3333333)(0.3333333 0.3333333 0.3333333)(0.3333333 0.3333333 0.3333333))((0.3333333 0.3333333 0.3333333)(0.3333333 0.3333333 0.3333333)(0.3333333 0.3333333 0.3333333))((0.3333333 0.3333333 0.3333333)(0.3333333 0.3333333 0.3333333)(0.3333333 0.3333333 0.3333333)))(((0.3333333 0.3333333 0.3333333)(0.3333333 0.3333333 0.3333333)(0.3333333 0.3333333 0.3333333))((0.3333333 0.3333333 0.3333333)(0.3333333 0.3333333 0.3333333)(0.3333333 0.3333333 0.3333333))((0.3333333 0.3333333 0.3333333)(0.3333333 0.3333333 0.3333333)(0.001230012 0.001230012 0.997539975)))) ;
}
potential ( Cyp2c68 | Slc39a3 ) 
{
  data = ((0.995584989 0.002207506 0.002207506)(0.3333333 0.3333333 0.3333333)(0.01075269 0.01075269 0.97849462)) ;
}
potential ( Gm6428 | St3gal5 Slc39a7 Atp5b ND2 ) 
{
  data = (((((9.998354e-01 8.228421e-05 8.228421e-05)(0.3333333 0.3333333 0.3333333)(0.3333333 0.3333333 0.3333333))((0.3333333 0.3333333 0.3333333)(0.3333333 0.3333333 0.3333333)(0.3333333 0.3333333 0.3333333))((0.3333333 0.3333333 0.3333333)(0.3333333 0.3333333 0.3333333)(0.3333333 0.3333333 0.3333333)))(((0.3333333 0.3333333 0.3333333)(0.3333333 0.3333333 0.3333333)(0.3333333 0.3333333 0.3333333))((0.3333333 0.3333333 0.3333333)(0.3333333 0.3333333 0.3333333)(0.3333333 0.3333333 0.3333333))((0.3333333 0.3333333 0.3333333)(0.3333333 0.3333333 0.3333333)(0.3333333 0.3333333 0.3333333)))(((0.3333333 0.3333333 0.3333333)(0.3333333 0.3333333 0.3333333)(0.3333333 0.3333333 0.3333333))((0.3333333 0.3333333 0.3333333)(0.3333333 0.3333333 0.3333333)(0.3333333 0.3333333 0.3333333))((0.3333333 0.3333333 0.3333333)(0.3333333 0.3333333 0.3333333)(0.3333333 0.3333333 0.3333333))))((((0.3333333 0.3333333 0.3333333)(0.3333333 0.3333333 0.3333333)(0.3333333 0.3333333 0.3333333))((0.3333333 0.3333333 0.3333333)(0.3333333 0.3333333 0.3333333)(0.3333333 0.3333333 0.3333333))((0.3333333 0.3333333 0.3333333)(0.3333333 0.3333333 0.3333333)(0.3333333 0.3333333 0.3333333)))(((0.3333333 0.3333333 0.3333333)(0.3333333 0.3333333 0.3333333)(0.3333333 0.3333333 0.3333333))((0.3333333 0.3333333 0.3333333)(0.3333333 0.3333333 0.3333333)(0.3333333 0.3333333 0.3333333))((0.3333333 0.3333333 0.3333333)(0.3333333 0.3333333 0.3333333)(0.3333333 0.3333333 0.3333333)))(((0.3333333 0.3333333 0.3333333)(0.3333333 0.3333333 0.3333333)(0.3333333 0.3333333 0.3333333))((0.3333333 0.3333333 0.3333333)(0.3333333 0.3333333 0.3333333)(0.3333333 0.3333333 0.3333333))((0.3333333 0.3333333 0.3333333)(0.3333333 0.3333333 0.3333333)(0.3333333 0.3333333 0.3333333))))((((0.3333333 0.3333333 0.3333333)(0.3333333 0.3333333 0.3333333)(0.3333333 0.3333333 0.3333333))((0.3333333 0.3333333 0.3333333)(0.3333333 0.3333333 0.3333333)(0.3333333 0.3333333 0.3333333))((0.3333333 0.3333333 0.3333333)(0.3333333 0.3333333 0.3333333)(0.3333333 0.3333333 0.3333333)))(((0.3333333 0.3333333 0.3333333)(0.3333333 0.3333333 0.3333333)(0.3333333 0.3333333 0.3333333))((0.3333333 0.3333333 0.3333333)(0.3333333 0.3333333 0.3333333)(0.3333333 0.3333333 0.3333333))((0.3333333 0.3333333 0.3333333)(0.3333333 0.3333333 0.3333333)(0.3333333 0.3333333 0.3333333)))(((0.3333333 0.3333333 0.3333333)(0.3333333 0.3333333 0.3333333)(0.3333333 0.3333333 0.3333333))((0.3333333 0.3333333 0.3333333)(0.3333333 0.3333333 0.3333333)(0.3333333 0.3333333 0.3333333))((0.3333333 0.3333333 0.3333333)(0.3333333 0.3333333 0.3333333)(0.0004110152 0.0004110152 0.9991779696))))) ;
}
potential ( Aass | Slc39a14 Cpamd8 Uba52 Hnf4a Cyp2c67 ) 
{
  data = ((((((9.999451e-01 2.743258e-05 2.743258e-05)(0.3333333 0.3333333 0.3333333)(0.3333333 0.3333333 0.3333333))((0.3333333 0.3333333 0.3333333)(0.3333333 0.3333333 0.3333333)(0.3333333 0.3333333 0.3333333))((0.3333333 0.3333333 0.3333333)(0.3333333 0.3333333 0.3333333)(0.3333333 0.3333333 0.3333333)))(((0.3333333 0.3333333 0.3333333)(0.3333333 0.3333333 0.3333333)(0.3333333 0.3333333 0.3333333))((0.3333333 0.3333333 0.3333333)(0.3333333 0.3333333 0.3333333)(0.3333333 0.3333333 0.3333333))((0.3333333 0.3333333 0.3333333)(0.3333333 0.3333333 0.3333333)(0.3333333 0.3333333 0.3333333)))(((0.3333333 0.3333333 0.3333333)(0.3333333 0.3333333 0.3333333)(0.3333333 0.3333333 0.3333333))((0.3333333 0.3333333 0.3333333)(0.3333333 0.3333333 0.3333333)(0.3333333 0.3333333 0.3333333))((0.3333333 0.3333333 0.3333333)(0.3333333 0.3333333 0.3333333)(0.3333333 0.3333333 0.3333333))))((((0.3333333 0.3333333 0.3333333)(0.3333333 0.3333333 0.3333333)(0.3333333 0.3333333 0.3333333))((0.3333333 0.3333333 0.3333333)(0.3333333 0.3333333 0.3333333)(0.3333333 0.3333333 0.3333333))((0.3333333 0.3333333 0.3333333)(0.3333333 0.3333333 0.3333333)(0.3333333 0.3333333 0.3333333)))(((0.3333333 0.3333333 0.3333333)(0.3333333 0.3333333 0.3333333)(0.3333333 0.3333333 0.3333333))((0.3333333 0.3333333 0.3333333)(0.3333333 0.3333333 0.3333333)(0.3333333 0.3333333 0.3333333))((0.3333333 0.3333333 0.3333333)(0.3333333 0.3333333 0.3333333)(0.3333333 0.3333333 0.3333333)))(((0.3333333 0.3333333 0.3333333)(0.3333333 0.3333333 0.3333333)(0.3333333 0.3333333 0.3333333))((0.3333333 0.3333333 0.3333333)(0.3333333 0.3333333 0.3333333)(0.3333333 0.3333333 0.3333333))((0.3333333 0.3333333 0.3333333)(0.3333333 0.3333333 0.3333333)(0.3333333 0.3333333 0.3333333))))((((0.3333333 0.3333333 0.3333333)(0.3333333 0.3333333 0.3333333)(0.3333333 0.3333333 0.3333333))((0.3333333 0.3333333 0.3333333)(0.3333333 0.3333333 0.3333333)(0.3333333 0.3333333 0.3333333))((0.3333333 0.3333333 0.3333333)(0.3333333 0.3333333 0.3333333)(0.3333333 0.3333333 0.3333333)))(((0.3333333 0.3333333 0.3333333)(0.3333333 0.3333333 0.3333333)(0.3333333 0.3333333 0.3333333))((0.3333333 0.3333333 0.3333333)(0.3333333 0.3333333 0.3333333)(0.3333333 0.3333333 0.3333333))((0.3333333 0.3333333 0.3333333)(0.3333333 0.3333333 0.3333333)(0.3333333 0.3333333 0.3333333)))(((0.3333333 0.3333333 0.3333333)(0.3333333 0.3333333 0.3333333)(0.3333333 0.3333333 0.3333333))((0.3333333 0.3333333 0.3333333)(0.3333333 0.3333333 0.3333333)(0.3333333 0.3333333 0.3333333))((0.3333333 0.3333333 0.3333333)(0.3333333 0.3333333 0.3333333)(0.3333333 0.3333333 0.3333333)))))(((((0.3333333 0.3333333 0.3333333)(0.3333333 0.3333333 0.3333333)(0.3333333 0.3333333 0.3333333))((0.3333333 0.3333333 0.3333333)(0.3333333 0.3333333 0.3333333)(0.3333333 0.3333333 0.3333333))((0.3333333 0.3333333 0.3333333)(0.3333333 0.3333333 0.3333333)(0.3333333 0.3333333 0.3333333)))(((0.3333333 0.3333333 0.3333333)(0.3333333 0.3333333 0.3333333)(0.3333333 0.3333333 0.3333333))((0.3333333 0.3333333 0.3333333)(0.3333333 0.3333333 0.3333333)(0.3333333 0.3333333 0.3333333))((0.3333333 0.3333333 0.3333333)(0.3333333 0.3333333 0.3333333)(0.3333333 0.3333333 0.3333333)))(((0.3333333 0.3333333 0.3333333)(0.3333333 0.3333333 0.3333333)(0.3333333 0.3333333 0.3333333))((0.3333333 0.3333333 0.3333333)(0.3333333 0.3333333 0.3333333)(0.3333333 0.3333333 0.3333333))((0.3333333 0.3333333 0.3333333)(0.3333333 0.3333333 0.3333333)(0.3333333 0.3333333 0.3333333))))((((0.3333333 0.3333333 0.3333333)(0.3333333 0.3333333 0.3333333)(0.3333333 0.3333333 0.3333333))((0.3333333 0.3333333 0.3333333)(0.3333333 0.3333333 0.3333333)(0.3333333 0.3333333 0.3333333))((0.3333333 0.3333333 0.3333333)(0.3333333 0.3333333 0.3333333)(0.3333333 0.3333333 0.3333333)))(((0.3333333 0.3333333 0.3333333)(0.3333333 0.3333333 0.3333333)(0.3333333 0.3333333 0.3333333))((0.3333333 0.3333333 0.3333333)(0.3333333 0.3333333 0.3333333)(0.3333333 0.3333333 0.3333333))((0.3333333 0.3333333 0.3333333)(0.3333333 0.3333333 0.3333333)(0.3333333 0.3333333 0.3333333)))(((0.3333333 0.3333333 0.3333333)(0.3333333 0.3333333 0.3333333)(0.3333333 0.3333333 0.3333333))((0.3333333 0.3333333 0.3333333)(0.3333333 0.3333333 0.3333333)(0.3333333 0.3333333 0.3333333))((0.3333333 0.3333333 0.3333333)(0.3333333 0.3333333 0.3333333)(0.3333333 0.3333333 0.3333333))))((((0.3333333 0.3333333 0.3333333)(0.3333333 0.3333333 0.3333333)(0.3333333 0.3333333 0.3333333))((0.3333333 0.3333333 0.3333333)(0.3333333 0.3333333 0.3333333)(0.3333333 0.3333333 0.3333333))((0.3333333 0.3333333 0.3333333)(0.3333333 0.3333333 0.3333333)(0.3333333 0.3333333 0.3333333)))(((0.3333333 0.3333333 0.3333333)(0.3333333 0.3333333 0.3333333)(0.3333333 0.3333333 0.3333333))((0.3333333 0.3333333 0.3333333)(0.3333333 0.3333333 0.3333333)(0.3333333 0.3333333 0.3333333))((0.3333333 0.3333333 0.3333333)(0.3333333 0.3333333 0.3333333)(0.3333333 0.3333333 0.3333333)))(((0.3333333 0.3333333 0.3333333)(0.3333333 0.3333333 0.3333333)(0.3333333 0.3333333 0.3333333))((0.3333333 0.3333333 0.3333333)(0.3333333 0.3333333 0.3333333)(0.3333333 0.3333333 0.3333333))((0.3333333 0.3333333 0.3333333)(0.3333333 0.3333333 0.3333333)(0.3333333 0.3333333 0.3333333)))))(((((0.3333333 0.3333333 0.3333333)(0.3333333 0.3333333 0.3333333)(0.3333333 0.3333333 0.3333333))((0.3333333 0.3333333 0.3333333)(0.3333333 0.3333333 0.3333333)(0.3333333 0.3333333 0.3333333))((0.3333333 0.3333333 0.3333333)(0.3333333 0.3333333 0.3333333)(0.3333333 0.3333333 0.3333333)))(((0.3333333 0.3333333 0.3333333)(0.3333333 0.3333333 0.3333333)(0.3333333 0.3333333 0.3333333))((0.3333333 0.3333333 0.3333333)(0.3333333 0.3333333 0.3333333)(0.3333333 0.3333333 0.3333333))((0.3333333 0.3333333 0.3333333)(0.3333333 0.3333333 0.3333333)(0.3333333 0.3333333 0.3333333)))(((0.3333333 0.3333333 0.3333333)(0.3333333 0.3333333 0.3333333)(0.3333333 0.3333333 0.3333333))((0.3333333 0.3333333 0.3333333)(0.3333333 0.3333333 0.3333333)(0.3333333 0.3333333 0.3333333))((0.3333333 0.3333333 0.3333333)(0.3333333 0.3333333 0.3333333)(0.3333333 0.3333333 0.3333333))))((((0.3333333 0.3333333 0.3333333)(0.3333333 0.3333333 0.3333333)(0.3333333 0.3333333 0.3333333))((0.3333333 0.3333333 0.3333333)(0.3333333 0.3333333 0.3333333)(0.3333333 0.3333333 0.3333333))((0.3333333 0.3333333 0.3333333)(0.3333333 0.3333333 0.3333333)(0.3333333 0.3333333 0.3333333)))(((0.3333333 0.3333333 0.3333333)(0.3333333 0.3333333 0.3333333)(0.3333333 0.3333333 0.3333333))((0.3333333 0.3333333 0.3333333)(0.3333333 0.3333333 0.3333333)(0.3333333 0.3333333 0.3333333))((0.3333333 0.3333333 0.3333333)(0.3333333 0.3333333 0.3333333)(0.3333333 0.3333333 0.3333333)))(((0.3333333 0.3333333 0.3333333)(0.3333333 0.3333333 0.3333333)(0.3333333 0.3333333 0.3333333))((0.3333333 0.3333333 0.3333333)(0.3333333 0.3333333 0.3333333)(0.3333333 0.3333333 0.3333333))((0.3333333 0.3333333 0.3333333)(0.3333333 0.3333333 0.3333333)(0.3333333 0.3333333 0.3333333))))((((0.3333333 0.3333333 0.3333333)(0.3333333 0.3333333 0.3333333)(0.3333333 0.3333333 0.3333333))((0.3333333 0.3333333 0.3333333)(0.3333333 0.3333333 0.3333333)(0.3333333 0.3333333 0.3333333))((0.3333333 0.3333333 0.3333333)(0.3333333 0.3333333 0.3333333)(0.3333333 0.3333333 0.3333333)))(((0.3333333 0.3333333 0.3333333)(0.3333333 0.3333333 0.3333333)(0.3333333 0.3333333 0.3333333))((0.3333333 0.3333333 0.3333333)(0.3333333 0.3333333 0.3333333)(0.3333333 0.3333333 0.3333333))((0.3333333 0.3333333 0.3333333)(0.3333333 0.3333333 0.3333333)(0.3333333 0.3333333 0.3333333)))(((0.3333333 0.3333333 0.3333333)(0.3333333 0.3333333 0.3333333)(0.3333333 0.3333333 0.3333333))((0.3333333 0.3333333 0.3333333)(0.3333333 0.3333333 0.3333333)(0.3333333 0.3333333 0.3333333))((0.3333333 0.3333333 0.3333333)(0.3333333 0.3333333 0.3333333)(0.0001371178 0.0001371178 0.9997257644)))))) ;
}
potential ( Gnmt | Slc39a14 Cpamd8 Slc27a5 Serpina3k Cyp2c67 ) 
{
