net 
{ 
}
node Cyp2c68 
{
  states = ( "No Change" "Low" "High" );
}
node Cyp3a11 
{
  states = ( "No Change" "Low" "High" );
}
node Dgat2 
{
  states = ( "No Change" "Low" "High" );
}
node Gabarapl1 
{
  states = ( "No Change" "Low" "High" );
}
node Scp2 
{
  states = ( "No Change" "Low" "High" );
}
node Slc39a9 
{
  states = ( "No Change" "Low" "High" );
}
node Akr1c6 
{
  states = ( "No Change" "Low" "High" );
}
node Atg7KO 
{
  states = ( "Atg7WT" "Atg7KO" );
}
node Hsd11b1 
{
  states = ( "No Change" "Low" "High" );
}
node Rgn 
{
  states = ( "No Change" "Low" "High" );
}
node Serpina1d 
{
  states = ( "No Change" "Low" "High" );
}
node Slc39a3 
{
  states = ( "No Change" "Low" "High" );
}
node Slc39a4 
{
  states = ( "No Change" "Low" "High" );
}
node Slc39a11 
{
  states = ( "No Change" "Low" "High" );
}
node Slc39a14 
{
  states = ( "No Change" "Low" "High" );
}
node Mt3 
{
  states = ( "No Change" "Low" "High" );
}
node Slc39a2 
{
  states = ( "No Change" "Low" "High" );
}
node Slc39a6 
{
  states = ( "No Change" "Low" "High" );
}
node Mt4 
{
  states = ( "No Change" "Low" "High" );
}
node Slc39a1 
{
  states = ( "No Change" "Low" "High" );
}
node Slc30a5 
{
  states = ( "No Change" "Low" "High" );
}
node Slc39a5 
{
  states = ( "No Change" "Low" "High" );
}
node Hamp2 
{
  states = ( "No Change" "Low" "High" );
}
node Adh1 
{
  states = ( "No Change" "Low" "High" );
}
node Cbr3 
{
  states = ( "No Change" "Low" "High" );
}
node Pah 
{
  states = ( "No Change" "Low" "High" );
}
node Taldo1 
{
  states = ( "No Change" "Low" "High" );
}
node Ttr 
{
  states = ( "No Change" "Low" "High" );
}
node Uox 
{
  states = ( "No Change" "Low" "High" );
}
node Cyp2d10 
{
  states = ( "No Change" "Low" "High" );
}
node Gstm2 
{
  states = ( "No Change" "Low" "High" );
}
node Inmt 
{
  states = ( "No Change" "Low" "High" );
}
node Slpi 
{
  states = ( "No Change" "Low" "High" );
}
node Azgp1 
{
  states = ( "No Change" "Low" "High" );
}
node Cyp2d11 
{
  states = ( "No Change" "Low" "High" );
}
node Ly6d 
{
  states = ( "No Change" "Low" "High" );
}
node F10 
{
  states = ( "No Change" "Low" "High" );
}
node Ndor1 
{
  states = ( "No Change" "Low" "High" );
}
node COX3 
{
  states = ( "No Change" "Low" "High" );
}
node Gm13202 
{
  states = ( "No Change" "Low" "High" );
}
node Fmo3 
{
  states = ( "No Change" "Low" "High" );
}
potential ( Cyp2c68 | Dgat2 Gabarapl1 Hamp2 ) 
{
  data = ((((0.9995065384 0.0002467308 0.0002467308)(0.3333333 0.3333333 0.3333333)(0.3333333 0.3333333 0.3333333))((0.3333333 0.3333333 0.3333333)(0.3333333 0.3333333 0.3333333)(0.3333333 0.3333333 0.3333333))((0.3333333 0.3333333 0.3333333)(0.3333333 0.3333333 0.3333333)(0.3333333 0.3333333 0.3333333)))(((0.3333333 0.3333333 0.3333333)(0.3333333 0.3333333 0.3333333)(0.3333333 0.3333333 0.3333333))((0.3333333 0.3333333 0.3333333)(0.3333333 0.3333333 0.3333333)(0.3333333 0.3333333 0.3333333))((0.3333333 0.3333333 0.3333333)(0.3333333 0.3333333 0.3333333)(0.3333333 0.3333333 0.3333333)))(((0.3333333 0.3333333 0.3333333)(0.3333333 0.3333333 0.3333333)(0.3333333 0.3333333 0.3333333))((0.3333333 0.3333333 0.3333333)(0.3333333 0.3333333 0.3333333)(0.3333333 0.3333333 0.3333333))((0.3333333 0.3333333 0.3333333)(0.3333333 0.3333333 0.3333333)(0.001230012 0.001230012 0.997539975)))) ;
}
potential ( Cyp3a11 | Scp2 Cyp2d10 Slpi Ly6d ) 
{
  data = (((((0.9997257644 0.0001371178 0.0001371178)(0.3333333 0.3333333 0.3333333)(0.3333333 0.3333333 0.3333333))((0.3333333 0.3333333 0.3333333)(0.3333333 0.3333333 0.3333333)(0.3333333 0.3333333 0.3333333))((0.3333333 0.3333333 0.3333333)(0.3333333 0.3333333 0.3333333)(0.3333333 0.3333333 0.3333333)))(((0.3333333 0.3333333 0.3333333)(0.3333333 0.3333333 0.3333333)(0.3333333 0.3333333 0.3333333))((0.3333333 0.3333333 0.3333333)(0.3333333 0.3333333 0.3333333)(0.3333333 0.3333333 0.3333333))((0.3333333 0.3333333 0.3333333)(0.3333333 0.3333333 0.3333333)(0.9991779696 0.0004110152 0.0004110152)))(((0.3333333 0.3333333 0.3333333)(0.3333333 0.3333333 0.3333333)(0.3333333 0.3333333 0.3333333))((0.3333333 0.3333333 0.3333333)(0.3333333 0.3333333 0.3333333)(0.3333333 0.3333333 0.3333333))((0.3333333 0.3333333 0.3333333)(0.3333333 0.3333333 0.3333333)(0.3333333 0.3333333 0.3333333))))((((0.3333333 0.3333333 0.3333333)(0.3333333 0.3333333 0.3333333)(0.3333333 0.3333333 0.3333333))((0.3333333 0.3333333 0.3333333)(0.3333333 0.3333333 0.3333333)(0.3333333 0.3333333 0.3333333))((0.3333333 0.3333333 0.3333333)(0.3333333 0.3333333 0.3333333)(0.3333333 0.3333333 0.3333333)))(((0.3333333 0.3333333 0.3333333)(0.3333333 0.3333333 0.3333333)(0.3333333 0.3333333 0.3333333))((0.3333333 0.3333333 0.3333333)(0.3333333 0.3333333 0.3333333)(0.3333333 0.3333333 0.3333333))((0.3333333 0.3333333 0.3333333)(0.3333333 0.3333333 0.3333333)(0.3333333 0.3333333 0.3333333)))(((0.3333333 0.3333333 0.3333333)(0.3333333 0.3333333 0.3333333)(0.3333333 0.3333333 0.3333333))((0.3333333 0.3333333 0.3333333)(0.3333333 0.3333333 0.3333333)(0.3333333 0.3333333 0.3333333))((0.3333333 0.3333333 0.3333333)(0.3333333 0.3333333 0.3333333)(0.3333333 0.3333333 0.3333333))))((((0.3333333 0.3333333 0.3333333)(0.3333333 0.3333333 0.3333333)(0.3333333 0.3333333 0.3333333))((0.3333333 0.3333333 0.3333333)(0.3333333 0.3333333 0.3333333)(0.3333333 0.3333333 0.3333333))((0.3333333 0.3333333 0.3333333)(0.3333333 0.3333333 0.3333333)(0.3333333 0.3333333 0.3333333)))(((0.3333333 0.3333333 0.3333333)(0.3333333 0.3333333 0.3333333)(0.3333333 0.3333333 0.3333333))((0.3333333 0.3333333 0.3333333)(0.3333333 0.3333333 0.3333333)(0.3333333 0.3333333 0.3333333))((0.3333333 0.3333333 0.3333333)(0.3333333 0.3333333 0.3333333)(0.3333333 0.3333333 0.3333333)))(((0.0002056344 0.0002056344 0.9995887312)(0.3333333 0.3333333 0.3333333)(0.3333333 0.3333333 0.3333333))((0.3333333 0.3333333 0.3333333)(0.3333333 0.3333333 0.3333333)(0.3333333 0.3333333 0.3333333))((0.3333333 0.3333333 0.3333333)(0.3333333 0.3333333 0.3333333)(0.3333333 0.3333333 0.3333333))))) ;
}
potential ( Dgat2 | Slc39a3 ) 
{
  data = ((0.995584989 0.002207506 0.002207506)(0.3333333 0.3333333 0.3333333)(0.01075269 0.01075269 0.97849462)) ;
}
potential ( Gabarapl1 | Dgat2 Slc39a3 Hamp2 ) 
{
  data = ((((0.9995065384 0.0002467308 0.0002467308)(0.3333333 0.3333333 0.3333333)(0.3333333 0.3333333 0.3333333))((0.3333333 0.3333333 0.3333333)(0.3333333 0.3333333 0.3333333)(0.3333333 0.3333333 0.3333333))((0.3333333 0.3333333 0.3333333)(0.3333333 0.3333333 0.3333333)(0.3333333 0.3333333 0.3333333)))(((0.3333333 0.3333333 0.3333333)(0.3333333 0.3333333 0.3333333)(0.3333333 0.3333333 0.3333333))((0.3333333 0.3333333 0.3333333)(0.3333333 0.3333333 0.3333333)(0.3333333 0.3333333 0.3333333))((0.3333333 0.3333333 0.3333333)(0.3333333 0.3333333 0.3333333)(0.3333333 0.3333333 0.3333333)))(((0.3333333 0.3333333 0.3333333)(0.3333333 0.3333333 0.3333333)(0.3333333 0.3333333 0.3333333))((0.3333333 0.3333333 0.3333333)(0.3333333 0.3333333 0.3333333)(0.3333333 0.3333333 0.3333333))((0.3333333 0.3333333 0.3333333)(0.3333333 0.3333333 0.3333333)(0.001230012 0.001230012 0.997539975)))) ;
}
potential ( Scp2 ) 
{
  data = ( 0.661202186 0.005464481 0.333333333 );
}
potential ( Slc39a9 | Akr1c6 Atg7KO Hsd11b1 Rgn Serpina1d ) 
{
  data = ((((((0.0001028489 0.0001028489 0.9997943022)(0.3333333 0.3333333 0.3333333)(0.3333333 0.3333333 0.3333333))((0.3333333 0.3333333 0.3333333)(0.3333333 0.3333333 0.3333333)(0.3333333 0.3333333 0.3333333))((0.3333333 0.3333333 0.3333333)(0.3333333 0.3333333 0.3333333)(0.3333333 0.3333333 0.3333333)))(((0.3333333 0.3333333 0.3333333)(0.3333333 0.3333333 0.3333333)(0.3333333 0.3333333 0.3333333))((0.3333333 0.3333333 0.3333333)(0.3333333 0.3333333 0.3333333)(0.3333333 0.3333333 0.3333333))((0.3333333 0.3333333 0.3333333)(0.3333333 0.3333333 0.3333333)(0.3333333 0.3333333 0.3333333)))(((0.3333333 0.3333333 0.3333333)(0.3333333 0.3333333 0.3333333)(0.3333333 0.3333333 0.3333333))((0.3333333 0.3333333 0.3333333)(0.3333333 0.3333333 0.3333333)(0.3333333 0.3333333 0.3333333))((0.3333333 0.3333333 0.3333333)(0.3333333 0.3333333 0.3333333)(0.3333333 0.3333333 0.3333333))))((((0.9997943022 0.0001028489 0.0001028489)(0.3333333 0.3333333 0.3333333)(0.3333333 0.3333333 0.3333333))((0.3333333 0.3333333 0.3333333)(0.3333333 0.3333333 0.3333333)(0.3333333 0.3333333 0.3333333))((0.3333333 0.3333333 0.3333333)(0.3333333 0.3333333 0.3333333)(0.3333333 0.3333333 0.3333333)))(((0.3333333 0.3333333 0.3333333)(0.3333333 0.3333333 0.3333333)(0.3333333 0.3333333 0.3333333))((0.3333333 0.3333333 0.3333333)(0.3333333 0.3333333 0.3333333)(0.3333333 0.3333333 0.3333333))((0.3333333 0.3333333 0.3333333)(0.3333333 0.3333333 0.3333333)(0.3333333 0.3333333 0.3333333)))(((0.3333333 0.3333333 0.3333333)(0.3333333 0.3333333 0.3333333)(0.3333333 0.3333333 0.3333333))((0.3333333 0.3333333 0.3333333)(0.3333333 0.3333333 0.3333333)(0.3333333 0.3333333 0.3333333))((0.3333333 0.3333333 0.3333333)(0.3333333 0.3333333 0.3333333)(0.3333333 0.3333333 0.3333333)))))(((((0.3333333 0.3333333 0.3333333)(0.3333333 0.3333333 0.3333333)(0.3333333 0.3333333 0.3333333))((0.3333333 0.3333333 0.3333333)(0.3333333 0.3333333 0.3333333)(0.3333333 0.3333333 0.3333333))((0.3333333 0.3333333 0.3333333)(0.3333333 0.3333333 0.3333333)(0.3333333 0.3333333 0.3333333)))(((0.3333333 0.3333333 0.3333333)(0.3333333 0.3333333 0.3333333)(0.3333333 0.3333333 0.3333333))((0.3333333 0.3333333 0.3333333)(0.3333333 0.3333333 0.3333333)(0.3333333 0.3333333 0.3333333))((0.3333333 0.3333333 0.3333333)(0.3333333 0.3333333 0.3333333)(0.3333333 0.3333333 0.3333333)))(((0.3333333 0.3333333 0.3333333)(0.3333333 0.3333333 0.3333333)(0.3333333 0.3333333 0.3333333))((0.3333333 0.3333333 0.3333333)(0.3333333 0.3333333 0.3333333)(0.3333333 0.3333333 0.3333333))((0.3333333 0.3333333 0.3333333)(0.3333333 0.3333333 0.3333333)(0.3333333 0.3333333 0.3333333))))((((0.3333333 0.3333333 0.3333333)(0.3333333 0.3333333 0.3333333)(0.3333333 0.3333333 0.3333333))((0.3333333 0.3333333 0.3333333)(0.3333333 0.3333333 0.3333333)(0.3333333 0.3333333 0.3333333))((0.3333333 0.3333333 0.3333333)(0.3333333 0.3333333 0.3333333)(0.3333333 0.3333333 0.3333333)))(((0.3333333 0.3333333 0.3333333)(0.3333333 0.3333333 0.3333333)(0.3333333 0.3333333 0.3333333))((0.3333333 0.3333333 0.3333333)(0.0002056344 0.9995887312 0.0002056344)(0.3333333 0.3333333 0.3333333))((0.3333333 0.3333333 0.3333333)(0.3333333 0.3333333 0.3333333)(0.3333333 0.3333333 0.3333333)))(((0.3333333 0.3333333 0.3333333)(0.3333333 0.3333333 0.3333333)(0.3333333 0.3333333 0.3333333))((0.3333333 0.3333333 0.3333333)(0.3333333 0.3333333 0.3333333)(0.3333333 0.3333333 0.3333333))((0.3333333 0.3333333 0.3333333)(0.3333333 0.3333333 0.3333333)(0.3333333 0.3333333 0.3333333)))))(((((0.3333333 0.3333333 0.3333333)(0.3333333 0.3333333 0.3333333)(0.3333333 0.3333333 0.3333333))((0.3333333 0.3333333 0.3333333)(0.3333333 0.3333333 0.3333333)(0.3333333 0.3333333 0.3333333))((0.3333333 0.3333333 0.3333333)(0.3333333 0.3333333 0.3333333)(0.3333333 0.3333333 0.3333333)))(((0.3333333 0.3333333 0.3333333)(0.3333333 0.3333333 0.3333333)(0.3333333 0.3333333 0.3333333))((0.3333333 0.3333333 0.3333333)(0.3333333 0.3333333 0.3333333)(0.3333333 0.3333333 0.3333333))((0.3333333 0.3333333 0.3333333)(0.3333333 0.3333333 0.3333333)(0.3333333 0.3333333 0.3333333)))(((0.3333333 0.3333333 0.3333333)(0.3333333 0.3333333 0.3333333)(0.0002056344 0.9995887312 0.0002056344))((0.3333333 0.3333333 0.3333333)(0.3333333 0.3333333 0.3333333)(0.3333333 0.3333333 0.3333333))((0.3333333 0.3333333 0.3333333)(0.3333333 0.3333333 0.3333333)(0.3333333 0.3333333 0.3333333))))((((0.3333333 0.3333333 0.3333333)(0.3333333 0.3333333 0.3333333)(0.3333333 0.3333333 0.3333333))((0.3333333 0.3333333 0.3333333)(0.3333333 0.3333333 0.3333333)(0.3333333 0.3333333 0.3333333))((0.3333333 0.3333333 0.3333333)(0.3333333 0.3333333 0.3333333)(0.3333333 0.3333333 0.3333333)))(((0.3333333 0.3333333 0.3333333)(0.3333333 0.3333333 0.3333333)(0.3333333 0.3333333 0.3333333))((0.3333333 0.3333333 0.3333333)(0.3333333 0.3333333 0.3333333)(0.3333333 0.3333333 0.3333333))((0.3333333 0.3333333 0.3333333)(0.3333333 0.3333333 0.3333333)(0.3333333 0.3333333 0.3333333)))(((0.3333333 0.3333333 0.3333333)(0.3333333 0.3333333 0.3333333)(0.3333333 0.3333333 0.3333333))((0.3333333 0.3333333 0.3333333)(0.3333333 0.3333333 0.3333333)(0.3333333 0.3333333 0.3333333))((0.3333333 0.3333333 0.3333333)(0.3333333 0.3333333 0.3333333)(0.3333333 0.3333333 0.3333333)))))) ;
}
potential ( Akr1c6 | Taldo1 Uox Inmt Ly6d ) 
{
  data = (((((0.9997943022 0.0001028489 0.0001028489)(0.3333333 0.3333333 0.3333333)(0.3333333 0.3333333 0.3333333))((0.3333333 0.3333333 0.3333333)(0.3333333 0.3333333 0.3333333)(0.3333333 0.3333333 0.3333333))((0.3333333 0.3333333 0.3333333)(0.3333333 0.3333333 0.3333333)(0.3333333 0.3333333 0.3333333)))(((0.3333333 0.3333333 0.3333333)(0.3333333 0.3333333 0.3333333)(0.3333333 0.3333333 0.3333333))((0.3333333 0.3333333 0.3333333)(0.3333333 0.3333333 0.3333333)(0.3333333 0.3333333 0.3333333))((0.3333333 0.3333333 0.3333333)(0.3333333 0.3333333 0.3333333)(0.3333333 0.3333333 0.3333333)))(((0.3333333 0.3333333 0.3333333)(0.3333333 0.3333333 0.3333333)(0.3333333 0.3333333 0.3333333))((0.3333333 0.3333333 0.3333333)(0.3333333 0.3333333 0.3333333)(0.3333333 0.3333333 0.3333333))((0.3333333 0.3333333 0.3333333)(0.3333333 0.3333333 0.3333333)(0.3333333 0.3333333 0.3333333))))((((0.3333333 0.3333333 0.3333333)(0.3333333 0.3333333 0.3333333)(0.3333333 0.3333333 0.3333333))((0.3333333 0.3333333 0.3333333)(0.3333333 0.3333333 0.3333333)(0.3333333 0.3333333 0.3333333))((0.0004110152 0.0004110152 0.9991779696)(0.3333333 0.3333333 0.3333333)(0.3333333 0.3333333 0.3333333)))(((0.3333333 0.3333333 0.3333333)(0.3333333 0.3333333 0.3333333)(0.3333333 0.3333333 0.3333333))((0.3333333 0.3333333 0.3333333)(0.3333333 0.3333333 0.3333333)(0.3333333 0.3333333 0.3333333))((0.3333333 0.3333333 0.3333333)(0.3333333 0.3333333 0.3333333)(0.3333333 0.3333333 0.3333333)))(((0.3333333 0.3333333 0.3333333)(0.3333333 0.3333333 0.3333333)(0.3333333 0.3333333 0.3333333))((0.3333333 0.3333333 0.3333333)(0.3333333 0.3333333 0.3333333)(0.3333333 0.3333333 0.3333333))((0.3333333 0.3333333 0.3333333)(0.3333333 0.3333333 0.3333333)(0.3333333 0.3333333 0.3333333))))((((0.3333333 0.3333333 0.3333333)(0.3333333 0.3333333 0.3333333)(0.3333333 0.3333333 0.3333333))((0.3333333 0.3333333 0.3333333)(0.3333333 0.3333333 0.3333333)(0.3333333 0.3333333 0.3333333))((0.3333333 0.3333333 0.3333333)(0.3333333 0.3333333 0.3333333)(0.3333333 0.3333333 0.3333333)))(((0.3333333 0.3333333 0.3333333)(0.3333333 0.3333333 0.3333333)(0.3333333 0.3333333 0.3333333))((0.3333333 0.3333333 0.3333333)(0.3333333 0.3333333 0.3333333)(0.0004110152 0.9991779696 0.0004110152))((0.3333333 0.3333333 0.3333333)(0.3333333 0.3333333 0.3333333)(0.3333333 0.3333333 0.3333333)))(((0.3333333 0.3333333 0.3333333)(0.3333333 0.3333333 0.3333333)(0.3333333 0.3333333 0.3333333))((0.3333333 0.3333333 0.3333333)(0.3333333 0.3333333 0.3333333)(0.3333333 0.3333333 0.3333333))((0.3333333 0.3333333 0.3333333)(0.3333333 0.3333333 0.3333333)(0.3333333 0.3333333 0.3333333))))) ;
}
potential ( Atg7KO | Cyp2c68 Cyp3a11 Dgat2 Gabarapl1 Scp2 ) 
{
  data = ((((((0.0000685777 0.9999314223)(0.5 0.5)(0.5 0.5))((0.5 0.5)(0.5 0.5)(0.5 0.5))((0.5 0.5)(0.5 0.5)(0.5 0.5)))(((0.5 0.5)(0.5 0.5)(0.5 0.5))((0.5 0.5)(0.5 0.5)(0.5 0.5))((0.5 0.5)(0.5 0.5)(0.5 0.5)))(((0.5 0.5)(0.5 0.5)(0.5 0.5))((0.5 0.5)(0.5 0.5)(0.5 0.5))((0.5 0.5)(0.5 0.5)(0.5 0.5))))((((0.5 0.5)(0.5 0.5)(0.5 0.5))((0.5 0.5)(0.5 0.5)(0.5 0.5))((0.5 0.5)(0.5 0.5)(0.5 0.5)))(((0.5 0.5)(0.5 0.5)(0.5 0.5))((0.5 0.5)(0.5 0.5)(0.5 0.5))((0.5 0.5)(0.5 0.5)(0.5 0.5)))(((0.5 0.5)(0.5 0.5)(0.5 0.5))((0.5 0.5)(0.5 0.5)(0.5 0.5))((0.5 0.5)(0.5 0.5)(0.5 0.5))))((((0.5 0.5)(0.5 0.5)(0.9998971405 0.0001028595))((0.5 0.5)(0.5 0.5)(0.5 0.5))((0.5 0.5)(0.5 0.5)(0.5 0.5)))(((0.5 0.5)(0.5 0.5)(0.5 0.5))((0.5 0.5)(0.5 0.5)(0.5 0.5))((0.5 0.5)(0.5 0.5)(0.5 0.5)))(((0.5 0.5)(0.5 0.5)(0.5 0.5))((0.5 0.5)(0.5 0.5)(0.5 0.5))((0.5 0.5)(0.5 0.5)(0.5 0.5)))))(((((0.5 0.5)(0.5 0.5)(0.5 0.5))((0.5 0.5)(0.5 0.5)(0.5 0.5))((0.5 0.5)(0.5 0.5)(0.5 0.5)))(((0.5 0.5)(0.5 0.5)(0.5 0.5))((0.5 0.5)(0.5 0.5)(0.5 0.5))((0.5 0.5)(0.5 0.5)(0.5 0.5)))(((0.5 0.5)(0.5 0.5)(0.5 0.5))((0.5 0.5)(0.5 0.5)(0.5 0.5))((0.5 0.5)(0.5 0.5)(0.5 0.5))))((((0.5 0.5)(0.5 0.5)(0.5 0.5))((0.5 0.5)(0.5 0.5)(0.5 0.5))((0.5 0.5)(0.5 0.5)(0.5 0.5)))(((0.5 0.5)(0.5 0.5)(0.5 0.5))((0.5 0.5)(0.5 0.5)(0.5 0.5))((0.5 0.5)(0.5 0.5)(0.5 0.5)))(((0.5 0.5)(0.5 0.5)(0.5 0.5))((0.5 0.5)(0.5 0.5)(0.5 0.5))((0.5 0.5)(0.5 0.5)(0.5 0.5))))((((0.5 0.5)(0.5 0.5)(0.5 0.5))((0.5 0.5)(0.5 0.5)(0.5 0.5))((0.5 0.5)(0.5 0.5)(0.5 0.5)))(((0.5 0.5)(0.5 0.5)(0.5 0.5))((0.5 0.5)(0.5 0.5)(0.5 0.5))((0.5 0.5)(0.5 0.5)(0.5 0.5)))(((0.5 0.5)(0.5 0.5)(0.5 0.5))((0.5 0.5)(0.5 0.5)(0.5 0.5))((0.5 0.5)(0.5 0.5)(0.5 0.5)))))(((((0.5 0.5)(0.5 0.5)(0.5 0.5))((0.5 0.5)(0.5 0.5)(0.5 0.5))((0.5 0.5)(0.5 0.5)(0.5 0.5)))(((0.5 0.5)(0.5 0.5)(0.5 0.5))((0.5 0.5)(0.5 0.5)(0.5 0.5))((0.5 0.5)(0.5 0.5)(0.5 0.5)))(((0.5 0.5)(0.5 0.5)(0.5 0.5))((0.5 0.5)(0.5 0.5)(0.5 0.5))((0.9997943233 0.0002056767)(0.5 0.5)(0.5 0.5))))((((0.5 0.5)(0.5 0.5)(0.5 0.5))((0.5 0.5)(0.5 0.5)(0.5 0.5))((0.5 0.5)(0.5 0.5)(0.5 0.5)))(((0.5 0.5)(0.5 0.5)(0.5 0.5))((0.5 0.5)(0.5 0.5)(0.5 0.5))((0.5 0.5)(0.5 0.5)(0.5 0.5)))(((0.5 0.5)(0.5 0.5)(0.5 0.5))((0.5 0.5)(0.5 0.5)(0.5 0.5))((0.5 0.5)(0.5 0.5)(0.5 0.5))))((((0.5 0.5)(0.5 0.5)(0.5 0.5))((0.5 0.5)(0.5 0.5)(0.5 0.5))((0.5 0.5)(0.5 0.5)(0.5 0.5)))(((0.5 0.5)(0.5 0.5)(0.5 0.5))((0.5 0.5)(0.5 0.5)(0.5 0.5))((0.5 0.5)(0.5 0.5)(0.5 0.5)))(((0.5 0.5)(0.5 0.5)(0.5 0.5))((0.5 0.5)(0.5 0.5)(0.5 0.5))((0.5 0.5)(0.5 0.5)(0.5 0.5)))))) ;
}
potential ( Hsd11b1 | Serpina1d Cbr3 Uox ) 
{
  data = ((((0.9993832871 0.0003083565 0.0003083565)(0.3333333 0.3333333 0.3333333)(0.3333333 0.3333333 0.3333333))((0.3333333 0.3333333 0.3333333)(0.3333333 0.3333333 0.3333333)(0.3333333 0.3333333 0.3333333))((0.3333333 0.3333333 0.3333333)(0.3333333 0.3333333 0.3333333)(0.3333333 0.3333333 0.3333333)))(((0.3333333 0.3333333 0.3333333)(0.3333333 0.3333333 0.3333333)(0.3333333 0.3333333 0.3333333))((0.3333333 0.3333333 0.3333333)(0.3333333 0.3333333 0.3333333)(0.3333333 0.3333333 0.3333333))((0.3333333 0.3333333 0.3333333)(0.001230012 0.997539975 0.001230012)(0.3333333 0.3333333 0.3333333)))(((0.001230012 0.001230012 0.997539975)(0.3333333 0.3333333 0.3333333)(0.3333333 0.3333333 0.3333333))((0.3333333 0.3333333 0.3333333)(0.3333333 0.3333333 0.3333333)(0.3333333 0.3333333 0.3333333))((0.3333333 0.3333333 0.3333333)(0.3333333 0.3333333 0.3333333)(0.3333333 0.3333333 0.3333333)))) ;
}
potential ( Rgn | Slc39a4 Cbr3 Pah Ttr Gstm2 ) 
{
  data = ((((((9.999451e-01 2.743258e-05 2.743258e-05)(0.3333333 0.3333333 0.3333333)(0.3333333 0.3333333 0.3333333))((0.3333333 0.3333333 0.3333333)(0.3333333 0.3333333 0.3333333)(0.3333333 0.3333333 0.3333333))((0.3333333 0.3333333 0.3333333)(0.3333333 0.3333333 0.3333333)(0.3333333 0.3333333 0.3333333)))(((0.3333333 0.3333333 0.3333333)(0.3333333 0.3333333 0.3333333)(0.3333333 0.3333333 0.3333333))((0.3333333 0.3333333 0.3333333)(0.3333333 0.3333333 0.3333333)(0.3333333 0.3333333 0.3333333))((0.3333333 0.3333333 0.3333333)(0.3333333 0.3333333 0.3333333)(0.3333333 0.3333333 0.3333333)))(((0.3333333 0.3333333 0.3333333)(0.3333333 0.3333333 0.3333333)(0.3333333 0.3333333 0.3333333))((0.3333333 0.3333333 0.3333333)(0.3333333 0.3333333 0.3333333)(0.3333333 0.3333333 0.3333333))((0.3333333 0.3333333 0.3333333)(0.3333333 0.3333333 0.3333333)(0.3333333 0.3333333 0.3333333))))((((0.3333333 0.3333333 0.3333333)(0.3333333 0.3333333 0.3333333)(0.3333333 0.3333333 0.3333333))((0.3333333 0.3333333 0.3333333)(0.3333333 0.3333333 0.3333333)(0.3333333 0.3333333 0.3333333))((0.3333333 0.3333333 0.3333333)(0.3333333 0.3333333 0.3333333)(0.3333333 0.3333333 0.3333333)))(((0.3333333 0.3333333 0.3333333)(0.3333333 0.3333333 0.3333333)(0.3333333 0.3333333 0.3333333))((0.3333333 0.3333333 0.3333333)(0.3333333 0.3333333 0.3333333)(0.3333333 0.3333333 0.3333333))((0.3333333 0.3333333 0.3333333)(0.3333333 0.3333333 0.3333333)(0.3333333 0.3333333 0.3333333)))(((0.3333333 0.3333333 0.3333333)(0.3333333 0.3333333 0.3333333)(0.3333333 0.3333333 0.3333333))((0.3333333 0.3333333 0.3333333)(0.3333333 0.3333333 0.3333333)(0.3333333 0.3333333 0.3333333))((0.3333333 0.3333333 0.3333333)(0.3333333 0.3333333 0.3333333)(0.3333333 0.3333333 0.3333333))))((((0.3333333 0.3333333 0.3333333)(0.3333333 0.3333333 0.3333333)(0.3333333 0.3333333 0.3333333))((0.3333333 0.3333333 0.3333333)(0.3333333 0.3333333 0.3333333)(0.3333333 0.3333333 0.3333333))((0.3333333 0.3333333 0.3333333)(0.3333333 0.3333333 0.3333333)(0.3333333 0.3333333 0.3333333)))(((0.3333333 0.3333333 0.3333333)(0.3333333 0.3333333 0.3333333)(0.3333333 0.3333333 0.3333333))((0.3333333 0.3333333 0.3333333)(0.3333333 0.3333333 0.3333333)(0.3333333 0.3333333 0.3333333))((0.3333333 0.3333333 0.3333333)(0.3333333 0.3333333 0.3333333)(0.3333333 0.3333333 0.3333333)))(((0.3333333 0.3333333 0.3333333)(0.3333333 0.3333333 0.3333333)(0.3333333 0.3333333 0.3333333))((0.3333333 0.3333333 0.3333333)(0.3333333 0.3333333 0.3333333)(0.3333333 0.3333333 0.3333333))((0.3333333 0.3333333 0.3333333)(0.3333333 0.3333333 0.3333333)(0.3333333 0.3333333 0.3333333)))))(((((0.3333333 0.3333333 0.3333333)(0.3333333 0.3333333 0.3333333)(0.3333333 0.3333333 0.3333333))((0.3333333 0.3333333 0.3333333)(0.3333333 0.3333333 0.3333333)(0.3333333 0.3333333 0.3333333))((0.3333333 0.3333333 0.3333333)(0.3333333 0.3333333 0.3333333)(0.3333333 0.3333333 0.3333333)))(((0.3333333 0.3333333 0.3333333)(0.3333333 0.3333333 0.3333333)(0.3333333 0.3333333 0.3333333))((0.3333333 0.3333333 0.3333333)(0.3333333 0.3333333 0.3333333)(0.3333333 0.3333333 0.3333333))((0.3333333 0.3333333 0.3333333)(0.3333333 0.3333333 0.3333333)(0.3333333 0.3333333 0.3333333)))(((0.3333333 0.3333333 0.3333333)(0.3333333 0.3333333 0.3333333)(0.3333333 0.3333333 0.3333333))((0.3333333 0.3333333 0.3333333)(0.3333333 0.3333333 0.3333333)(0.3333333 0.3333333 0.3333333))((0.3333333 0.3333333 0.3333333)(0.3333333 0.3333333 0.3333333)(0.3333333 0.3333333 0.3333333))))((((0.3333333 0.3333333 0.3333333)(0.3333333 0.3333333 0.3333333)(0.3333333 0.3333333 0.3333333))((0.3333333 0.3333333 0.3333333)(0.3333333 0.3333333 0.3333333)(0.3333333 0.3333333 0.3333333))((0.3333333 0.3333333 0.3333333)(0.3333333 0.3333333 0.3333333)(0.3333333 0.3333333 0.3333333)))(((0.3333333 0.3333333 0.3333333)(0.3333333 0.3333333 0.3333333)(0.3333333 0.3333333 0.3333333))((0.3333333 0.3333333 0.3333333)(0.3333333 0.3333333 0.3333333)(0.3333333 0.3333333 0.3333333))((0.3333333 0.3333333 0.3333333)(0.3333333 0.3333333 0.3333333)(0.3333333 0.3333333 0.3333333)))(((0.3333333 0.3333333 0.3333333)(0.3333333 0.3333333 0.3333333)(0.3333333 0.3333333 0.3333333))((0.3333333 0.3333333 0.3333333)(0.3333333 0.3333333 0.3333333)(0.3333333 0.3333333 0.3333333))((0.3333333 0.3333333 0.3333333)(0.3333333 0.3333333 0.3333333)(0.3333333 0.3333333 0.3333333))))((((0.3333333 0.3333333 0.3333333)(0.3333333 0.3333333 0.3333333)(0.3333333 0.3333333 0.3333333))((0.3333333 0.3333333 0.3333333)(0.3333333 0.3333333 0.3333333)(0.3333333 0.3333333 0.3333333))((0.3333333 0.3333333 0.3333333)(0.3333333 0.3333333 0.3333333)(0.3333333 0.3333333 0.3333333)))(((0.3333333 0.3333333 0.3333333)(0.3333333 0.3333333 0.3333333)(0.3333333 0.3333333 0.3333333))((0.3333333 0.3333333 0.3333333)(0.3333333 0.3333333 0.3333333)(0.3333333 0.3333333 0.3333333))((0.3333333 0.3333333 0.3333333)(0.3333333 0.3333333 0.3333333)(0.3333333 0.3333333 0.3333333)))(((0.3333333 0.3333333 0.3333333)(0.3333333 0.3333333 0.3333333)(0.3333333 0.3333333 0.3333333))((0.3333333 0.3333333 0.3333333)(0.3333333 0.3333333 0.3333333)(0.3333333 0.3333333 0.3333333))((0.3333333 0.3333333 0.3333333)(0.3333333 0.3333333 0.3333333)(0.3333333 0.3333333 0.3333333)))))(((((0.3333333 0.3333333 0.3333333)(0.3333333 0.3333333 0.3333333)(0.3333333 0.3333333 0.3333333))((0.3333333 0.3333333 0.3333333)(0.3333333 0.3333333 0.3333333)(0.3333333 0.3333333 0.3333333))((0.3333333 0.3333333 0.3333333)(0.3333333 0.3333333 0.3333333)(0.3333333 0.3333333 0.3333333)))(((0.3333333 0.3333333 0.3333333)(0.3333333 0.3333333 0.3333333)(0.3333333 0.3333333 0.3333333))((0.3333333 0.3333333 0.3333333)(0.3333333 0.3333333 0.3333333)(0.3333333 0.3333333 0.3333333))((0.3333333 0.3333333 0.3333333)(0.3333333 0.3333333 0.3333333)(0.3333333 0.3333333 0.3333333)))(((0.3333333 0.3333333 0.3333333)(0.3333333 0.3333333 0.3333333)(0.3333333 0.3333333 0.3333333))((0.3333333 0.3333333 0.3333333)(0.3333333 0.3333333 0.3333333)(0.3333333 0.3333333 0.3333333))((0.3333333 0.3333333 0.3333333)(0.3333333 0.3333333 0.3333333)(0.3333333 0.3333333 0.3333333))))((((0.3333333 0.3333333 0.3333333)(0.3333333 0.3333333 0.3333333)(0.3333333 0.3333333 0.3333333))((0.3333333 0.3333333 0.3333333)(0.3333333 0.3333333 0.3333333)(0.3333333 0.3333333 0.3333333))((0.3333333 0.3333333 0.3333333)(0.3333333 0.3333333 0.3333333)(0.3333333 0.3333333 0.3333333)))(((0.3333333 0.3333333 0.3333333)(0.3333333 0.3333333 0.3333333)(0.3333333 0.3333333 0.3333333))((0.3333333 0.3333333 0.3333333)(0.3333333 0.3333333 0.3333333)(0.3333333 0.3333333 0.3333333))((0.3333333 0.3333333 0.3333333)(0.3333333 0.3333333 0.3333333)(0.3333333 0.3333333 0.3333333)))(((0.3333333 0.3333333 0.3333333)(0.3333333 0.3333333 0.3333333)(0.3333333 0.3333333 0.3333333))((0.3333333 0.3333333 0.3333333)(0.3333333 0.3333333 0.3333333)(0.3333333 0.3333333 0.3333333))((0.3333333 0.3333333 0.3333333)(0.3333333 0.3333333 0.3333333)(0.3333333 0.3333333 0.3333333))))((((0.3333333 0.3333333 0.3333333)(0.3333333 0.3333333 0.3333333)(0.3333333 0.3333333 0.3333333))((0.3333333 0.3333333 0.3333333)(0.3333333 0.3333333 0.3333333)(0.3333333 0.3333333 0.3333333))((0.3333333 0.3333333 0.3333333)(0.3333333 0.3333333 0.3333333)(0.3333333 0.3333333 0.3333333)))(((0.3333333 0.3333333 0.3333333)(0.3333333 0.3333333 0.3333333)(0.3333333 0.3333333 0.3333333))((0.3333333 0.3333333 0.3333333)(0.3333333 0.3333333 0.3333333)(0.0001371178 0.9997257644 0.0001371178))((0.3333333 0.3333333 0.3333333)(0.3333333 0.3333333 0.3333333)(0.3333333 0.3333333 0.3333333)))(((0.3333333 0.3333333 0.3333333)(0.3333333 0.3333333 0.3333333)(0.3333333 0.3333333 0.3333333))((0.3333333 0.3333333 0.3333333)(0.3333333 0.3333333 0.3333333)(0.3333333 0.3333333 0.3333333))((0.3333333 0.3333333 0.3333333)(0.3333333 0.3333333 0.3333333)(0.3333333 0.3333333 0.3333333)))))) ;
}
potential ( Serpina1d | Slc39a11 Adh1 ) 
{
  data = (((0.7989652624 0.0007390983 0.2002956393)(0.3333333 0.3333333 0.3333333)(0.3333333 0.3333333 0.3333333))((0.3333333 0.3333333 0.3333333)(0.3333333 0.3333333 0.3333333)(0.3333333 0.3333333 0.3333333))((0.3333333 0.3333333 0.3333333)(0.003663004 0.992673993 0.003663004)(0.3333333 0.3333333 0.3333333))) ;
}
potential ( Slc39a3 ) 
{
  data = ( 0.825136612 0.005464481 0.169398907 );
}
potential ( Slc39a4 | Slc39a11 Slpi ) 
{
  data = (((0.9985218034 0.0007390983 0.0007390983)(0.3333333 0.3333333 0.3333333)(0.3333333 0.3333333 0.3333333))((0.3333333 0.3333333 0.3333333)(0.3333333 0.3333333 0.3333333)(0.3333333 0.3333333 0.3333333))((0.3333333 0.3333333 0.3333333)(0.3333333 0.3333333 0.3333333)(0.003663004 0.003663004 0.992673993))) ;
}
potential ( Slc39a11 ) 
{
  data = ( 0.825136612 0.005464481 0.169398907 );
}
potential ( Slc39a14 ) 
{
  data = ( 0.825136612 0.005464481 0.169398907 );
}
potential ( Mt3 | Cyp2c68 ) 
{
  data = ((0.796909492 0.002207506 0.200883002)(0.3333333 0.3333333 0.3333333)(0.01075269 0.01075269 0.97849462)) ;
}
potential ( Slc39a2 | Slc39a9 ) 
{
  data = ((0.005464481 0.989071038 0.005464481)(0.989071038 0.005464481 0.005464481)(0.497267760 0.005464481 0.497267760)) ;
}
potential ( Slc39a6 | Dgat2 Gabarapl1 ) 
{
  data = (((0.7989652624 0.0007390983 0.2002956393)(0.3333333 0.3333333 0.3333333)(0.3333333 0.3333333 0.3333333))((0.3333333 0.3333333 0.3333333)(0.3333333 0.3333333 0.3333333)(0.3333333 0.3333333 0.3333333))((0.3333333 0.3333333 0.3333333)(0.3333333 0.3333333 0.3333333)(0.003663004 0.992673993 0.003663004))) ;
}
potential ( Mt4 | Slc39a14 Mt3 ) 
{
  data = (((0.748845799 0.250230840 0.000923361)(0.3333333 0.3333333 0.3333333)(0.003663004 0.003663004 0.992673993))((0.3333333 0.3333333 0.3333333)(0.3333333 0.3333333 0.3333333)(0.3333333 0.3333333 0.3333333))((0.3333333 0.3333333 0.3333333)(0.3333333 0.3333333 0.3333333)(0.992673993 0.003663004 0.003663004))) ;
}
potential ( Slc39a1 | Ly6d COX3 Gm13202 ) 
{
  data = ((((0.9993832871 0.0003083565 0.0003083565)(0.3333333 0.3333333 0.3333333)(0.3333333 0.3333333 0.3333333))((0.3333333 0.3333333 0.3333333)(0.3333333 0.3333333 0.3333333)(0.3333333 0.3333333 0.3333333))((0.3333333 0.3333333 0.3333333)(0.3333333 0.3333333 0.3333333)(0.001230012 0.001230012 0.997539975)))(((0.3333333 0.3333333 0.3333333)(0.3333333 0.3333333 0.3333333)(0.3333333 0.3333333 0.3333333))((0.3333333 0.3333333 0.3333333)(0.3333333 0.3333333 0.3333333)(0.3333333 0.3333333 0.3333333))((0.3333333 0.3333333 0.3333333)(0.3333333 0.3333333 0.3333333)(0.3333333 0.3333333 0.3333333)))(((0.3333333 0.3333333 0.3333333)(0.3333333 0.3333333 0.3333333)(0.3333333 0.3333333 0.3333333))((0.3333333 0.3333333 0.3333333)(0.001230012 0.997539975 0.001230012)(0.3333333 0.3333333 0.3333333))((0.3333333 0.3333333 0.3333333)(0.3333333 0.3333333 0.3333333)(0.3333333 0.3333333 0.3333333)))) ;
}
potential ( Slc30a5 | F10 Ndor1 ) 
{
  data = (((0.748845799 0.000923361 0.250230840)(0.3333333 0.3333333 0.3333333)(0.3333333 0.3333333 0.3333333))((0.3333333 0.3333333 0.3333333)(0.003663004 0.992673993 0.003663004)(0.3333333 0.3333333 0.3333333))((0.3333333 0.3333333 0.3333333)(0.3333333 0.3333333 0.3333333)(0.003663004 0.003663004 0.992673993))) ;
}
potential ( Slc39a5 | Fmo3 ) 
{
  data = ((0.994490358 0.002754821 0.002754821)(0.3333333 0.3333333 0.3333333)(0.005464481 0.497267760 0.497267760)) ;
}
potential ( Hamp2 | Dgat2 Slc39a3 ) 
{
  data = (((0.9985218034 0.0007390983 0.0007390983)(0.3333333 0.3333333 0.3333333)(0.3333333 0.3333333 0.3333333))((0.3333333 0.3333333 0.3333333)(0.3333333 0.3333333 0.3333333)(0.3333333 0.3333333 0.3333333))((0.3333333 0.3333333 0.3333333)(0.3333333 0.3333333 0.3333333)(0.003663004 0.003663004 0.992673993))) ;
}
potential ( Adh1 | Slc39a4 Slc39a11 Pah Uox ) 
{
  data = (((((9.998354e-01 8.228421e-05 8.228421e-05)(0.3333333 0.3333333 0.3333333)(0.3333333 0.3333333 0.3333333))((0.3333333 0.3333333 0.3333333)(0.3333333 0.3333333 0.3333333)(0.3333333 0.3333333 0.3333333))((0.3333333 0.3333333 0.3333333)(0.3333333 0.3333333 0.3333333)(0.3333333 0.3333333 0.3333333)))(((0.3333333 0.3333333 0.3333333)(0.3333333 0.3333333 0.3333333)(0.3333333 0.3333333 0.3333333))((0.3333333 0.3333333 0.3333333)(0.3333333 0.3333333 0.3333333)(0.3333333 0.3333333 0.3333333))((0.3333333 0.3333333 0.3333333)(0.3333333 0.3333333 0.3333333)(0.3333333 0.3333333 0.3333333)))(((0.3333333 0.3333333 0.3333333)(0.3333333 0.3333333 0.3333333)(0.3333333 0.3333333 0.3333333))((0.3333333 0.3333333 0.3333333)(0.3333333 0.3333333 0.3333333)(0.3333333 0.3333333 0.3333333))((0.3333333 0.3333333 0.3333333)(0.3333333 0.3333333 0.3333333)(0.3333333 0.3333333 0.3333333))))((((0.3333333 0.3333333 0.3333333)(0.3333333 0.3333333 0.3333333)(0.3333333 0.3333333 0.3333333))((0.3333333 0.3333333 0.3333333)(0.3333333 0.3333333 0.3333333)(0.3333333 0.3333333 0.3333333))((0.3333333 0.3333333 0.3333333)(0.3333333 0.3333333 0.3333333)(0.3333333 0.3333333 0.3333333)))(((0.3333333 0.3333333 0.3333333)(0.3333333 0.3333333 0.3333333)(0.3333333 0.3333333 0.3333333))((0.3333333 0.3333333 0.3333333)(0.3333333 0.3333333 0.3333333)(0.3333333 0.3333333 0.3333333))((0.3333333 0.3333333 0.3333333)(0.3333333 0.3333333 0.3333333)(0.3333333 0.3333333 0.3333333)))(((0.3333333 0.3333333 0.3333333)(0.3333333 0.3333333 0.3333333)(0.3333333 0.3333333 0.3333333))((0.3333333 0.3333333 0.3333333)(0.3333333 0.3333333 0.3333333)(0.3333333 0.3333333 0.3333333))((0.3333333 0.3333333 0.3333333)(0.3333333 0.3333333 0.3333333)(0.3333333 0.3333333 0.3333333))))((((0.3333333 0.3333333 0.3333333)(0.3333333 0.3333333 0.3333333)(0.3333333 0.3333333 0.3333333))((0.3333333 0.3333333 0.3333333)(0.3333333 0.3333333 0.3333333)(0.3333333 0.3333333 0.3333333))((0.3333333 0.3333333 0.3333333)(0.3333333 0.3333333 0.3333333)(0.3333333 0.3333333 0.3333333)))(((0.3333333 0.3333333 0.3333333)(0.3333333 0.3333333 0.3333333)(0.3333333 0.3333333 0.3333333))((0.3333333 0.3333333 0.3333333)(0.3333333 0.3333333 0.3333333)(0.3333333 0.3333333 0.3333333))((0.3333333 0.3333333 0.3333333)(0.3333333 0.3333333 0.3333333)(0.3333333 0.3333333 0.3333333)))(((0.3333333 0.3333333 0.3333333)(0.3333333 0.3333333 0.3333333)(0.3333333 0.3333333 0.3333333))((0.3333333 0.3333333 0.3333333)(0.0004110152 0.9991779696 0.0004110152)(0.3333333 0.3333333 0.3333333))((0.3333333 0.3333333 0.3333333)(0.3333333 0.3333333 0.3333333)(0.3333333 0.3333333 0.3333333))))) ;
}
potential ( Cbr3 | Slc39a4 Slc39a11 Adh1 Gstm2 ) 
{
  data = (((((9.998354e-01 8.228421e-05 8.228421e-05)(0.3333333 0.3333333 0.3333333)(0.3333333 0.3333333 0.3333333))((0.3333333 0.3333333 0.3333333)(0.3333333 0.3333333 0.3333333)(0.3333333 0.3333333 0.3333333))((0.3333333 0.3333333 0.3333333)(0.3333333 0.3333333 0.3333333)(0.3333333 0.3333333 0.3333333)))(((0.3333333 0.3333333 0.3333333)(0.3333333 0.3333333 0.3333333)(0.3333333 0.3333333 0.3333333))((0.3333333 0.3333333 0.3333333)(0.3333333 0.3333333 0.3333333)(0.3333333 0.3333333 0.3333333))((0.3333333 0.3333333 0.3333333)(0.3333333 0.3333333 0.3333333)(0.3333333 0.3333333 0.3333333)))(((0.3333333 0.3333333 0.3333333)(0.3333333 0.3333333 0.3333333)(0.3333333 0.3333333 0.3333333))((0.3333333 0.3333333 0.3333333)(0.3333333 0.3333333 0.3333333)(0.3333333 0.3333333 0.3333333))((0.3333333 0.3333333 0.3333333)(0.3333333 0.3333333 0.3333333)(0.3333333 0.3333333 0.3333333))))((((0.3333333 0.3333333 0.3333333)(0.3333333 0.3333333 0.3333333)(0.3333333 0.3333333 0.3333333))((0.3333333 0.3333333 0.3333333)(0.3333333 0.3333333 0.3333333)(0.3333333 0.3333333 0.3333333))((0.3333333 0.3333333 0.3333333)(0.3333333 0.3333333 0.3333333)(0.3333333 0.3333333 0.3333333)))(((0.3333333 0.3333333 0.3333333)(0.3333333 0.3333333 0.3333333)(0.3333333 0.3333333 0.3333333))((0.3333333 0.3333333 0.3333333)(0.3333333 0.3333333 0.3333333)(0.3333333 0.3333333 0.3333333))((0.3333333 0.3333333 0.3333333)(0.3333333 0.3333333 0.3333333)(0.3333333 0.3333333 0.3333333)))(((0.3333333 0.3333333 0.3333333)(0.3333333 0.3333333 0.3333333)(0.3333333 0.3333333 0.3333333))((0.3333333 0.3333333 0.3333333)(0.3333333 0.3333333 0.3333333)(0.3333333 0.3333333 0.3333333))((0.3333333 0.3333333 0.3333333)(0.3333333 0.3333333 0.3333333)(0.3333333 0.3333333 0.3333333))))((((0.3333333 0.3333333 0.3333333)(0.3333333 0.3333333 0.3333333)(0.3333333 0.3333333 0.3333333))((0.3333333 0.3333333 0.3333333)(0.3333333 0.3333333 0.3333333)(0.3333333 0.3333333 0.3333333))((0.3333333 0.3333333 0.3333333)(0.3333333 0.3333333 0.3333333)(0.3333333 0.3333333 0.3333333)))(((0.3333333 0.3333333 0.3333333)(0.3333333 0.3333333 0.3333333)(0.3333333 0.3333333 0.3333333))((0.3333333 0.3333333 0.3333333)(0.3333333 0.3333333 0.3333333)(0.3333333 0.3333333 0.3333333))((0.3333333 0.3333333 0.3333333)(0.3333333 0.3333333 0.3333333)(0.3333333 0.3333333 0.3333333)))(((0.3333333 0.3333333 0.3333333)(0.3333333 0.3333333 0.3333333)(0.3333333 0.3333333 0.3333333))((0.3333333 0.3333333 0.3333333)(0.3333333 0.3333333 0.3333333)(0.0004110152 0.0004110152 0.9991779696))((0.3333333 0.3333333 0.3333333)(0.3333333 0.3333333 0.3333333)(0.3333333 0.3333333 0.3333333))))) ;
}
potential ( Pah | Slc39a4 Slc39a11 Ttr Slpi ) 
{
  data = (((((9.998354e-01 8.228421e-05 8.228421e-05)(0.3333333 0.3333333 0.3333333)(0.3333333 0.3333333 0.3333333))((0.3333333 0.3333333 0.3333333)(0.3333333 0.3333333 0.3333333)(0.3333333 0.3333333 0.3333333))((0.3333333 0.3333333 0.3333333)(0.3333333 0.3333333 0.3333333)(0.3333333 0.3333333 0.3333333)))(((0.3333333 0.3333333 0.3333333)(0.3333333 0.3333333 0.3333333)(0.3333333 0.3333333 0.3333333))((0.3333333 0.3333333 0.3333333)(0.3333333 0.3333333 0.3333333)(0.3333333 0.3333333 0.3333333))((0.3333333 0.3333333 0.3333333)(0.3333333 0.3333333 0.3333333)(0.3333333 0.3333333 0.3333333)))(((0.3333333 0.3333333 0.3333333)(0.3333333 0.3333333 0.3333333)(0.3333333 0.3333333 0.3333333))((0.3333333 0.3333333 0.3333333)(0.3333333 0.3333333 0.3333333)(0.3333333 0.3333333 0.3333333))((0.3333333 0.3333333 0.3333333)(0.3333333 0.3333333 0.3333333)(0.3333333 0.3333333 0.3333333))))((((0.3333333 0.3333333 0.3333333)(0.3333333 0.3333333 0.3333333)(0.3333333 0.3333333 0.3333333))((0.3333333 0.3333333 0.3333333)(0.3333333 0.3333333 0.3333333)(0.3333333 0.3333333 0.3333333))((0.3333333 0.3333333 0.3333333)(0.3333333 0.3333333 0.3333333)(0.3333333 0.3333333 0.3333333)))(((0.3333333 0.3333333 0.3333333)(0.3333333 0.3333333 0.3333333)(0.3333333 0.3333333 0.3333333))((0.3333333 0.3333333 0.3333333)(0.3333333 0.3333333 0.3333333)(0.3333333 0.3333333 0.3333333))((0.3333333 0.3333333 0.3333333)(0.3333333 0.3333333 0.3333333)(0.3333333 0.3333333 0.3333333)))(((0.3333333 0.3333333 0.3333333)(0.3333333 0.3333333 0.3333333)(0.3333333 0.3333333 0.3333333))((0.3333333 0.3333333 0.3333333)(0.3333333 0.3333333 0.3333333)(0.3333333 0.3333333 0.3333333))((0.3333333 0.3333333 0.3333333)(0.3333333 0.3333333 0.3333333)(0.3333333 0.3333333 0.3333333))))((((0.3333333 0.3333333 0.3333333)(0.3333333 0.3333333 0.3333333)(0.3333333 0.3333333 0.3333333))((0.3333333 0.3333333 0.3333333)(0.3333333 0.3333333 0.3333333)(0.3333333 0.3333333 0.3333333))((0.3333333 0.3333333 0.3333333)(0.3333333 0.3333333 0.3333333)(0.3333333 0.3333333 0.3333333)))(((0.3333333 0.3333333 0.3333333)(0.3333333 0.3333333 0.3333333)(0.3333333 0.3333333 0.3333333))((0.3333333 0.3333333 0.3333333)(0.3333333 0.3333333 0.3333333)(0.3333333 0.3333333 0.3333333))((0.3333333 0.3333333 0.3333333)(0.3333333 0.3333333 0.3333333)(0.3333333 0.3333333 0.3333333)))(((0.3333333 0.3333333 0.3333333)(0.3333333 0.3333333 0.3333333)(0.3333333 0.3333333 0.3333333))((0.3333333 0.3333333 0.3333333)(0.3333333 0.3333333 0.3333333)(0.0004110152 0.9991779696 0.0004110152))((0.3333333 0.3333333 0.3333333)(0.3333333 0.3333333 0.3333333)(0.3333333 0.3333333 0.3333333))))) ;
}
potential ( Taldo1 | Serpina1d Slc39a4 Azgp1 ) 
{
  data = ((((0.9993832871 0.0003083565 0.0003083565)(0.3333333 0.3333333 0.3333333)(0.3333333 0.3333333 0.3333333))((0.3333333 0.3333333 0.3333333)(0.3333333 0.3333333 0.3333333)(0.3333333 0.3333333 0.3333333))((0.3333333 0.3333333 0.3333333)(0.3333333 0.3333333 0.3333333)(0.3333333 0.3333333 0.3333333)))(((0.3333333 0.3333333 0.3333333)(0.3333333 0.3333333 0.3333333)(0.3333333 0.3333333 0.3333333))((0.3333333 0.3333333 0.3333333)(0.3333333 0.3333333 0.3333333)(0.3333333 0.3333333 0.3333333))((0.3333333 0.3333333 0.3333333)(0.001230012 0.001230012 0.997539975)(0.3333333 0.3333333 0.3333333)))(((0.3333333 0.3333333 0.3333333)(0.3333333 0.3333333 0.3333333)(0.001230012 0.997539975 0.001230012))((0.3333333 0.3333333 0.3333333)(0.3333333 0.3333333 0.3333333)(0.3333333 0.3333333 0.3333333))((0.3333333 0.3333333 0.3333333)(0.3333333 0.3333333 0.3333333)(0.3333333 0.3333333 0.3333333)))) ;
}
potential ( Ttr | Slc39a4 Slc39a11 Gstm2 Slpi ) 
{
  data = (((((9.998354e-01 8.228421e-05 8.228421e-05)(0.3333333 0.3333333 0.3333333)(0.3333333 0.3333333 0.3333333))((0.3333333 0.3333333 0.3333333)(0.3333333 0.3333333 0.3333333)(0.3333333 0.3333333 0.3333333))((0.3333333 0.3333333 0.3333333)(0.3333333 0.3333333 0.3333333)(0.3333333 0.3333333 0.3333333)))(((0.3333333 0.3333333 0.3333333)(0.3333333 0.3333333 0.3333333)(0.3333333 0.3333333 0.3333333))((0.3333333 0.3333333 0.3333333)(0.3333333 0.3333333 0.3333333)(0.3333333 0.3333333 0.3333333))((0.3333333 0.3333333 0.3333333)(0.3333333 0.3333333 0.3333333)(0.3333333 0.3333333 0.3333333)))(((0.3333333 0.3333333 0.3333333)(0.3333333 0.3333333 0.3333333)(0.3333333 0.3333333 0.3333333))((0.3333333 0.3333333 0.3333333)(0.3333333 0.3333333 0.3333333)(0.3333333 0.3333333 0.3333333))((0.3333333 0.3333333 0.3333333)(0.3333333 0.3333333 0.3333333)(0.3333333 0.3333333 0.3333333))))((((0.3333333 0.3333333 0.3333333)(0.3333333 0.3333333 0.3333333)(0.3333333 0.3333333 0.3333333))((0.3333333 0.3333333 0.3333333)(0.3333333 0.3333333 0.3333333)(0.3333333 0.3333333 0.3333333))((0.3333333 0.3333333 0.3333333)(0.3333333 0.3333333 0.3333333)(0.3333333 0.3333333 0.3333333)))(((0.3333333 0.3333333 0.3333333)(0.3333333 0.3333333 0.3333333)(0.3333333 0.3333333 0.3333333))((0.3333333 0.3333333 0.3333333)(0.3333333 0.3333333 0.3333333)(0.3333333 0.3333333 0.3333333))((0.3333333 0.3333333 0.3333333)(0.3333333 0.3333333 0.3333333)(0.3333333 0.3333333 0.3333333)))(((0.3333333 0.3333333 0.3333333)(0.3333333 0.3333333 0.3333333)(0.3333333 0.3333333 0.3333333))((0.3333333 0.3333333 0.3333333)(0.3333333 0.3333333 0.3333333)(0.3333333 0.3333333 0.3333333))((0.3333333 0.3333333 0.3333333)(0.3333333 0.3333333 0.3333333)(0.3333333 0.3333333 0.3333333))))((((0.3333333 0.3333333 0.3333333)(0.3333333 0.3333333 0.3333333)(0.3333333 0.3333333 0.3333333))((0.3333333 0.3333333 0.3333333)(0.3333333 0.3333333 0.3333333)(0.3333333 0.3333333 0.3333333))((0.3333333 0.3333333 0.3333333)(0.3333333 0.3333333 0.3333333)(0.3333333 0.3333333 0.3333333)))(((0.3333333 0.3333333 0.3333333)(0.3333333 0.3333333 0.3333333)(0.3333333 0.3333333 0.3333333))((0.3333333 0.3333333 0.3333333)(0.3333333 0.3333333 0.3333333)(0.3333333 0.3333333 0.3333333))((0.3333333 0.3333333 0.3333333)(0.3333333 0.3333333 0.3333333)(0.3333333 0.3333333 0.3333333)))(((0.3333333 0.3333333 0.3333333)(0.3333333 0.3333333 0.3333333)(0.3333333 0.3333333 0.3333333))((0.3333333 0.3333333 0.3333333)(0.3333333 0.3333333 0.3333333)(0.3333333 0.3333333 0.3333333))((0.3333333 0.3333333 0.3333333)(0.3333333 0.3333333 0.3333333)(0.0004110152 0.9991779696 0.0004110152))))) ;
}
potential ( Uox | Slc39a4 Pah Gstm2 Slpi ) 
{
  data = (((((9.998354e-01 8.228421e-05 8.228421e-05)(0.3333333 0.3333333 0.3333333)(0.3333333 0.3333333 0.3333333))((0.3333333 0.3333333 0.3333333)(0.3333333 0.3333333 0.3333333)(0.3333333 0.3333333 0.3333333))((0.3333333 0.3333333 0.3333333)(0.3333333 0.3333333 0.3333333)(0.3333333 0.3333333 0.3333333)))(((0.3333333 0.3333333 0.3333333)(0.3333333 0.3333333 0.3333333)(0.3333333 0.3333333 0.3333333))((0.3333333 0.3333333 0.3333333)(0.3333333 0.3333333 0.3333333)(0.3333333 0.3333333 0.3333333))((0.3333333 0.3333333 0.3333333)(0.3333333 0.3333333 0.3333333)(0.3333333 0.3333333 0.3333333)))(((0.3333333 0.3333333 0.3333333)(0.3333333 0.3333333 0.3333333)(0.3333333 0.3333333 0.3333333))((0.3333333 0.3333333 0.3333333)(0.3333333 0.3333333 0.3333333)(0.3333333 0.3333333 0.3333333))((0.3333333 0.3333333 0.3333333)(0.3333333 0.3333333 0.3333333)(0.3333333 0.3333333 0.3333333))))((((0.3333333 0.3333333 0.3333333)(0.3333333 0.3333333 0.3333333)(0.3333333 0.3333333 0.3333333))((0.3333333 0.3333333 0.3333333)(0.3333333 0.3333333 0.3333333)(0.3333333 0.3333333 0.3333333))((0.3333333 0.3333333 0.3333333)(0.3333333 0.3333333 0.3333333)(0.3333333 0.3333333 0.3333333)))(((0.3333333 0.3333333 0.3333333)(0.3333333 0.3333333 0.3333333)(0.3333333 0.3333333 0.3333333))((0.3333333 0.3333333 0.3333333)(0.3333333 0.3333333 0.3333333)(0.3333333 0.3333333 0.3333333))((0.3333333 0.3333333 0.3333333)(0.3333333 0.3333333 0.3333333)(0.3333333 0.3333333 0.3333333)))(((0.3333333 0.3333333 0.3333333)(0.3333333 0.3333333 0.3333333)(0.3333333 0.3333333 0.3333333))((0.3333333 0.3333333 0.3333333)(0.3333333 0.3333333 0.3333333)(0.3333333 0.3333333 0.3333333))((0.3333333 0.3333333 0.3333333)(0.3333333 0.3333333 0.3333333)(0.3333333 0.3333333 0.3333333))))((((0.3333333 0.3333333 0.3333333)(0.3333333 0.3333333 0.3333333)(0.3333333 0.3333333 0.3333333))((0.3333333 0.3333333 0.3333333)(0.3333333 0.3333333 0.3333333)(0.3333333 0.3333333 0.3333333))((0.3333333 0.3333333 0.3333333)(0.3333333 0.3333333 0.3333333)(0.3333333 0.3333333 0.3333333)))(((0.3333333 0.3333333 0.3333333)(0.3333333 0.3333333 0.3333333)(0.3333333 0.3333333 0.3333333))((0.3333333 0.3333333 0.3333333)(0.3333333 0.3333333 0.3333333)(0.3333333 0.3333333 0.3333333))((0.3333333 0.3333333 0.3333333)(0.3333333 0.3333333 0.3333333)(0.0004110152 0.9991779696 0.0004110152)))(((0.3333333 0.3333333 0.3333333)(0.3333333 0.3333333 0.3333333)(0.3333333 0.3333333 0.3333333))((0.3333333 0.3333333 0.3333333)(0.3333333 0.3333333 0.3333333)(0.3333333 0.3333333 0.3333333))((0.3333333 0.3333333 0.3333333)(0.3333333 0.3333333 0.3333333)(0.3333333 0.3333333 0.3333333))))) ;
}
potential ( Cyp2d10 | Slc39a11 Gstm2 Slpi Cyp2d11 ) 
{
  data = (((((0.9997257644 0.0001371178 0.0001371178)(0.3333333 0.3333333 0.3333333)(0.0002056344 0.0002056344 0.9995887312))((0.3333333 0.3333333 0.3333333)(0.3333333 0.3333333 0.3333333)(0.3333333 0.3333333 0.3333333))((0.3333333 0.3333333 0.3333333)(0.3333333 0.3333333 0.3333333)(0.3333333 0.3333333 0.3333333)))(((0.3333333 0.3333333 0.3333333)(0.3333333 0.3333333 0.3333333)(0.3333333 0.3333333 0.3333333))((0.3333333 0.3333333 0.3333333)(0.3333333 0.3333333 0.3333333)(0.3333333 0.3333333 0.3333333))((0.3333333 0.3333333 0.3333333)(0.3333333 0.3333333 0.3333333)(0.3333333 0.3333333 0.3333333)))(((0.3333333 0.3333333 0.3333333)(0.3333333 0.3333333 0.3333333)(0.3333333 0.3333333 0.3333333))((0.3333333 0.3333333 0.3333333)(0.3333333 0.3333333 0.3333333)(0.3333333 0.3333333 0.3333333))((0.3333333 0.3333333 0.3333333)(0.3333333 0.3333333 0.3333333)(0.3333333 0.3333333 0.3333333))))((((0.3333333 0.3333333 0.3333333)(0.3333333 0.3333333 0.3333333)(0.3333333 0.3333333 0.3333333))((0.3333333 0.3333333 0.3333333)(0.3333333 0.3333333 0.3333333)(0.3333333 0.3333333 0.3333333))((0.3333333 0.3333333 0.3333333)(0.3333333 0.3333333 0.3333333)(0.3333333 0.3333333 0.3333333)))(((0.3333333 0.3333333 0.3333333)(0.3333333 0.3333333 0.3333333)(0.3333333 0.3333333 0.3333333))((0.3333333 0.3333333 0.3333333)(0.3333333 0.3333333 0.3333333)(0.3333333 0.3333333 0.3333333))((0.3333333 0.3333333 0.3333333)(0.3333333 0.3333333 0.3333333)(0.3333333 0.3333333 0.3333333)))(((0.3333333 0.3333333 0.3333333)(0.3333333 0.3333333 0.3333333)(0.3333333 0.3333333 0.3333333))((0.3333333 0.3333333 0.3333333)(0.3333333 0.3333333 0.3333333)(0.3333333 0.3333333 0.3333333))((0.3333333 0.3333333 0.3333333)(0.3333333 0.3333333 0.3333333)(0.3333333 0.3333333 0.3333333))))((((0.3333333 0.3333333 0.3333333)(0.3333333 0.3333333 0.3333333)(0.3333333 0.3333333 0.3333333))((0.3333333 0.3333333 0.3333333)(0.3333333 0.3333333 0.3333333)(0.3333333 0.3333333 0.3333333))((0.3333333 0.3333333 0.3333333)(0.3333333 0.3333333 0.3333333)(0.3333333 0.3333333 0.3333333)))(((0.3333333 0.3333333 0.3333333)(0.3333333 0.3333333 0.3333333)(0.3333333 0.3333333 0.3333333))((0.3333333 0.3333333 0.3333333)(0.3333333 0.3333333 0.3333333)(0.3333333 0.3333333 0.3333333))((0.3333333 0.3333333 0.3333333)(0.3333333 0.3333333 0.3333333)(0.3333333 0.3333333 0.3333333)))(((0.3333333 0.3333333 0.3333333)(0.3333333 0.3333333 0.3333333)(0.3333333 0.3333333 0.3333333))((0.3333333 0.3333333 0.3333333)(0.3333333 0.3333333 0.3333333)(0.3333333 0.3333333 0.3333333))((0.3333333 0.3333333 0.3333333)(0.0004110152 0.9991779696 0.0004110152)(0.3333333 0.3333333 0.3333333))))) ;
}
potential ( Gstm2 | Slc39a11 Slpi ) 
{
  data = (((0.9985218034 0.0007390983 0.0007390983)(0.3333333 0.3333333 0.3333333)(0.3333333 0.3333333 0.3333333))((0.3333333 0.3333333 0.3333333)(0.3333333 0.3333333 0.3333333)(0.3333333 0.3333333 0.3333333))((0.3333333 0.3333333 0.3333333)(0.3333333 0.3333333 0.3333333)(0.003663004 0.003663004 0.992673993))) ;
}
potential ( Inmt | Hsd11b1 Rgn Slc39a11 ) 
{
  data = ((((0.9993832871 0.0003083565 0.0003083565)(0.3333333 0.3333333 0.3333333)(0.3333333 0.3333333 0.3333333))((0.3333333 0.3333333 0.3333333)(0.3333333 0.3333333 0.3333333)(0.3333333 0.3333333 0.3333333))((0.3333333 0.3333333 0.3333333)(0.3333333 0.3333333 0.3333333)(0.3333333 0.3333333 0.3333333)))(((0.3333333 0.3333333 0.3333333)(0.3333333 0.3333333 0.3333333)(0.3333333 0.3333333 0.3333333))((0.3333333 0.3333333 0.3333333)(0.3333333 0.3333333 0.3333333)(0.001230012 0.997539975 0.001230012))((0.3333333 0.3333333 0.3333333)(0.3333333 0.3333333 0.3333333)(0.3333333 0.3333333 0.3333333)))(((0.001230012 0.001230012 0.997539975)(0.3333333 0.3333333 0.3333333)(0.3333333 0.3333333 0.3333333))((0.3333333 0.3333333 0.3333333)(0.3333333 0.3333333 0.3333333)(0.3333333 0.3333333 0.3333333))((0.3333333 0.3333333 0.3333333)(0.3333333 0.3333333 0.3333333)(0.3333333 0.3333333 0.3333333)))) ;
}
potential ( Slpi | Slc39a11 ) 
{
  data = ((0.995584989 0.002207506 0.002207506)(0.3333333 0.3333333 0.3333333)(0.01075269 0.01075269 0.97849462)) ;
}
potential ( Azgp1 | Hsd11b1 Serpina1d Slc39a4 Inmt ) 
{
  data = (((((0.9997943022 0.0001028489 0.0001028489)(0.3333333 0.3333333 0.3333333)(0.3333333 0.3333333 0.3333333))((0.3333333 0.3333333 0.3333333)(0.3333333 0.3333333 0.3333333)(0.3333333 0.3333333 0.3333333))((0.3333333 0.3333333 0.3333333)(0.3333333 0.3333333 0.3333333)(0.3333333 0.3333333 0.3333333)))(((0.3333333 0.3333333 0.3333333)(0.3333333 0.3333333 0.3333333)(0.3333333 0.3333333 0.3333333))((0.3333333 0.3333333 0.3333333)(0.3333333 0.3333333 0.3333333)(0.3333333 0.3333333 0.3333333))((0.3333333 0.3333333 0.3333333)(0.3333333 0.3333333 0.3333333)(0.3333333 0.3333333 0.3333333)))(((0.3333333 0.3333333 0.3333333)(0.3333333 0.3333333 0.3333333)(0.3333333 0.3333333 0.3333333))((0.3333333 0.3333333 0.3333333)(0.3333333 0.3333333 0.3333333)(0.3333333 0.3333333 0.3333333))((0.3333333 0.3333333 0.3333333)(0.3333333 0.3333333 0.3333333)(0.3333333 0.3333333 0.3333333))))((((0.3333333 0.3333333 0.3333333)(0.3333333 0.3333333 0.3333333)(0.3333333 0.3333333 0.3333333))((0.3333333 0.3333333 0.3333333)(0.3333333 0.3333333 0.3333333)(0.3333333 0.3333333 0.3333333))((0.3333333 0.3333333 0.3333333)(0.3333333 0.3333333 0.3333333)(0.3333333 0.3333333 0.3333333)))(((0.3333333 0.3333333 0.3333333)(0.3333333 0.3333333 0.3333333)(0.3333333 0.3333333 0.3333333))((0.3333333 0.3333333 0.3333333)(0.3333333 0.3333333 0.3333333)(0.3333333 0.3333333 0.3333333))((0.3333333 0.3333333 0.3333333)(0.0004110152 0.9991779696 0.0004110152)(0.3333333 0.3333333 0.3333333)))(((0.3333333 0.3333333 0.3333333)(0.3333333 0.3333333 0.3333333)(0.3333333 0.3333333 0.3333333))((0.3333333 0.3333333 0.3333333)(0.3333333 0.3333333 0.3333333)(0.3333333 0.3333333 0.3333333))((0.3333333 0.3333333 0.3333333)(0.3333333 0.3333333 0.3333333)(0.3333333 0.3333333 0.3333333))))((((0.3333333 0.3333333 0.3333333)(0.3333333 0.3333333 0.3333333)(0.3333333 0.3333333 0.3333333))((0.3333333 0.3333333 0.3333333)(0.3333333 0.3333333 0.3333333)(0.3333333 0.3333333 0.3333333))((0.3333333 0.3333333 0.3333333)(0.3333333 0.3333333 0.3333333)(0.3333333 0.3333333 0.3333333)))(((0.3333333 0.3333333 0.3333333)(0.3333333 0.3333333 0.3333333)(0.3333333 0.3333333 0.3333333))((0.3333333 0.3333333 0.3333333)(0.3333333 0.3333333 0.3333333)(0.3333333 0.3333333 0.3333333))((0.3333333 0.3333333 0.3333333)(0.3333333 0.3333333 0.3333333)(0.3333333 0.3333333 0.3333333)))(((0.3333333 0.3333333 0.3333333)(0.3333333 0.3333333 0.3333333)(0.0004110152 0.0004110152 0.9991779696))((0.3333333 0.3333333 0.3333333)(0.3333333 0.3333333 0.3333333)(0.3333333 0.3333333 0.3333333))((0.3333333 0.3333333 0.3333333)(0.3333333 0.3333333 0.3333333)(0.3333333 0.3333333 0.3333333))))) ;
}
potential ( Cyp2d11 | Hsd11b1 Slc39a14 COX3 ) 
{
  data = ((((0.9991779696 0.0004110152 0.0004110152)(0.3333333 0.3333333 0.3333333)(0.3333333 0.3333333 0.3333333))((0.3333333 0.3333333 0.3333333)(0.3333333 0.3333333 0.3333333)(0.3333333 0.3333333 0.3333333))((0.3333333 0.3333333 0.3333333)(0.3333333 0.3333333 0.3333333)(0.001230012 0.001230012 0.997539975)))(((0.3333333 0.3333333 0.3333333)(0.001230012 0.997539975 0.001230012)(0.3333333 0.3333333 0.3333333))((0.3333333 0.3333333 0.3333333)(0.3333333 0.3333333 0.3333333)(0.3333333 0.3333333 0.3333333))((0.3333333 0.3333333 0.3333333)(0.3333333 0.3333333 0.3333333)(0.3333333 0.3333333 0.3333333)))(((0.001230012 0.001230012 0.997539975)(0.3333333 0.3333333 0.3333333)(0.3333333 0.3333333 0.3333333))((0.3333333 0.3333333 0.3333333)(0.3333333 0.3333333 0.3333333)(0.3333333 0.3333333 0.3333333))((0.3333333 0.3333333 0.3333333)(0.3333333 0.3333333 0.3333333)(0.3333333 0.3333333 0.3333333)))) ;
}
potential ( Ly6d | Rgn Adh1 Uox ) 
{
  data = ((((0.9995065384 0.0002467308 0.0002467308)(0.3333333 0.3333333 0.3333333)(0.3333333 0.3333333 0.3333333))((0.3333333 0.3333333 0.3333333)(0.3333333 0.3333333 0.3333333)(0.3333333 0.3333333 0.3333333))((0.3333333 0.3333333 0.3333333)(0.3333333 0.3333333 0.3333333)(0.3333333 0.3333333 0.3333333)))(((0.3333333 0.3333333 0.3333333)(0.3333333 0.3333333 0.3333333)(0.3333333 0.3333333 0.3333333))((0.3333333 0.3333333 0.3333333)(0.001230012 0.001230012 0.997539975)(0.3333333 0.3333333 0.3333333))((0.3333333 0.3333333 0.3333333)(0.3333333 0.3333333 0.3333333)(0.3333333 0.3333333 0.3333333)))(((0.3333333 0.3333333 0.3333333)(0.3333333 0.3333333 0.3333333)(0.3333333 0.3333333 0.3333333))((0.3333333 0.3333333 0.3333333)(0.3333333 0.3333333 0.3333333)(0.3333333 0.3333333 0.3333333))((0.3333333 0.3333333 0.3333333)(0.3333333 0.3333333 0.3333333)(0.3333333 0.3333333 0.3333333)))) ;
}
potential ( F10 ) 
{
  data = ( 0.6612022 0.1693989 0.1693989 );
}
potential ( Ndor1 | Slc39a14 Ly6d ) 
{
  data = (((0.998153278 0.000923361 0.000923361)(0.3333333 0.3333333 0.3333333)(0.003663004 0.992673993 0.003663004))((0.3333333 0.3333333 0.3333333)(0.3333333 0.3333333 0.3333333)(0.3333333 0.3333333 0.3333333))((0.003663004 0.003663004 0.992673993)(0.3333333 0.3333333 0.3333333)(0.3333333 0.3333333 0.3333333))) ;
}
potential ( COX3 | Gstm2 Ly6d Ndor1 ) 
{
  data = ((((0.9993832871 0.0003083565 0.0003083565)(0.3333333 0.3333333 0.3333333)(0.001230012 0.001230012 0.997539975))((0.3333333 0.3333333 0.3333333)(0.3333333 0.3333333 0.3333333)(0.3333333 0.3333333 0.3333333))((0.3333333 0.3333333 0.3333333)(0.3333333 0.3333333 0.3333333)(0.3333333 0.3333333 0.3333333)))(((0.3333333 0.3333333 0.3333333)(0.3333333 0.3333333 0.3333333)(0.3333333 0.3333333 0.3333333))((0.3333333 0.3333333 0.3333333)(0.3333333 0.3333333 0.3333333)(0.3333333 0.3333333 0.3333333))((0.3333333 0.3333333 0.3333333)(0.3333333 0.3333333 0.3333333)(0.3333333 0.3333333 0.3333333)))(((0.3333333 0.3333333 0.3333333)(0.3333333 0.3333333 0.3333333)(0.3333333 0.3333333 0.3333333))((0.3333333 0.3333333 0.3333333)(0.3333333 0.3333333 0.3333333)(0.3333333 0.3333333 0.3333333))((0.3333333 0.3333333 0.3333333)(0.001230012 0.997539975 0.001230012)(0.3333333 0.3333333 0.3333333)))) ;
}
potential ( Gm13202 | Pah ) 
{
  data = ((0.796909492 0.002207506 0.200883002)(0.01075269 0.97849462 0.01075269)(0.3333333 0.3333333 0.3333333)) ;
}
potential ( Fmo3 | Mt3 ) 
{
  data = ((0.994490358 0.002754821 0.002754821)(0.3333333 0.3333333 0.3333333)(0.005464481 0.005464481 0.989071038)) ;
}
