net 
{ 
}
node Cyp2c68 
{
  states = ( "No Change" "Low" "High" );
}
node Cyp3a11 
{
  states = ( "No Change" "Low" "High" );
}
node Dgat2 
{
  states = ( "No Change" "Low" "High" );
}
node Gabarapl1 
{
  states = ( "No Change" "Low" "High" );
}
node Scp2 
{
  states = ( "No Change" "Low" "High" );
}
node Slc39a9 
{
  states = ( "No Change" "Low" "High" );
}
node Akr1c6 
{
  states = ( "No Change" "Low" "High" );
}
node Atg7KO 
{
  states = ( "Atg7WT" "Atg7KO" );
}
node Hsd11b1 
{
  states = ( "No Change" "Low" "High" );
}
node Rgn 
{
  states = ( "No Change" "Low" "High" );
}
node Serpina1d 
{
  states = ( "No Change" "Low" "High" );
}
node Slc39a3 
{
  states = ( "No Change" "Low" "High" );
}
node Slc39a4 
{
  states = ( "No Change" "Low" "High" );
}
node Slc39a11 
{
  states = ( "No Change" "Low" "High" );
}
node Slc39a14 
{
  states = ( "No Change" "Low" "High" );
}
node Mt3 
{
  states = ( "No Change" "Low" "High" );
}
node Slc39a2 
{
  states = ( "No Change" "Low" "High" );
}
node Slc39a6 
{
  states = ( "No Change" "Low" "High" );
}
node Mt4 
{
  states = ( "No Change" "Low" "High" );
}
node Slc39a1 
{
  states = ( "No Change" "Low" "High" );
}
node Slc30a5 
{
  states = ( "No Change" "Low" "High" );
}
node Slc39a5 
{
  states = ( "No Change" "Low" "High" );
}
node Hamp2 
{
  states = ( "No Change" "Low" "High" );
}
node Adh1 
{
  states = ( "No Change" "Low" "High" );
}
node Cbr3 
{
  states = ( "No Change" "Low" "High" );
}
node Pah 
{
  states = ( "No Change" "Low" "High" );
}
node Taldo1 
{
  states = ( "No Change" "Low" "High" );
}
node Ttr 
{
  states = ( "No Change" "Low" "High" );
}
node Uox 
{
  states = ( "No Change" "Low" "High" );
}
node Cyp2d10 
{
  states = ( "No Change" "Low" "High" );
}
node Gstm2 
{
  states = ( "No Change" "Low" "High" );
}
node Inmt 
{
  states = ( "No Change" "Low" "High" );
}
node Slpi 
{
  states = ( "No Change" "Low" "High" );
}
node Azgp1 
{
  states = ( "No Change" "Low" "High" );
}
node Cyp2d11 
{
  states = ( "No Change" "Low" "High" );
}
node Ly6d 
{
  states = ( "No Change" "Low" "High" );
}
node F10 
{
  states = ( "No Change" "Low" "High" );
}
node Ndor1 
{
  states = ( "No Change" "Low" "High" );
}
node COX3 
{
  states = ( "No Change" "Low" "High" );
}
node Gm13202 
{
  states = ( "No Change" "Low" "High" );
}
node Fmo3 
{
  states = ( "No Change" "Low" "High" );
}
potential ( Cyp2c68 | Dgat2 Gabarapl1 Hamp2 ) 
{
  data = ((((0.99509804 0.00245098 0.00245098)(0.3333333 0.3333333 0.3333333)(0.3333333 0.3333333 0.3333333))((0.3333333 0.3333333 0.3333333)(0.3333333 0.3333333 0.3333333)(0.3333333 0.3333333 0.3333333))((0.3333333 0.3333333 0.3333333)(0.3333333 0.3333333 0.3333333)(0.3333333 0.3333333 0.3333333)))(((0.3333333 0.3333333 0.3333333)(0.3333333 0.3333333 0.3333333)(0.3333333 0.3333333 0.3333333))((0.3333333 0.3333333 0.3333333)(0.3333333 0.3333333 0.3333333)(0.3333333 0.3333333 0.3333333))((0.3333333 0.3333333 0.3333333)(0.3333333 0.3333333 0.3333333)(0.3333333 0.3333333 0.3333333)))(((0.3333333 0.3333333 0.3333333)(0.3333333 0.3333333 0.3333333)(0.3333333 0.3333333 0.3333333))((0.3333333 0.3333333 0.3333333)(0.3333333 0.3333333 0.3333333)(0.3333333 0.3333333 0.3333333))((0.3333333 0.3333333 0.3333333)(0.3333333 0.3333333 0.3333333)(0.01190476 0.01190476 0.97619048)))) ;
}
potential ( Cyp3a11 | Scp2 Cyp2d10 Slpi Ly6d ) 
{
  data = (((((0.99726776 0.00136612 0.00136612)(0.3333333 0.3333333 0.3333333)(0.3333333 0.3333333 0.3333333))((0.3333333 0.3333333 0.3333333)(0.3333333 0.3333333 0.3333333)(0.3333333 0.3333333 0.3333333))((0.3333333 0.3333333 0.3333333)(0.3333333 0.3333333 0.3333333)(0.3333333 0.3333333 0.3333333)))(((0.3333333 0.3333333 0.3333333)(0.3333333 0.3333333 0.3333333)(0.3333333 0.3333333 0.3333333))((0.3333333 0.3333333 0.3333333)(0.3333333 0.3333333 0.3333333)(0.3333333 0.3333333 0.3333333))((0.3333333 0.3333333 0.3333333)(0.3333333 0.3333333 0.3333333)(0.991869919 0.004065041 0.004065041)))(((0.3333333 0.3333333 0.3333333)(0.3333333 0.3333333 0.3333333)(0.3333333 0.3333333 0.3333333))((0.3333333 0.3333333 0.3333333)(0.3333333 0.3333333 0.3333333)(0.3333333 0.3333333 0.3333333))((0.3333333 0.3333333 0.3333333)(0.3333333 0.3333333 0.3333333)(0.3333333 0.3333333 0.3333333))))((((0.3333333 0.3333333 0.3333333)(0.3333333 0.3333333 0.3333333)(0.3333333 0.3333333 0.3333333))((0.3333333 0.3333333 0.3333333)(0.3333333 0.3333333 0.3333333)(0.3333333 0.3333333 0.3333333))((0.3333333 0.3333333 0.3333333)(0.3333333 0.3333333 0.3333333)(0.3333333 0.3333333 0.3333333)))(((0.3333333 0.3333333 0.3333333)(0.3333333 0.3333333 0.3333333)(0.3333333 0.3333333 0.3333333))((0.3333333 0.3333333 0.3333333)(0.3333333 0.3333333 0.3333333)(0.3333333 0.3333333 0.3333333))((0.3333333 0.3333333 0.3333333)(0.3333333 0.3333333 0.3333333)(0.3333333 0.3333333 0.3333333)))(((0.3333333 0.3333333 0.3333333)(0.3333333 0.3333333 0.3333333)(0.3333333 0.3333333 0.3333333))((0.3333333 0.3333333 0.3333333)(0.3333333 0.3333333 0.3333333)(0.3333333 0.3333333 0.3333333))((0.3333333 0.3333333 0.3333333)(0.3333333 0.3333333 0.3333333)(0.3333333 0.3333333 0.3333333))))((((0.3333333 0.3333333 0.3333333)(0.3333333 0.3333333 0.3333333)(0.3333333 0.3333333 0.3333333))((0.3333333 0.3333333 0.3333333)(0.3333333 0.3333333 0.3333333)(0.3333333 0.3333333 0.3333333))((0.3333333 0.3333333 0.3333333)(0.3333333 0.3333333 0.3333333)(0.3333333 0.3333333 0.3333333)))(((0.3333333 0.3333333 0.3333333)(0.3333333 0.3333333 0.3333333)(0.3333333 0.3333333 0.3333333))((0.3333333 0.3333333 0.3333333)(0.3333333 0.3333333 0.3333333)(0.3333333 0.3333333 0.3333333))((0.3333333 0.3333333 0.3333333)(0.3333333 0.3333333 0.3333333)(0.3333333 0.3333333 0.3333333)))(((0.00204499 0.00204499 0.99591002)(0.3333333 0.3333333 0.3333333)(0.3333333 0.3333333 0.3333333))((0.3333333 0.3333333 0.3333333)(0.3333333 0.3333333 0.3333333)(0.3333333 0.3333333 0.3333333))((0.3333333 0.3333333 0.3333333)(0.3333333 0.3333333 0.3333333)(0.3333333 0.3333333 0.3333333))))) ;
}
potential ( Dgat2 | Slc39a3 ) 
{
  data = ((0.95833333 0.02083333 0.02083333)(0.3333333 0.3333333 0.3333333)(0.08333333 0.08333333 0.83333333)) ;
}
potential ( Gabarapl1 | Dgat2 Slc39a3 Hamp2 ) 
{
  data = ((((0.99509804 0.00245098 0.00245098)(0.3333333 0.3333333 0.3333333)(0.3333333 0.3333333 0.3333333))((0.3333333 0.3333333 0.3333333)(0.3333333 0.3333333 0.3333333)(0.3333333 0.3333333 0.3333333))((0.3333333 0.3333333 0.3333333)(0.3333333 0.3333333 0.3333333)(0.3333333 0.3333333 0.3333333)))(((0.3333333 0.3333333 0.3333333)(0.3333333 0.3333333 0.3333333)(0.3333333 0.3333333 0.3333333))((0.3333333 0.3333333 0.3333333)(0.3333333 0.3333333 0.3333333)(0.3333333 0.3333333 0.3333333))((0.3333333 0.3333333 0.3333333)(0.3333333 0.3333333 0.3333333)(0.3333333 0.3333333 0.3333333)))(((0.3333333 0.3333333 0.3333333)(0.3333333 0.3333333 0.3333333)(0.3333333 0.3333333 0.3333333))((0.3333333 0.3333333 0.3333333)(0.3333333 0.3333333 0.3333333)(0.3333333 0.3333333 0.3333333))((0.3333333 0.3333333 0.3333333)(0.3333333 0.3333333 0.3333333)(0.01190476 0.01190476 0.97619048)))) ;
}
potential ( Scp2 ) 
{
  data = ( 0.61904762 0.04761905 0.33333333 );
}
potential ( Slc39a9 | Akr1c6 Atg7KO Hsd11b1 Rgn Serpina1d ) 
{
  data = ((((((0.001025641 0.001025641 0.997948718)(0.3333333 0.3333333 0.3333333)(0.3333333 0.3333333 0.3333333))((0.3333333 0.3333333 0.3333333)(0.3333333 0.3333333 0.3333333)(0.3333333 0.3333333 0.3333333))((0.3333333 0.3333333 0.3333333)(0.3333333 0.3333333 0.3333333)(0.3333333 0.3333333 0.3333333)))(((0.3333333 0.3333333 0.3333333)(0.3333333 0.3333333 0.3333333)(0.3333333 0.3333333 0.3333333))((0.3333333 0.3333333 0.3333333)(0.3333333 0.3333333 0.3333333)(0.3333333 0.3333333 0.3333333))((0.3333333 0.3333333 0.3333333)(0.3333333 0.3333333 0.3333333)(0.3333333 0.3333333 0.3333333)))(((0.3333333 0.3333333 0.3333333)(0.3333333 0.3333333 0.3333333)(0.3333333 0.3333333 0.3333333))((0.3333333 0.3333333 0.3333333)(0.3333333 0.3333333 0.3333333)(0.3333333 0.3333333 0.3333333))((0.3333333 0.3333333 0.3333333)(0.3333333 0.3333333 0.3333333)(0.3333333 0.3333333 0.3333333))))((((0.997948718 0.001025641 0.001025641)(0.3333333 0.3333333 0.3333333)(0.3333333 0.3333333 0.3333333))((0.3333333 0.3333333 0.3333333)(0.3333333 0.3333333 0.3333333)(0.3333333 0.3333333 0.3333333))((0.3333333 0.3333333 0.3333333)(0.3333333 0.3333333 0.3333333)(0.3333333 0.3333333 0.3333333)))(((0.3333333 0.3333333 0.3333333)(0.3333333 0.3333333 0.3333333)(0.3333333 0.3333333 0.3333333))((0.3333333 0.3333333 0.3333333)(0.3333333 0.3333333 0.3333333)(0.3333333 0.3333333 0.3333333))((0.3333333 0.3333333 0.3333333)(0.3333333 0.3333333 0.3333333)(0.3333333 0.3333333 0.3333333)))(((0.3333333 0.3333333 0.3333333)(0.3333333 0.3333333 0.3333333)(0.3333333 0.3333333 0.3333333))((0.3333333 0.3333333 0.3333333)(0.3333333 0.3333333 0.3333333)(0.3333333 0.3333333 0.3333333))((0.3333333 0.3333333 0.3333333)(0.3333333 0.3333333 0.3333333)(0.3333333 0.3333333 0.3333333)))))(((((0.3333333 0.3333333 0.3333333)(0.3333333 0.3333333 0.3333333)(0.3333333 0.3333333 0.3333333))((0.3333333 0.3333333 0.3333333)(0.3333333 0.3333333 0.3333333)(0.3333333 0.3333333 0.3333333))((0.3333333 0.3333333 0.3333333)(0.3333333 0.3333333 0.3333333)(0.3333333 0.3333333 0.3333333)))(((0.3333333 0.3333333 0.3333333)(0.3333333 0.3333333 0.3333333)(0.3333333 0.3333333 0.3333333))((0.3333333 0.3333333 0.3333333)(0.3333333 0.3333333 0.3333333)(0.3333333 0.3333333 0.3333333))((0.3333333 0.3333333 0.3333333)(0.3333333 0.3333333 0.3333333)(0.3333333 0.3333333 0.3333333)))(((0.3333333 0.3333333 0.3333333)(0.3333333 0.3333333 0.3333333)(0.3333333 0.3333333 0.3333333))((0.3333333 0.3333333 0.3333333)(0.3333333 0.3333333 0.3333333)(0.3333333 0.3333333 0.3333333))((0.3333333 0.3333333 0.3333333)(0.3333333 0.3333333 0.3333333)(0.3333333 0.3333333 0.3333333))))((((0.3333333 0.3333333 0.3333333)(0.3333333 0.3333333 0.3333333)(0.3333333 0.3333333 0.3333333))((0.3333333 0.3333333 0.3333333)(0.3333333 0.3333333 0.3333333)(0.3333333 0.3333333 0.3333333))((0.3333333 0.3333333 0.3333333)(0.3333333 0.3333333 0.3333333)(0.3333333 0.3333333 0.3333333)))(((0.3333333 0.3333333 0.3333333)(0.3333333 0.3333333 0.3333333)(0.3333333 0.3333333 0.3333333))((0.3333333 0.3333333 0.3333333)(0.00204499 0.99591002 0.00204499)(0.3333333 0.3333333 0.3333333))((0.3333333 0.3333333 0.3333333)(0.3333333 0.3333333 0.3333333)(0.3333333 0.3333333 0.3333333)))(((0.3333333 0.3333333 0.3333333)(0.3333333 0.3333333 0.3333333)(0.3333333 0.3333333 0.3333333))((0.3333333 0.3333333 0.3333333)(0.3333333 0.3333333 0.3333333)(0.3333333 0.3333333 0.3333333))((0.3333333 0.3333333 0.3333333)(0.3333333 0.3333333 0.3333333)(0.3333333 0.3333333 0.3333333)))))(((((0.3333333 0.3333333 0.3333333)(0.3333333 0.3333333 0.3333333)(0.3333333 0.3333333 0.3333333))((0.3333333 0.3333333 0.3333333)(0.3333333 0.3333333 0.3333333)(0.3333333 0.3333333 0.3333333))((0.3333333 0.3333333 0.3333333)(0.3333333 0.3333333 0.3333333)(0.3333333 0.3333333 0.3333333)))(((0.3333333 0.3333333 0.3333333)(0.3333333 0.3333333 0.3333333)(0.3333333 0.3333333 0.3333333))((0.3333333 0.3333333 0.3333333)(0.3333333 0.3333333 0.3333333)(0.3333333 0.3333333 0.3333333))((0.3333333 0.3333333 0.3333333)(0.3333333 0.3333333 0.3333333)(0.3333333 0.3333333 0.3333333)))(((0.3333333 0.3333333 0.3333333)(0.3333333 0.3333333 0.3333333)(0.00204499 0.99591002 0.00204499))((0.3333333 0.3333333 0.3333333)(0.3333333 0.3333333 0.3333333)(0.3333333 0.3333333 0.3333333))((0.3333333 0.3333333 0.3333333)(0.3333333 0.3333333 0.3333333)(0.3333333 0.3333333 0.3333333))))((((0.3333333 0.3333333 0.3333333)(0.3333333 0.3333333 0.3333333)(0.3333333 0.3333333 0.3333333))((0.3333333 0.3333333 0.3333333)(0.3333333 0.3333333 0.3333333)(0.3333333 0.3333333 0.3333333))((0.3333333 0.3333333 0.3333333)(0.3333333 0.3333333 0.3333333)(0.3333333 0.3333333 0.3333333)))(((0.3333333 0.3333333 0.3333333)(0.3333333 0.3333333 0.3333333)(0.3333333 0.3333333 0.3333333))((0.3333333 0.3333333 0.3333333)(0.3333333 0.3333333 0.3333333)(0.3333333 0.3333333 0.3333333))((0.3333333 0.3333333 0.3333333)(0.3333333 0.3333333 0.3333333)(0.3333333 0.3333333 0.3333333)))(((0.3333333 0.3333333 0.3333333)(0.3333333 0.3333333 0.3333333)(0.3333333 0.3333333 0.3333333))((0.3333333 0.3333333 0.3333333)(0.3333333 0.3333333 0.3333333)(0.3333333 0.3333333 0.3333333))((0.3333333 0.3333333 0.3333333)(0.3333333 0.3333333 0.3333333)(0.3333333 0.3333333 0.3333333)))))) ;
}
potential ( Akr1c6 | Taldo1 Uox Inmt Ly6d ) 
{
  data = (((((0.997948718 0.001025641 0.001025641)(0.3333333 0.3333333 0.3333333)(0.3333333 0.3333333 0.3333333))((0.3333333 0.3333333 0.3333333)(0.3333333 0.3333333 0.3333333)(0.3333333 0.3333333 0.3333333))((0.3333333 0.3333333 0.3333333)(0.3333333 0.3333333 0.3333333)(0.3333333 0.3333333 0.3333333)))(((0.3333333 0.3333333 0.3333333)(0.3333333 0.3333333 0.3333333)(0.3333333 0.3333333 0.3333333))((0.3333333 0.3333333 0.3333333)(0.3333333 0.3333333 0.3333333)(0.3333333 0.3333333 0.3333333))((0.3333333 0.3333333 0.3333333)(0.3333333 0.3333333 0.3333333)(0.3333333 0.3333333 0.3333333)))(((0.3333333 0.3333333 0.3333333)(0.3333333 0.3333333 0.3333333)(0.3333333 0.3333333 0.3333333))((0.3333333 0.3333333 0.3333333)(0.3333333 0.3333333 0.3333333)(0.3333333 0.3333333 0.3333333))((0.3333333 0.3333333 0.3333333)(0.3333333 0.3333333 0.3333333)(0.3333333 0.3333333 0.3333333))))((((0.3333333 0.3333333 0.3333333)(0.3333333 0.3333333 0.3333333)(0.3333333 0.3333333 0.3333333))((0.3333333 0.3333333 0.3333333)(0.3333333 0.3333333 0.3333333)(0.3333333 0.3333333 0.3333333))((0.004065041 0.004065041 0.991869919)(0.3333333 0.3333333 0.3333333)(0.3333333 0.3333333 0.3333333)))(((0.3333333 0.3333333 0.3333333)(0.3333333 0.3333333 0.3333333)(0.3333333 0.3333333 0.3333333))((0.3333333 0.3333333 0.3333333)(0.3333333 0.3333333 0.3333333)(0.3333333 0.3333333 0.3333333))((0.3333333 0.3333333 0.3333333)(0.3333333 0.3333333 0.3333333)(0.3333333 0.3333333 0.3333333)))(((0.3333333 0.3333333 0.3333333)(0.3333333 0.3333333 0.3333333)(0.3333333 0.3333333 0.3333333))((0.3333333 0.3333333 0.3333333)(0.3333333 0.3333333 0.3333333)(0.3333333 0.3333333 0.3333333))((0.3333333 0.3333333 0.3333333)(0.3333333 0.3333333 0.3333333)(0.3333333 0.3333333 0.3333333))))((((0.3333333 0.3333333 0.3333333)(0.3333333 0.3333333 0.3333333)(0.3333333 0.3333333 0.3333333))((0.3333333 0.3333333 0.3333333)(0.3333333 0.3333333 0.3333333)(0.3333333 0.3333333 0.3333333))((0.3333333 0.3333333 0.3333333)(0.3333333 0.3333333 0.3333333)(0.3333333 0.3333333 0.3333333)))(((0.3333333 0.3333333 0.3333333)(0.3333333 0.3333333 0.3333333)(0.3333333 0.3333333 0.3333333))((0.3333333 0.3333333 0.3333333)(0.3333333 0.3333333 0.3333333)(0.004065041 0.991869919 0.004065041))((0.3333333 0.3333333 0.3333333)(0.3333333 0.3333333 0.3333333)(0.3333333 0.3333333 0.3333333)))(((0.3333333 0.3333333 0.3333333)(0.3333333 0.3333333 0.3333333)(0.3333333 0.3333333 0.3333333))((0.3333333 0.3333333 0.3333333)(0.3333333 0.3333333 0.3333333)(0.3333333 0.3333333 0.3333333))((0.3333333 0.3333333 0.3333333)(0.3333333 0.3333333 0.3333333)(0.3333333 0.3333333 0.3333333))))) ;
}
potential ( Atg7KO | Cyp2c68 Cyp3a11 Dgat2 Gabarapl1 Scp2 ) 
{
  data = ((((((0.0006849315 0.9993150685)(0.5 0.5)(0.5 0.5))((0.5 0.5)(0.5 0.5)(0.5 0.5))((0.5 0.5)(0.5 0.5)(0.5 0.5)))(((0.5 0.5)(0.5 0.5)(0.5 0.5))((0.5 0.5)(0.5 0.5)(0.5 0.5))((0.5 0.5)(0.5 0.5)(0.5 0.5)))(((0.5 0.5)(0.5 0.5)(0.5 0.5))((0.5 0.5)(0.5 0.5)(0.5 0.5))((0.5 0.5)(0.5 0.5)(0.5 0.5))))((((0.5 0.5)(0.5 0.5)(0.5 0.5))((0.5 0.5)(0.5 0.5)(0.5 0.5))((0.5 0.5)(0.5 0.5)(0.5 0.5)))(((0.5 0.5)(0.5 0.5)(0.5 0.5))((0.5 0.5)(0.5 0.5)(0.5 0.5))((0.5 0.5)(0.5 0.5)(0.5 0.5)))(((0.5 0.5)(0.5 0.5)(0.5 0.5))((0.5 0.5)(0.5 0.5)(0.5 0.5))((0.5 0.5)(0.5 0.5)(0.5 0.5))))((((0.5 0.5)(0.5 0.5)(0.998973306 0.001026694))((0.5 0.5)(0.5 0.5)(0.5 0.5))((0.5 0.5)(0.5 0.5)(0.5 0.5)))(((0.5 0.5)(0.5 0.5)(0.5 0.5))((0.5 0.5)(0.5 0.5)(0.5 0.5))((0.5 0.5)(0.5 0.5)(0.5 0.5)))(((0.5 0.5)(0.5 0.5)(0.5 0.5))((0.5 0.5)(0.5 0.5)(0.5 0.5))((0.5 0.5)(0.5 0.5)(0.5 0.5)))))(((((0.5 0.5)(0.5 0.5)(0.5 0.5))((0.5 0.5)(0.5 0.5)(0.5 0.5))((0.5 0.5)(0.5 0.5)(0.5 0.5)))(((0.5 0.5)(0.5 0.5)(0.5 0.5))((0.5 0.5)(0.5 0.5)(0.5 0.5))((0.5 0.5)(0.5 0.5)(0.5 0.5)))(((0.5 0.5)(0.5 0.5)(0.5 0.5))((0.5 0.5)(0.5 0.5)(0.5 0.5))((0.5 0.5)(0.5 0.5)(0.5 0.5))))((((0.5 0.5)(0.5 0.5)(0.5 0.5))((0.5 0.5)(0.5 0.5)(0.5 0.5))((0.5 0.5)(0.5 0.5)(0.5 0.5)))(((0.5 0.5)(0.5 0.5)(0.5 0.5))((0.5 0.5)(0.5 0.5)(0.5 0.5))((0.5 0.5)(0.5 0.5)(0.5 0.5)))(((0.5 0.5)(0.5 0.5)(0.5 0.5))((0.5 0.5)(0.5 0.5)(0.5 0.5))((0.5 0.5)(0.5 0.5)(0.5 0.5))))((((0.5 0.5)(0.5 0.5)(0.5 0.5))((0.5 0.5)(0.5 0.5)(0.5 0.5))((0.5 0.5)(0.5 0.5)(0.5 0.5)))(((0.5 0.5)(0.5 0.5)(0.5 0.5))((0.5 0.5)(0.5 0.5)(0.5 0.5))((0.5 0.5)(0.5 0.5)(0.5 0.5)))(((0.5 0.5)(0.5 0.5)(0.5 0.5))((0.5 0.5)(0.5 0.5)(0.5 0.5))((0.5 0.5)(0.5 0.5)(0.5 0.5)))))(((((0.5 0.5)(0.5 0.5)(0.5 0.5))((0.5 0.5)(0.5 0.5)(0.5 0.5))((0.5 0.5)(0.5 0.5)(0.5 0.5)))(((0.5 0.5)(0.5 0.5)(0.5 0.5))((0.5 0.5)(0.5 0.5)(0.5 0.5))((0.5 0.5)(0.5 0.5)(0.5 0.5)))(((0.5 0.5)(0.5 0.5)(0.5 0.5))((0.5 0.5)(0.5 0.5)(0.5 0.5))((0.99795082 0.00204918)(0.5 0.5)(0.5 0.5))))((((0.5 0.5)(0.5 0.5)(0.5 0.5))((0.5 0.5)(0.5 0.5)(0.5 0.5))((0.5 0.5)(0.5 0.5)(0.5 0.5)))(((0.5 0.5)(0.5 0.5)(0.5 0.5))((0.5 0.5)(0.5 0.5)(0.5 0.5))((0.5 0.5)(0.5 0.5)(0.5 0.5)))(((0.5 0.5)(0.5 0.5)(0.5 0.5))((0.5 0.5)(0.5 0.5)(0.5 0.5))((0.5 0.5)(0.5 0.5)(0.5 0.5))))((((0.5 0.5)(0.5 0.5)(0.5 0.5))((0.5 0.5)(0.5 0.5)(0.5 0.5))((0.5 0.5)(0.5 0.5)(0.5 0.5)))(((0.5 0.5)(0.5 0.5)(0.5 0.5))((0.5 0.5)(0.5 0.5)(0.5 0.5))((0.5 0.5)(0.5 0.5)(0.5 0.5)))(((0.5 0.5)(0.5 0.5)(0.5 0.5))((0.5 0.5)(0.5 0.5)(0.5 0.5))((0.5 0.5)(0.5 0.5)(0.5 0.5)))))) ;
}
potential ( Hsd11b1 | Serpina1d Cbr3 Uox ) 
{
  data = ((((0.993883792 0.003058104 0.003058104)(0.3333333 0.3333333 0.3333333)(0.3333333 0.3333333 0.3333333))((0.3333333 0.3333333 0.3333333)(0.3333333 0.3333333 0.3333333)(0.3333333 0.3333333 0.3333333))((0.3333333 0.3333333 0.3333333)(0.3333333 0.3333333 0.3333333)(0.3333333 0.3333333 0.3333333)))(((0.3333333 0.3333333 0.3333333)(0.3333333 0.3333333 0.3333333)(0.3333333 0.3333333 0.3333333))((0.3333333 0.3333333 0.3333333)(0.3333333 0.3333333 0.3333333)(0.3333333 0.3333333 0.3333333))((0.3333333 0.3333333 0.3333333)(0.01190476 0.97619048 0.01190476)(0.3333333 0.3333333 0.3333333)))(((0.01190476 0.01190476 0.97619048)(0.3333333 0.3333333 0.3333333)(0.3333333 0.3333333 0.3333333))((0.3333333 0.3333333 0.3333333)(0.3333333 0.3333333 0.3333333)(0.3333333 0.3333333 0.3333333))((0.3333333 0.3333333 0.3333333)(0.3333333 0.3333333 0.3333333)(0.3333333 0.3333333 0.3333333)))) ;
}
potential ( Rgn | Slc39a4 Cbr3 Pah Ttr Gstm2 ) 
{
  data = ((((((0.9994517544 0.0002741228 0.0002741228)(0.3333333 0.3333333 0.3333333)(0.3333333 0.3333333 0.3333333))((0.3333333 0.3333333 0.3333333)(0.3333333 0.3333333 0.3333333)(0.3333333 0.3333333 0.3333333))((0.3333333 0.3333333 0.3333333)(0.3333333 0.3333333 0.3333333)(0.3333333 0.3333333 0.3333333)))(((0.3333333 0.3333333 0.3333333)(0.3333333 0.3333333 0.3333333)(0.3333333 0.3333333 0.3333333))((0.3333333 0.3333333 0.3333333)(0.3333333 0.3333333 0.3333333)(0.3333333 0.3333333 0.3333333))((0.3333333 0.3333333 0.3333333)(0.3333333 0.3333333 0.3333333)(0.3333333 0.3333333 0.3333333)))(((0.3333333 0.3333333 0.3333333)(0.3333333 0.3333333 0.3333333)(0.3333333 0.3333333 0.3333333))((0.3333333 0.3333333 0.3333333)(0.3333333 0.3333333 0.3333333)(0.3333333 0.3333333 0.3333333))((0.3333333 0.3333333 0.3333333)(0.3333333 0.3333333 0.3333333)(0.3333333 0.3333333 0.3333333))))((((0.3333333 0.3333333 0.3333333)(0.3333333 0.3333333 0.3333333)(0.3333333 0.3333333 0.3333333))((0.3333333 0.3333333 0.3333333)(0.3333333 0.3333333 0.3333333)(0.3333333 0.3333333 0.3333333))((0.3333333 0.3333333 0.3333333)(0.3333333 0.3333333 0.3333333)(0.3333333 0.3333333 0.3333333)))(((0.3333333 0.3333333 0.3333333)(0.3333333 0.3333333 0.3333333)(0.3333333 0.3333333 0.3333333))((0.3333333 0.3333333 0.3333333)(0.3333333 0.3333333 0.3333333)(0.3333333 0.3333333 0.3333333))((0.3333333 0.3333333 0.3333333)(0.3333333 0.3333333 0.3333333)(0.3333333 0.3333333 0.3333333)))(((0.3333333 0.3333333 0.3333333)(0.3333333 0.3333333 0.3333333)(0.3333333 0.3333333 0.3333333))((0.3333333 0.3333333 0.3333333)(0.3333333 0.3333333 0.3333333)(0.3333333 0.3333333 0.3333333))((0.3333333 0.3333333 0.3333333)(0.3333333 0.3333333 0.3333333)(0.3333333 0.3333333 0.3333333))))((((0.3333333 0.3333333 0.3333333)(0.3333333 0.3333333 0.3333333)(0.3333333 0.3333333 0.3333333))((0.3333333 0.3333333 0.3333333)(0.3333333 0.3333333 0.3333333)(0.3333333 0.3333333 0.3333333))((0.3333333 0.3333333 0.3333333)(0.3333333 0.3333333 0.3333333)(0.3333333 0.3333333 0.3333333)))(((0.3333333 0.3333333 0.3333333)(0.3333333 0.3333333 0.3333333)(0.3333333 0.3333333 0.3333333))((0.3333333 0.3333333 0.3333333)(0.3333333 0.3333333 0.3333333)(0.3333333 0.3333333 0.3333333))((0.3333333 0.3333333 0.3333333)(0.3333333 0.3333333 0.3333333)(0.3333333 0.3333333 0.3333333)))(((0.3333333 0.3333333 0.3333333)(0.3333333 0.3333333 0.3333333)(0.3333333 0.3333333 0.3333333))((0.3333333 0.3333333 0.3333333)(0.3333333 0.3333333 0.3333333)(0.3333333 0.3333333 0.3333333))((0.3333333 0.3333333 0.3333333)(0.3333333 0.3333333 0.3333333)(0.3333333 0.3333333 0.3333333)))))(((((0.3333333 0.3333333 0.3333333)(0.3333333 0.3333333 0.3333333)(0.3333333 0.3333333 0.3333333))((0.3333333 0.3333333 0.3333333)(0.3333333 0.3333333 0.3333333)(0.3333333 0.3333333 0.3333333))((0.3333333 0.3333333 0.3333333)(0.3333333 0.3333333 0.3333333)(0.3333333 0.3333333 0.3333333)))(((0.3333333 0.3333333 0.3333333)(0.3333333 0.3333333 0.3333333)(0.3333333 0.3333333 0.3333333))((0.3333333 0.3333333 0.3333333)(0.3333333 0.3333333 0.3333333)(0.3333333 0.3333333 0.3333333))((0.3333333 0.3333333 0.3333333)(0.3333333 0.3333333 0.3333333)(0.3333333 0.3333333 0.3333333)))(((0.3333333 0.3333333 0.3333333)(0.3333333 0.3333333 0.3333333)(0.3333333 0.3333333 0.3333333))((0.3333333 0.3333333 0.3333333)(0.3333333 0.3333333 0.3333333)(0.3333333 0.3333333 0.3333333))((0.3333333 0.3333333 0.3333333)(0.3333333 0.3333333 0.3333333)(0.3333333 0.3333333 0.3333333))))((((0.3333333 0.3333333 0.3333333)(0.3333333 0.3333333 0.3333333)(0.3333333 0.3333333 0.3333333))((0.3333333 0.3333333 0.3333333)(0.3333333 0.3333333 0.3333333)(0.3333333 0.3333333 0.3333333))((0.3333333 0.3333333 0.3333333)(0.3333333 0.3333333 0.3333333)(0.3333333 0.3333333 0.3333333)))(((0.3333333 0.3333333 0.3333333)(0.3333333 0.3333333 0.3333333)(0.3333333 0.3333333 0.3333333))((0.3333333 0.3333333 0.3333333)(0.3333333 0.3333333 0.3333333)(0.3333333 0.3333333 0.3333333))((0.3333333 0.3333333 0.3333333)(0.3333333 0.3333333 0.3333333)(0.3333333 0.3333333 0.3333333)))(((0.3333333 0.3333333 0.3333333)(0.3333333 0.3333333 0.3333333)(0.3333333 0.3333333 0.3333333))((0.3333333 0.3333333 0.3333333)(0.3333333 0.3333333 0.3333333)(0.3333333 0.3333333 0.3333333))((0.3333333 0.3333333 0.3333333)(0.3333333 0.3333333 0.3333333)(0.3333333 0.3333333 0.3333333))))((((0.3333333 0.3333333 0.3333333)(0.3333333 0.3333333 0.3333333)(0.3333333 0.3333333 0.3333333))((0.3333333 0.3333333 0.3333333)(0.3333333 0.3333333 0.3333333)(0.3333333 0.3333333 0.3333333))((0.3333333 0.3333333 0.3333333)(0.3333333 0.3333333 0.3333333)(0.3333333 0.3333333 0.3333333)))(((0.3333333 0.3333333 0.3333333)(0.3333333 0.3333333 0.3333333)(0.3333333 0.3333333 0.3333333))((0.3333333 0.3333333 0.3333333)(0.3333333 0.3333333 0.3333333)(0.3333333 0.3333333 0.3333333))((0.3333333 0.3333333 0.3333333)(0.3333333 0.3333333 0.3333333)(0.3333333 0.3333333 0.3333333)))(((0.3333333 0.3333333 0.3333333)(0.3333333 0.3333333 0.3333333)(0.3333333 0.3333333 0.3333333))((0.3333333 0.3333333 0.3333333)(0.3333333 0.3333333 0.3333333)(0.3333333 0.3333333 0.3333333))((0.3333333 0.3333333 0.3333333)(0.3333333 0.3333333 0.3333333)(0.3333333 0.3333333 0.3333333)))))(((((0.3333333 0.3333333 0.3333333)(0.3333333 0.3333333 0.3333333)(0.3333333 0.3333333 0.3333333))((0.3333333 0.3333333 0.3333333)(0.3333333 0.3333333 0.3333333)(0.3333333 0.3333333 0.3333333))((0.3333333 0.3333333 0.3333333)(0.3333333 0.3333333 0.3333333)(0.3333333 0.3333333 0.3333333)))(((0.3333333 0.3333333 0.3333333)(0.3333333 0.3333333 0.3333333)(0.3333333 0.3333333 0.3333333))((0.3333333 0.3333333 0.3333333)(0.3333333 0.3333333 0.3333333)(0.3333333 0.3333333 0.3333333))((0.3333333 0.3333333 0.3333333)(0.3333333 0.3333333 0.3333333)(0.3333333 0.3333333 0.3333333)))(((0.3333333 0.3333333 0.3333333)(0.3333333 0.3333333 0.3333333)(0.3333333 0.3333333 0.3333333))((0.3333333 0.3333333 0.3333333)(0.3333333 0.3333333 0.3333333)(0.3333333 0.3333333 0.3333333))((0.3333333 0.3333333 0.3333333)(0.3333333 0.3333333 0.3333333)(0.3333333 0.3333333 0.3333333))))((((0.3333333 0.3333333 0.3333333)(0.3333333 0.3333333 0.3333333)(0.3333333 0.3333333 0.3333333))((0.3333333 0.3333333 0.3333333)(0.3333333 0.3333333 0.3333333)(0.3333333 0.3333333 0.3333333))((0.3333333 0.3333333 0.3333333)(0.3333333 0.3333333 0.3333333)(0.3333333 0.3333333 0.3333333)))(((0.3333333 0.3333333 0.3333333)(0.3333333 0.3333333 0.3333333)(0.3333333 0.3333333 0.3333333))((0.3333333 0.3333333 0.3333333)(0.3333333 0.3333333 0.3333333)(0.3333333 0.3333333 0.3333333))((0.3333333 0.3333333 0.3333333)(0.3333333 0.3333333 0.3333333)(0.3333333 0.3333333 0.3333333)))(((0.3333333 0.3333333 0.3333333)(0.3333333 0.3333333 0.3333333)(0.3333333 0.3333333 0.3333333))((0.3333333 0.3333333 0.3333333)(0.3333333 0.3333333 0.3333333)(0.3333333 0.3333333 0.3333333))((0.3333333 0.3333333 0.3333333)(0.3333333 0.3333333 0.3333333)(0.3333333 0.3333333 0.3333333))))((((0.3333333 0.3333333 0.3333333)(0.3333333 0.3333333 0.3333333)(0.3333333 0.3333333 0.3333333))((0.3333333 0.3333333 0.3333333)(0.3333333 0.3333333 0.3333333)(0.3333333 0.3333333 0.3333333))((0.3333333 0.3333333 0.3333333)(0.3333333 0.3333333 0.3333333)(0.3333333 0.3333333 0.3333333)))(((0.3333333 0.3333333 0.3333333)(0.3333333 0.3333333 0.3333333)(0.3333333 0.3333333 0.3333333))((0.3333333 0.3333333 0.3333333)(0.3333333 0.3333333 0.3333333)(0.00136612 0.99726776 0.00136612))((0.3333333 0.3333333 0.3333333)(0.3333333 0.3333333 0.3333333)(0.3333333 0.3333333 0.3333333)))(((0.3333333 0.3333333 0.3333333)(0.3333333 0.3333333 0.3333333)(0.3333333 0.3333333 0.3333333))((0.3333333 0.3333333 0.3333333)(0.3333333 0.3333333 0.3333333)(0.3333333 0.3333333 0.3333333))((0.3333333 0.3333333 0.3333333)(0.3333333 0.3333333 0.3333333)(0.3333333 0.3333333 0.3333333)))))) ;
}
potential ( Serpina1d | Slc39a11 Adh1 ) 
{
  data = (((0.789855072 0.007246377 0.202898551)(0.3333333 0.3333333 0.3333333)(0.3333333 0.3333333 0.3333333))((0.3333333 0.3333333 0.3333333)(0.3333333 0.3333333 0.3333333)(0.3333333 0.3333333 0.3333333))((0.3333333 0.3333333 0.3333333)(0.03333333 0.93333333 0.03333333)(0.3333333 0.3333333 0.3333333))) ;
}
potential ( Slc39a3 ) 
{
  data = ( 0.76190476 0.04761905 0.19047619 );
}
potential ( Slc39a4 | Slc39a11 Slpi ) 
{
  data = (((0.985507246 0.007246377 0.007246377)(0.3333333 0.3333333 0.3333333)(0.3333333 0.3333333 0.3333333))((0.3333333 0.3333333 0.3333333)(0.3333333 0.3333333 0.3333333)(0.3333333 0.3333333 0.3333333))((0.3333333 0.3333333 0.3333333)(0.3333333 0.3333333 0.3333333)(0.03333333 0.03333333 0.93333333))) ;
}
potential ( Slc39a11 ) 
{
  data = ( 0.76190476 0.04761905 0.19047619 );
}
potential ( Slc39a14 ) 
{
  data = ( 0.76190476 0.04761905 0.19047619 );
}
potential ( Mt3 | Cyp2c68 ) 
{
  data = ((0.77083333 0.02083333 0.20833333)(0.3333333 0.3333333 0.3333333)(0.08333333 0.08333333 0.83333333)) ;
}
potential ( Slc39a2 | Slc39a9 ) 
{
  data = ((0.04761905 0.90476190 0.04761905)(0.90476190 0.04761905 0.04761905)(0.47619048 0.04761905 0.47619048)) ;
}
potential ( Slc39a6 | Dgat2 Gabarapl1 ) 
{
  data = (((0.789855072 0.007246377 0.202898551)(0.3333333 0.3333333 0.3333333)(0.3333333 0.3333333 0.3333333))((0.3333333 0.3333333 0.3333333)(0.3333333 0.3333333 0.3333333)(0.3333333 0.3333333 0.3333333))((0.3333333 0.3333333 0.3333333)(0.3333333 0.3333333 0.3333333)(0.03333333 0.93333333 0.03333333))) ;
}
potential ( Mt4 | Slc39a14 Mt3 ) 
{
  data = (((0.738738739 0.252252252 0.009009009)(0.3333333 0.3333333 0.3333333)(0.03333333 0.03333333 0.93333333))((0.3333333 0.3333333 0.3333333)(0.3333333 0.3333333 0.3333333)(0.3333333 0.3333333 0.3333333))((0.3333333 0.3333333 0.3333333)(0.3333333 0.3333333 0.3333333)(0.93333333 0.03333333 0.03333333))) ;
}
potential ( Slc39a1 | Ly6d COX3 Gm13202 ) 
{
  data = ((((0.993883792 0.003058104 0.003058104)(0.3333333 0.3333333 0.3333333)(0.3333333 0.3333333 0.3333333))((0.3333333 0.3333333 0.3333333)(0.3333333 0.3333333 0.3333333)(0.3333333 0.3333333 0.3333333))((0.3333333 0.3333333 0.3333333)(0.3333333 0.3333333 0.3333333)(0.01190476 0.01190476 0.97619048)))(((0.3333333 0.3333333 0.3333333)(0.3333333 0.3333333 0.3333333)(0.3333333 0.3333333 0.3333333))((0.3333333 0.3333333 0.3333333)(0.3333333 0.3333333 0.3333333)(0.3333333 0.3333333 0.3333333))((0.3333333 0.3333333 0.3333333)(0.3333333 0.3333333 0.3333333)(0.3333333 0.3333333 0.3333333)))(((0.3333333 0.3333333 0.3333333)(0.3333333 0.3333333 0.3333333)(0.3333333 0.3333333 0.3333333))((0.3333333 0.3333333 0.3333333)(0.01190476 0.97619048 0.01190476)(0.3333333 0.3333333 0.3333333))((0.3333333 0.3333333 0.3333333)(0.3333333 0.3333333 0.3333333)(0.3333333 0.3333333 0.3333333)))) ;
}
potential ( Slc30a5 | F10 Ndor1 ) 
{
  data = (((0.738738739 0.009009009 0.252252252)(0.3333333 0.3333333 0.3333333)(0.3333333 0.3333333 0.3333333))((0.3333333 0.3333333 0.3333333)(0.03333333 0.93333333 0.03333333)(0.3333333 0.3333333 0.3333333))((0.3333333 0.3333333 0.3333333)(0.3333333 0.3333333 0.3333333)(0.03333333 0.03333333 0.93333333))) ;
}
potential ( Slc39a5 | Fmo3 ) 
{
  data = ((0.94871795 0.02564103 0.02564103)(0.3333333 0.3333333 0.3333333)(0.04761905 0.47619048 0.47619048)) ;
}
potential ( Hamp2 | Dgat2 Slc39a3 ) 
{
  data = (((0.985507246 0.007246377 0.007246377)(0.3333333 0.3333333 0.3333333)(0.3333333 0.3333333 0.3333333))((0.3333333 0.3333333 0.3333333)(0.3333333 0.3333333 0.3333333)(0.3333333 0.3333333 0.3333333))((0.3333333 0.3333333 0.3333333)(0.3333333 0.3333333 0.3333333)(0.03333333 0.03333333 0.93333333))) ;
}
potential ( Adh1 | Slc39a4 Slc39a11 Pah Uox ) 
{
  data = (((((0.9983579639 0.0008210181 0.0008210181)(0.3333333 0.3333333 0.3333333)(0.3333333 0.3333333 0.3333333))((0.3333333 0.3333333 0.3333333)(0.3333333 0.3333333 0.3333333)(0.3333333 0.3333333 0.3333333))((0.3333333 0.3333333 0.3333333)(0.3333333 0.3333333 0.3333333)(0.3333333 0.3333333 0.3333333)))(((0.3333333 0.3333333 0.3333333)(0.3333333 0.3333333 0.3333333)(0.3333333 0.3333333 0.3333333))((0.3333333 0.3333333 0.3333333)(0.3333333 0.3333333 0.3333333)(0.3333333 0.3333333 0.3333333))((0.3333333 0.3333333 0.3333333)(0.3333333 0.3333333 0.3333333)(0.3333333 0.3333333 0.3333333)))(((0.3333333 0.3333333 0.3333333)(0.3333333 0.3333333 0.3333333)(0.3333333 0.3333333 0.3333333))((0.3333333 0.3333333 0.3333333)(0.3333333 0.3333333 0.3333333)(0.3333333 0.3333333 0.3333333))((0.3333333 0.3333333 0.3333333)(0.3333333 0.3333333 0.3333333)(0.3333333 0.3333333 0.3333333))))((((0.3333333 0.3333333 0.3333333)(0.3333333 0.3333333 0.3333333)(0.3333333 0.3333333 0.3333333))((0.3333333 0.3333333 0.3333333)(0.3333333 0.3333333 0.3333333)(0.3333333 0.3333333 0.3333333))((0.3333333 0.3333333 0.3333333)(0.3333333 0.3333333 0.3333333)(0.3333333 0.3333333 0.3333333)))(((0.3333333 0.3333333 0.3333333)(0.3333333 0.3333333 0.3333333)(0.3333333 0.3333333 0.3333333))((0.3333333 0.3333333 0.3333333)(0.3333333 0.3333333 0.3333333)(0.3333333 0.3333333 0.3333333))((0.3333333 0.3333333 0.3333333)(0.3333333 0.3333333 0.3333333)(0.3333333 0.3333333 0.3333333)))(((0.3333333 0.3333333 0.3333333)(0.3333333 0.3333333 0.3333333)(0.3333333 0.3333333 0.3333333))((0.3333333 0.3333333 0.3333333)(0.3333333 0.3333333 0.3333333)(0.3333333 0.3333333 0.3333333))((0.3333333 0.3333333 0.3333333)(0.3333333 0.3333333 0.3333333)(0.3333333 0.3333333 0.3333333))))((((0.3333333 0.3333333 0.3333333)(0.3333333 0.3333333 0.3333333)(0.3333333 0.3333333 0.3333333))((0.3333333 0.3333333 0.3333333)(0.3333333 0.3333333 0.3333333)(0.3333333 0.3333333 0.3333333))((0.3333333 0.3333333 0.3333333)(0.3333333 0.3333333 0.3333333)(0.3333333 0.3333333 0.3333333)))(((0.3333333 0.3333333 0.3333333)(0.3333333 0.3333333 0.3333333)(0.3333333 0.3333333 0.3333333))((0.3333333 0.3333333 0.3333333)(0.3333333 0.3333333 0.3333333)(0.3333333 0.3333333 0.3333333))((0.3333333 0.3333333 0.3333333)(0.3333333 0.3333333 0.3333333)(0.3333333 0.3333333 0.3333333)))(((0.3333333 0.3333333 0.3333333)(0.3333333 0.3333333 0.3333333)(0.3333333 0.3333333 0.3333333))((0.3333333 0.3333333 0.3333333)(0.004065041 0.991869919 0.004065041)(0.3333333 0.3333333 0.3333333))((0.3333333 0.3333333 0.3333333)(0.3333333 0.3333333 0.3333333)(0.3333333 0.3333333 0.3333333))))) ;
}
potential ( Cbr3 | Slc39a4 Slc39a11 Adh1 Gstm2 ) 
{
  data = (((((0.9983579639 0.0008210181 0.0008210181)(0.3333333 0.3333333 0.3333333)(0.3333333 0.3333333 0.3333333))((0.3333333 0.3333333 0.3333333)(0.3333333 0.3333333 0.3333333)(0.3333333 0.3333333 0.3333333))((0.3333333 0.3333333 0.3333333)(0.3333333 0.3333333 0.3333333)(0.3333333 0.3333333 0.3333333)))(((0.3333333 0.3333333 0.3333333)(0.3333333 0.3333333 0.3333333)(0.3333333 0.3333333 0.3333333))((0.3333333 0.3333333 0.3333333)(0.3333333 0.3333333 0.3333333)(0.3333333 0.3333333 0.3333333))((0.3333333 0.3333333 0.3333333)(0.3333333 0.3333333 0.3333333)(0.3333333 0.3333333 0.3333333)))(((0.3333333 0.3333333 0.3333333)(0.3333333 0.3333333 0.3333333)(0.3333333 0.3333333 0.3333333))((0.3333333 0.3333333 0.3333333)(0.3333333 0.3333333 0.3333333)(0.3333333 0.3333333 0.3333333))((0.3333333 0.3333333 0.3333333)(0.3333333 0.3333333 0.3333333)(0.3333333 0.3333333 0.3333333))))((((0.3333333 0.3333333 0.3333333)(0.3333333 0.3333333 0.3333333)(0.3333333 0.3333333 0.3333333))((0.3333333 0.3333333 0.3333333)(0.3333333 0.3333333 0.3333333)(0.3333333 0.3333333 0.3333333))((0.3333333 0.3333333 0.3333333)(0.3333333 0.3333333 0.3333333)(0.3333333 0.3333333 0.3333333)))(((0.3333333 0.3333333 0.3333333)(0.3333333 0.3333333 0.3333333)(0.3333333 0.3333333 0.3333333))((0.3333333 0.3333333 0.3333333)(0.3333333 0.3333333 0.3333333)(0.3333333 0.3333333 0.3333333))((0.3333333 0.3333333 0.3333333)(0.3333333 0.3333333 0.3333333)(0.3333333 0.3333333 0.3333333)))(((0.3333333 0.3333333 0.3333333)(0.3333333 0.3333333 0.3333333)(0.3333333 0.3333333 0.3333333))((0.3333333 0.3333333 0.3333333)(0.3333333 0.3333333 0.3333333)(0.3333333 0.3333333 0.3333333))((0.3333333 0.3333333 0.3333333)(0.3333333 0.3333333 0.3333333)(0.3333333 0.3333333 0.3333333))))((((0.3333333 0.3333333 0.3333333)(0.3333333 0.3333333 0.3333333)(0.3333333 0.3333333 0.3333333))((0.3333333 0.3333333 0.3333333)(0.3333333 0.3333333 0.3333333)(0.3333333 0.3333333 0.3333333))((0.3333333 0.3333333 0.3333333)(0.3333333 0.3333333 0.3333333)(0.3333333 0.3333333 0.3333333)))(((0.3333333 0.3333333 0.3333333)(0.3333333 0.3333333 0.3333333)(0.3333333 0.3333333 0.3333333))((0.3333333 0.3333333 0.3333333)(0.3333333 0.3333333 0.3333333)(0.3333333 0.3333333 0.3333333))((0.3333333 0.3333333 0.3333333)(0.3333333 0.3333333 0.3333333)(0.3333333 0.3333333 0.3333333)))(((0.3333333 0.3333333 0.3333333)(0.3333333 0.3333333 0.3333333)(0.3333333 0.3333333 0.3333333))((0.3333333 0.3333333 0.3333333)(0.3333333 0.3333333 0.3333333)(0.004065041 0.004065041 0.991869919))((0.3333333 0.3333333 0.3333333)(0.3333333 0.3333333 0.3333333)(0.3333333 0.3333333 0.3333333))))) ;
}
potential ( Pah | Slc39a4 Slc39a11 Ttr Slpi ) 
{
  data = (((((0.9983579639 0.0008210181 0.0008210181)(0.3333333 0.3333333 0.3333333)(0.3333333 0.3333333 0.3333333))((0.3333333 0.3333333 0.3333333)(0.3333333 0.3333333 0.3333333)(0.3333333 0.3333333 0.3333333))((0.3333333 0.3333333 0.3333333)(0.3333333 0.3333333 0.3333333)(0.3333333 0.3333333 0.3333333)))(((0.3333333 0.3333333 0.3333333)(0.3333333 0.3333333 0.3333333)(0.3333333 0.3333333 0.3333333))((0.3333333 0.3333333 0.3333333)(0.3333333 0.3333333 0.3333333)(0.3333333 0.3333333 0.3333333))((0.3333333 0.3333333 0.3333333)(0.3333333 0.3333333 0.3333333)(0.3333333 0.3333333 0.3333333)))(((0.3333333 0.3333333 0.3333333)(0.3333333 0.3333333 0.3333333)(0.3333333 0.3333333 0.3333333))((0.3333333 0.3333333 0.3333333)(0.3333333 0.3333333 0.3333333)(0.3333333 0.3333333 0.3333333))((0.3333333 0.3333333 0.3333333)(0.3333333 0.3333333 0.3333333)(0.3333333 0.3333333 0.3333333))))((((0.3333333 0.3333333 0.3333333)(0.3333333 0.3333333 0.3333333)(0.3333333 0.3333333 0.3333333))((0.3333333 0.3333333 0.3333333)(0.3333333 0.3333333 0.3333333)(0.3333333 0.3333333 0.3333333))((0.3333333 0.3333333 0.3333333)(0.3333333 0.3333333 0.3333333)(0.3333333 0.3333333 0.3333333)))(((0.3333333 0.3333333 0.3333333)(0.3333333 0.3333333 0.3333333)(0.3333333 0.3333333 0.3333333))((0.3333333 0.3333333 0.3333333)(0.3333333 0.3333333 0.3333333)(0.3333333 0.3333333 0.3333333))((0.3333333 0.3333333 0.3333333)(0.3333333 0.3333333 0.3333333)(0.3333333 0.3333333 0.3333333)))(((0.3333333 0.3333333 0.3333333)(0.3333333 0.3333333 0.3333333)(0.3333333 0.3333333 0.3333333))((0.3333333 0.3333333 0.3333333)(0.3333333 0.3333333 0.3333333)(0.3333333 0.3333333 0.3333333))((0.3333333 0.3333333 0.3333333)(0.3333333 0.3333333 0.3333333)(0.3333333 0.3333333 0.3333333))))((((0.3333333 0.3333333 0.3333333)(0.3333333 0.3333333 0.3333333)(0.3333333 0.3333333 0.3333333))((0.3333333 0.3333333 0.3333333)(0.3333333 0.3333333 0.3333333)(0.3333333 0.3333333 0.3333333))((0.3333333 0.3333333 0.3333333)(0.3333333 0.3333333 0.3333333)(0.3333333 0.3333333 0.3333333)))(((0.3333333 0.3333333 0.3333333)(0.3333333 0.3333333 0.3333333)(0.3333333 0.3333333 0.3333333))((0.3333333 0.3333333 0.3333333)(0.3333333 0.3333333 0.3333333)(0.3333333 0.3333333 0.3333333))((0.3333333 0.3333333 0.3333333)(0.3333333 0.3333333 0.3333333)(0.3333333 0.3333333 0.3333333)))(((0.3333333 0.3333333 0.3333333)(0.3333333 0.3333333 0.3333333)(0.3333333 0.3333333 0.3333333))((0.3333333 0.3333333 0.3333333)(0.3333333 0.3333333 0.3333333)(0.004065041 0.991869919 0.004065041))((0.3333333 0.3333333 0.3333333)(0.3333333 0.3333333 0.3333333)(0.3333333 0.3333333 0.3333333))))) ;
}
potential ( Taldo1 | Serpina1d Slc39a4 Azgp1 ) 
{
  data = ((((0.993883792 0.003058104 0.003058104)(0.3333333 0.3333333 0.3333333)(0.3333333 0.3333333 0.3333333))((0.3333333 0.3333333 0.3333333)(0.3333333 0.3333333 0.3333333)(0.3333333 0.3333333 0.3333333))((0.3333333 0.3333333 0.3333333)(0.3333333 0.3333333 0.3333333)(0.3333333 0.3333333 0.3333333)))(((0.3333333 0.3333333 0.3333333)(0.3333333 0.3333333 0.3333333)(0.3333333 0.3333333 0.3333333))((0.3333333 0.3333333 0.3333333)(0.3333333 0.3333333 0.3333333)(0.3333333 0.3333333 0.3333333))((0.3333333 0.3333333 0.3333333)(0.01190476 0.01190476 0.97619048)(0.3333333 0.3333333 0.3333333)))(((0.3333333 0.3333333 0.3333333)(0.3333333 0.3333333 0.3333333)(0.01190476 0.97619048 0.01190476))((0.3333333 0.3333333 0.3333333)(0.3333333 0.3333333 0.3333333)(0.3333333 0.3333333 0.3333333))((0.3333333 0.3333333 0.3333333)(0.3333333 0.3333333 0.3333333)(0.3333333 0.3333333 0.3333333)))) ;
}
potential ( Ttr | Slc39a4 Slc39a11 Gstm2 Slpi ) 
{
  data = (((((0.9983579639 0.0008210181 0.0008210181)(0.3333333 0.3333333 0.3333333)(0.3333333 0.3333333 0.3333333))((0.3333333 0.3333333 0.3333333)(0.3333333 0.3333333 0.3333333)(0.3333333 0.3333333 0.3333333))((0.3333333 0.3333333 0.3333333)(0.3333333 0.3333333 0.3333333)(0.3333333 0.3333333 0.3333333)))(((0.3333333 0.3333333 0.3333333)(0.3333333 0.3333333 0.3333333)(0.3333333 0.3333333 0.3333333))((0.3333333 0.3333333 0.3333333)(0.3333333 0.3333333 0.3333333)(0.3333333 0.3333333 0.3333333))((0.3333333 0.3333333 0.3333333)(0.3333333 0.3333333 0.3333333)(0.3333333 0.3333333 0.3333333)))(((0.3333333 0.3333333 0.3333333)(0.3333333 0.3333333 0.3333333)(0.3333333 0.3333333 0.3333333))((0.3333333 0.3333333 0.3333333)(0.3333333 0.3333333 0.3333333)(0.3333333 0.3333333 0.3333333))((0.3333333 0.3333333 0.3333333)(0.3333333 0.3333333 0.3333333)(0.3333333 0.3333333 0.3333333))))((((0.3333333 0.3333333 0.3333333)(0.3333333 0.3333333 0.3333333)(0.3333333 0.3333333 0.3333333))((0.3333333 0.3333333 0.3333333)(0.3333333 0.3333333 0.3333333)(0.3333333 0.3333333 0.3333333))((0.3333333 0.3333333 0.3333333)(0.3333333 0.3333333 0.3333333)(0.3333333 0.3333333 0.3333333)))(((0.3333333 0.3333333 0.3333333)(0.3333333 0.3333333 0.3333333)(0.3333333 0.3333333 0.3333333))((0.3333333 0.3333333 0.3333333)(0.3333333 0.3333333 0.3333333)(0.3333333 0.3333333 0.3333333))((0.3333333 0.3333333 0.3333333)(0.3333333 0.3333333 0.3333333)(0.3333333 0.3333333 0.3333333)))(((0.3333333 0.3333333 0.3333333)(0.3333333 0.3333333 0.3333333)(0.3333333 0.3333333 0.3333333))((0.3333333 0.3333333 0.3333333)(0.3333333 0.3333333 0.3333333)(0.3333333 0.3333333 0.3333333))((0.3333333 0.3333333 0.3333333)(0.3333333 0.3333333 0.3333333)(0.3333333 0.3333333 0.3333333))))((((0.3333333 0.3333333 0.3333333)(0.3333333 0.3333333 0.3333333)(0.3333333 0.3333333 0.3333333))((0.3333333 0.3333333 0.3333333)(0.3333333 0.3333333 0.3333333)(0.3333333 0.3333333 0.3333333))((0.3333333 0.3333333 0.3333333)(0.3333333 0.3333333 0.3333333)(0.3333333 0.3333333 0.3333333)))(((0.3333333 0.3333333 0.3333333)(0.3333333 0.3333333 0.3333333)(0.3333333 0.3333333 0.3333333))((0.3333333 0.3333333 0.3333333)(0.3333333 0.3333333 0.3333333)(0.3333333 0.3333333 0.3333333))((0.3333333 0.3333333 0.3333333)(0.3333333 0.3333333 0.3333333)(0.3333333 0.3333333 0.3333333)))(((0.3333333 0.3333333 0.3333333)(0.3333333 0.3333333 0.3333333)(0.3333333 0.3333333 0.3333333))((0.3333333 0.3333333 0.3333333)(0.3333333 0.3333333 0.3333333)(0.3333333 0.3333333 0.3333333))((0.3333333 0.3333333 0.3333333)(0.3333333 0.3333333 0.3333333)(0.004065041 0.991869919 0.004065041))))) ;
}
potential ( Uox | Slc39a4 Pah Gstm2 Slpi ) 
{
  data = (((((0.9983579639 0.0008210181 0.0008210181)(0.3333333 0.3333333 0.3333333)(0.3333333 0.3333333 0.3333333))((0.3333333 0.3333333 0.3333333)(0.3333333 0.3333333 0.3333333)(0.3333333 0.3333333 0.3333333))((0.3333333 0.3333333 0.3333333)(0.3333333 0.3333333 0.3333333)(0.3333333 0.3333333 0.3333333)))(((0.3333333 0.3333333 0.3333333)(0.3333333 0.3333333 0.3333333)(0.3333333 0.3333333 0.3333333))((0.3333333 0.3333333 0.3333333)(0.3333333 0.3333333 0.3333333)(0.3333333 0.3333333 0.3333333))((0.3333333 0.3333333 0.3333333)(0.3333333 0.3333333 0.3333333)(0.3333333 0.3333333 0.3333333)))(((0.3333333 0.3333333 0.3333333)(0.3333333 0.3333333 0.3333333)(0.3333333 0.3333333 0.3333333))((0.3333333 0.3333333 0.3333333)(0.3333333 0.3333333 0.3333333)(0.3333333 0.3333333 0.3333333))((0.3333333 0.3333333 0.3333333)(0.3333333 0.3333333 0.3333333)(0.3333333 0.3333333 0.3333333))))((((0.3333333 0.3333333 0.3333333)(0.3333333 0.3333333 0.3333333)(0.3333333 0.3333333 0.3333333))((0.3333333 0.3333333 0.3333333)(0.3333333 0.3333333 0.3333333)(0.3333333 0.3333333 0.3333333))((0.3333333 0.3333333 0.3333333)(0.3333333 0.3333333 0.3333333)(0.3333333 0.3333333 0.3333333)))(((0.3333333 0.3333333 0.3333333)(0.3333333 0.3333333 0.3333333)(0.3333333 0.3333333 0.3333333))((0.3333333 0.3333333 0.3333333)(0.3333333 0.3333333 0.3333333)(0.3333333 0.3333333 0.3333333))((0.3333333 0.3333333 0.3333333)(0.3333333 0.3333333 0.3333333)(0.3333333 0.3333333 0.3333333)))(((0.3333333 0.3333333 0.3333333)(0.3333333 0.3333333 0.3333333)(0.3333333 0.3333333 0.3333333))((0.3333333 0.3333333 0.3333333)(0.3333333 0.3333333 0.3333333)(0.3333333 0.3333333 0.3333333))((0.3333333 0.3333333 0.3333333)(0.3333333 0.3333333 0.3333333)(0.3333333 0.3333333 0.3333333))))((((0.3333333 0.3333333 0.3333333)(0.3333333 0.3333333 0.3333333)(0.3333333 0.3333333 0.3333333))((0.3333333 0.3333333 0.3333333)(0.3333333 0.3333333 0.3333333)(0.3333333 0.3333333 0.3333333))((0.3333333 0.3333333 0.3333333)(0.3333333 0.3333333 0.3333333)(0.3333333 0.3333333 0.3333333)))(((0.3333333 0.3333333 0.3333333)(0.3333333 0.3333333 0.3333333)(0.3333333 0.3333333 0.3333333))((0.3333333 0.3333333 0.3333333)(0.3333333 0.3333333 0.3333333)(0.3333333 0.3333333 0.3333333))((0.3333333 0.3333333 0.3333333)(0.3333333 0.3333333 0.3333333)(0.004065041 0.991869919 0.004065041)))(((0.3333333 0.3333333 0.3333333)(0.3333333 0.3333333 0.3333333)(0.3333333 0.3333333 0.3333333))((0.3333333 0.3333333 0.3333333)(0.3333333 0.3333333 0.3333333)(0.3333333 0.3333333 0.3333333))((0.3333333 0.3333333 0.3333333)(0.3333333 0.3333333 0.3333333)(0.3333333 0.3333333 0.3333333))))) ;
}
potential ( Cyp2d10 | Slc39a11 Gstm2 Slpi Cyp2d11 ) 
{
  data = (((((0.99726776 0.00136612 0.00136612)(0.3333333 0.3333333 0.3333333)(0.00204499 0.00204499 0.99591002))((0.3333333 0.3333333 0.3333333)(0.3333333 0.3333333 0.3333333)(0.3333333 0.3333333 0.3333333))((0.3333333 0.3333333 0.3333333)(0.3333333 0.3333333 0.3333333)(0.3333333 0.3333333 0.3333333)))(((0.3333333 0.3333333 0.3333333)(0.3333333 0.3333333 0.3333333)(0.3333333 0.3333333 0.3333333))((0.3333333 0.3333333 0.3333333)(0.3333333 0.3333333 0.3333333)(0.3333333 0.3333333 0.3333333))((0.3333333 0.3333333 0.3333333)(0.3333333 0.3333333 0.3333333)(0.3333333 0.3333333 0.3333333)))(((0.3333333 0.3333333 0.3333333)(0.3333333 0.3333333 0.3333333)(0.3333333 0.3333333 0.3333333))((0.3333333 0.3333333 0.3333333)(0.3333333 0.3333333 0.3333333)(0.3333333 0.3333333 0.3333333))((0.3333333 0.3333333 0.3333333)(0.3333333 0.3333333 0.3333333)(0.3333333 0.3333333 0.3333333))))((((0.3333333 0.3333333 0.3333333)(0.3333333 0.3333333 0.3333333)(0.3333333 0.3333333 0.3333333))((0.3333333 0.3333333 0.3333333)(0.3333333 0.3333333 0.3333333)(0.3333333 0.3333333 0.3333333))((0.3333333 0.3333333 0.3333333)(0.3333333 0.3333333 0.3333333)(0.3333333 0.3333333 0.3333333)))(((0.3333333 0.3333333 0.3333333)(0.3333333 0.3333333 0.3333333)(0.3333333 0.3333333 0.3333333))((0.3333333 0.3333333 0.3333333)(0.3333333 0.3333333 0.3333333)(0.3333333 0.3333333 0.3333333))((0.3333333 0.3333333 0.3333333)(0.3333333 0.3333333 0.3333333)(0.3333333 0.3333333 0.3333333)))(((0.3333333 0.3333333 0.3333333)(0.3333333 0.3333333 0.3333333)(0.3333333 0.3333333 0.3333333))((0.3333333 0.3333333 0.3333333)(0.3333333 0.3333333 0.3333333)(0.3333333 0.3333333 0.3333333))((0.3333333 0.3333333 0.3333333)(0.3333333 0.3333333 0.3333333)(0.3333333 0.3333333 0.3333333))))((((0.3333333 0.3333333 0.3333333)(0.3333333 0.3333333 0.3333333)(0.3333333 0.3333333 0.3333333))((0.3333333 0.3333333 0.3333333)(0.3333333 0.3333333 0.3333333)(0.3333333 0.3333333 0.3333333))((0.3333333 0.3333333 0.3333333)(0.3333333 0.3333333 0.3333333)(0.3333333 0.3333333 0.3333333)))(((0.3333333 0.3333333 0.3333333)(0.3333333 0.3333333 0.3333333)(0.3333333 0.3333333 0.3333333))((0.3333333 0.3333333 0.3333333)(0.3333333 0.3333333 0.3333333)(0.3333333 0.3333333 0.3333333))((0.3333333 0.3333333 0.3333333)(0.3333333 0.3333333 0.3333333)(0.3333333 0.3333333 0.3333333)))(((0.3333333 0.3333333 0.3333333)(0.3333333 0.3333333 0.3333333)(0.3333333 0.3333333 0.3333333))((0.3333333 0.3333333 0.3333333)(0.3333333 0.3333333 0.3333333)(0.3333333 0.3333333 0.3333333))((0.3333333 0.3333333 0.3333333)(0.004065041 0.991869919 0.004065041)(0.3333333 0.3333333 0.3333333))))) ;
}
potential ( Gstm2 | Slc39a11 Slpi ) 
{
  data = (((0.985507246 0.007246377 0.007246377)(0.3333333 0.3333333 0.3333333)(0.3333333 0.3333333 0.3333333))((0.3333333 0.3333333 0.3333333)(0.3333333 0.3333333 0.3333333)(0.3333333 0.3333333 0.3333333))((0.3333333 0.3333333 0.3333333)(0.3333333 0.3333333 0.3333333)(0.03333333 0.03333333 0.93333333))) ;
}
potential ( Inmt | Hsd11b1 Rgn Slc39a11 ) 
{
  data = ((((0.993883792 0.003058104 0.003058104)(0.3333333 0.3333333 0.3333333)(0.3333333 0.3333333 0.3333333))((0.3333333 0.3333333 0.3333333)(0.3333333 0.3333333 0.3333333)(0.3333333 0.3333333 0.3333333))((0.3333333 0.3333333 0.3333333)(0.3333333 0.3333333 0.3333333)(0.3333333 0.3333333 0.3333333)))(((0.3333333 0.3333333 0.3333333)(0.3333333 0.3333333 0.3333333)(0.3333333 0.3333333 0.3333333))((0.3333333 0.3333333 0.3333333)(0.3333333 0.3333333 0.3333333)(0.01190476 0.97619048 0.01190476))((0.3333333 0.3333333 0.3333333)(0.3333333 0.3333333 0.3333333)(0.3333333 0.3333333 0.3333333)))(((0.01190476 0.01190476 0.97619048)(0.3333333 0.3333333 0.3333333)(0.3333333 0.3333333 0.3333333))((0.3333333 0.3333333 0.3333333)(0.3333333 0.3333333 0.3333333)(0.3333333 0.3333333 0.3333333))((0.3333333 0.3333333 0.3333333)(0.3333333 0.3333333 0.3333333)(0.3333333 0.3333333 0.3333333)))) ;
}
potential ( Slpi | Slc39a11 ) 
{
  data = ((0.95833333 0.02083333 0.02083333)(0.3333333 0.3333333 0.3333333)(0.08333333 0.08333333 0.83333333)) ;
}
potential ( Azgp1 | Hsd11b1 Serpina1d Slc39a4 Inmt ) 
{
  data = (((((0.997948718 0.001025641 0.001025641)(0.3333333 0.3333333 0.3333333)(0.3333333 0.3333333 0.3333333))((0.3333333 0.3333333 0.3333333)(0.3333333 0.3333333 0.3333333)(0.3333333 0.3333333 0.3333333))((0.3333333 0.3333333 0.3333333)(0.3333333 0.3333333 0.3333333)(0.3333333 0.3333333 0.3333333)))(((0.3333333 0.3333333 0.3333333)(0.3333333 0.3333333 0.3333333)(0.3333333 0.3333333 0.3333333))((0.3333333 0.3333333 0.3333333)(0.3333333 0.3333333 0.3333333)(0.3333333 0.3333333 0.3333333))((0.3333333 0.3333333 0.3333333)(0.3333333 0.3333333 0.3333333)(0.3333333 0.3333333 0.3333333)))(((0.3333333 0.3333333 0.3333333)(0.3333333 0.3333333 0.3333333)(0.3333333 0.3333333 0.3333333))((0.3333333 0.3333333 0.3333333)(0.3333333 0.3333333 0.3333333)(0.3333333 0.3333333 0.3333333))((0.3333333 0.3333333 0.3333333)(0.3333333 0.3333333 0.3333333)(0.3333333 0.3333333 0.3333333))))((((0.3333333 0.3333333 0.3333333)(0.3333333 0.3333333 0.3333333)(0.3333333 0.3333333 0.3333333))((0.3333333 0.3333333 0.3333333)(0.3333333 0.3333333 0.3333333)(0.3333333 0.3333333 0.3333333))((0.3333333 0.3333333 0.3333333)(0.3333333 0.3333333 0.3333333)(0.3333333 0.3333333 0.3333333)))(((0.3333333 0.3333333 0.3333333)(0.3333333 0.3333333 0.3333333)(0.3333333 0.3333333 0.3333333))((0.3333333 0.3333333 0.3333333)(0.3333333 0.3333333 0.3333333)(0.3333333 0.3333333 0.3333333))((0.3333333 0.3333333 0.3333333)(0.004065041 0.991869919 0.004065041)(0.3333333 0.3333333 0.3333333)))(((0.3333333 0.3333333 0.3333333)(0.3333333 0.3333333 0.3333333)(0.3333333 0.3333333 0.3333333))((0.3333333 0.3333333 0.3333333)(0.3333333 0.3333333 0.3333333)(0.3333333 0.3333333 0.3333333))((0.3333333 0.3333333 0.3333333)(0.3333333 0.3333333 0.3333333)(0.3333333 0.3333333 0.3333333))))((((0.3333333 0.3333333 0.3333333)(0.3333333 0.3333333 0.3333333)(0.3333333 0.3333333 0.3333333))((0.3333333 0.3333333 0.3333333)(0.3333333 0.3333333 0.3333333)(0.3333333 0.3333333 0.3333333))((0.3333333 0.3333333 0.3333333)(0.3333333 0.3333333 0.3333333)(0.3333333 0.3333333 0.3333333)))(((0.3333333 0.3333333 0.3333333)(0.3333333 0.3333333 0.3333333)(0.3333333 0.3333333 0.3333333))((0.3333333 0.3333333 0.3333333)(0.3333333 0.3333333 0.3333333)(0.3333333 0.3333333 0.3333333))((0.3333333 0.3333333 0.3333333)(0.3333333 0.3333333 0.3333333)(0.3333333 0.3333333 0.3333333)))(((0.3333333 0.3333333 0.3333333)(0.3333333 0.3333333 0.3333333)(0.004065041 0.004065041 0.991869919))((0.3333333 0.3333333 0.3333333)(0.3333333 0.3333333 0.3333333)(0.3333333 0.3333333 0.3333333))((0.3333333 0.3333333 0.3333333)(0.3333333 0.3333333 0.3333333)(0.3333333 0.3333333 0.3333333))))) ;
}
potential ( Cyp2d11 | Hsd11b1 Slc39a14 COX3 ) 
{
  data = ((((0.991869919 0.004065041 0.004065041)(0.3333333 0.3333333 0.3333333)(0.3333333 0.3333333 0.3333333))((0.3333333 0.3333333 0.3333333)(0.3333333 0.3333333 0.3333333)(0.3333333 0.3333333 0.3333333))((0.3333333 0.3333333 0.3333333)(0.3333333 0.3333333 0.3333333)(0.01190476 0.01190476 0.97619048)))(((0.3333333 0.3333333 0.3333333)(0.01190476 0.97619048 0.01190476)(0.3333333 0.3333333 0.3333333))((0.3333333 0.3333333 0.3333333)(0.3333333 0.3333333 0.3333333)(0.3333333 0.3333333 0.3333333))((0.3333333 0.3333333 0.3333333)(0.3333333 0.3333333 0.3333333)(0.3333333 0.3333333 0.3333333)))(((0.01190476 0.01190476 0.97619048)(0.3333333 0.3333333 0.3333333)(0.3333333 0.3333333 0.3333333))((0.3333333 0.3333333 0.3333333)(0.3333333 0.3333333 0.3333333)(0.3333333 0.3333333 0.3333333))((0.3333333 0.3333333 0.3333333)(0.3333333 0.3333333 0.3333333)(0.3333333 0.3333333 0.3333333)))) ;
}
potential ( Ly6d | Rgn Adh1 Uox ) 
{
  data = ((((0.99509804 0.00245098 0.00245098)(0.3333333 0.3333333 0.3333333)(0.3333333 0.3333333 0.3333333))((0.3333333 0.3333333 0.3333333)(0.3333333 0.3333333 0.3333333)(0.3333333 0.3333333 0.3333333))((0.3333333 0.3333333 0.3333333)(0.3333333 0.3333333 0.3333333)(0.3333333 0.3333333 0.3333333)))(((0.3333333 0.3333333 0.3333333)(0.3333333 0.3333333 0.3333333)(0.3333333 0.3333333 0.3333333))((0.3333333 0.3333333 0.3333333)(0.01190476 0.01190476 0.97619048)(0.3333333 0.3333333 0.3333333))((0.3333333 0.3333333 0.3333333)(0.3333333 0.3333333 0.3333333)(0.3333333 0.3333333 0.3333333)))(((0.3333333 0.3333333 0.3333333)(0.3333333 0.3333333 0.3333333)(0.3333333 0.3333333 0.3333333))((0.3333333 0.3333333 0.3333333)(0.3333333 0.3333333 0.3333333)(0.3333333 0.3333333 0.3333333))((0.3333333 0.3333333 0.3333333)(0.3333333 0.3333333 0.3333333)(0.3333333 0.3333333 0.3333333)))) ;
}
potential ( F10 ) 
{
  data = ( 0.6190476 0.1904762 0.1904762 );
}
potential ( Ndor1 | Slc39a14 Ly6d ) 
{
  data = (((0.981981982 0.009009009 0.009009009)(0.3333333 0.3333333 0.3333333)(0.03333333 0.93333333 0.03333333))((0.3333333 0.3333333 0.3333333)(0.3333333 0.3333333 0.3333333)(0.3333333 0.3333333 0.3333333))((0.03333333 0.03333333 0.93333333)(0.3333333 0.3333333 0.3333333)(0.3333333 0.3333333 0.3333333))) ;
}
potential ( COX3 | Gstm2 Ly6d Ndor1 ) 
{
  data = ((((0.993883792 0.003058104 0.003058104)(0.3333333 0.3333333 0.3333333)(0.01190476 0.01190476 0.97619048))((0.3333333 0.3333333 0.3333333)(0.3333333 0.3333333 0.3333333)(0.3333333 0.3333333 0.3333333))((0.3333333 0.3333333 0.3333333)(0.3333333 0.3333333 0.3333333)(0.3333333 0.3333333 0.3333333)))(((0.3333333 0.3333333 0.3333333)(0.3333333 0.3333333 0.3333333)(0.3333333 0.3333333 0.3333333))((0.3333333 0.3333333 0.3333333)(0.3333333 0.3333333 0.3333333)(0.3333333 0.3333333 0.3333333))((0.3333333 0.3333333 0.3333333)(0.3333333 0.3333333 0.3333333)(0.3333333 0.3333333 0.3333333)))(((0.3333333 0.3333333 0.3333333)(0.3333333 0.3333333 0.3333333)(0.3333333 0.3333333 0.3333333))((0.3333333 0.3333333 0.3333333)(0.3333333 0.3333333 0.3333333)(0.3333333 0.3333333 0.3333333))((0.3333333 0.3333333 0.3333333)(0.01190476 0.97619048 0.01190476)(0.3333333 0.3333333 0.3333333)))) ;
}
potential ( Gm13202 | Pah ) 
{
  data = ((0.77083333 0.02083333 0.20833333)(0.08333333 0.83333333 0.08333333)(0.3333333 0.3333333 0.3333333)) ;
}
potential ( Fmo3 | Mt3 ) 
{
  data = ((0.94871795 0.02564103 0.02564103)(0.3333333 0.3333333 0.3333333)(0.04761905 0.04761905 0.90476190)) ;
}
